function anonymous(rawInput
) {

  var input = rawInput;
  var json = {"type":"LSTMTimeStep","options":{"inputSize":7,"hiddenLayers":[50],"outputSize":7,"decayRate":0.999,"smoothEps":1e-8,"regc":0.000001,"clipval":5},"hiddenLayers":[{"inputMatrix":{"rows":50,"columns":7,"weights":{"0":0.15216153860092163,"1":0.2507764995098114,"2":0.22436589002609253,"3":0.18032537400722504,"4":0.2360450178384781,"5":0.11248797923326492,"6":0.10906962305307388,"7":-0.6068864464759827,"8":0.14805543422698975,"9":-1.0071521997451782,"10":-0.019087838008999825,"11":0.2591480016708374,"12":1.5936100482940674,"13":1.881677269935608,"14":-0.27688685059547424,"15":-0.15165117383003235,"16":-0.3197735846042633,"17":-0.2112465351819992,"18":0.43405696749687195,"19":-0.12466084957122803,"20":-0.10866276174783707,"21":-0.028137072920799255,"22":0.1568838208913803,"23":0.11437954753637314,"24":-0.12615551054477692,"25":0.04649997502565384,"26":0.17083531618118286,"27":0.0743081271648407,"28":-0.19819341599941254,"29":0.12403073906898499,"30":-0.12797954678535461,"31":-0.2704145610332489,"32":-0.05707506462931633,"33":0.02188524231314659,"34":-0.17837709188461304,"35":-0.15192684531211853,"36":-0.3119949400424957,"37":-0.087428517639637,"38":-0.30922451615333557,"39":0.3760707676410675,"40":-0.0644463449716568,"41":0.14194893836975098,"42":-0.15531331300735474,"43":-0.06900501251220703,"44":-0.05150916427373886,"45":-0.5669239163398743,"46":-0.20236258208751678,"47":0.1903097778558731,"48":-0.10005667060613632,"49":0.1452476978302002,"50":0.2668587267398834,"51":0.05474623292684555,"52":0.18742366135120392,"53":0.17874900996685028,"54":0.12603768706321716,"55":0.07778451591730118,"56":0.3558845818042755,"57":0.4640232026576996,"58":-0.3021547198295593,"59":0.22088180482387543,"60":0.3747909367084503,"61":0.4506753087043762,"62":0.2813246250152588,"63":-0.35455283522605896,"64":-0.32084763050079346,"65":-0.23625074326992035,"66":-0.328220009803772,"67":-0.2900715470314026,"68":-0.29565489292144775,"69":-0.2706683278083801,"70":0.16424600780010223,"71":0.08891469240188599,"72":0.30396226048469543,"73":0.19107110798358917,"74":0.10339968651533127,"75":0.1864854246377945,"76":0.2651011049747467,"77":-0.041631899774074554,"78":-0.12739133834838867,"79":-0.06811820715665817,"80":-0.15208759903907776,"81":-0.17202790081501007,"82":-0.05804109945893288,"83":0.05869589000940323,"84":0.29763710498809814,"85":-0.4303927421569824,"86":-0.39316990971565247,"87":0.31501296162605286,"88":0.21745316684246063,"89":-0.6866025328636169,"90":-0.6398693323135376,"91":-0.010332024656236172,"92":0.11813504248857498,"93":0.10204675793647766,"94":0.050086185336112976,"95":0.1340930163860321,"96":0.1399870067834854,"97":0.044412460178136826,"98":-0.0565369576215744,"99":-0.03267254680395126,"100":0.15278857946395874,"101":-0.3287149667739868,"102":-0.04896525293588638,"103":-0.09652315825223923,"104":0.012730839662253857,"105":-0.03494836390018463,"106":0.4243876039981842,"107":0.001158971106633544,"108":-0.18351103365421295,"109":-0.4067785143852234,"110":-0.6292343735694885,"111":0.41424378752708435,"112":-0.0445062629878521,"113":-0.11810412257909775,"114":-0.01980411261320114,"115":-0.01446510013192892,"116":-0.10417275875806808,"117":0.03597840294241905,"118":-0.013687144964933395,"119":-0.16898436844348907,"120":-0.14318490028381348,"121":0.03504784032702446,"122":-0.06269772350788116,"123":0.05746130645275116,"124":-0.2266797423362732,"125":-0.17957937717437744,"126":-0.05131205543875694,"127":0.4669118821620941,"128":0.2888331115245819,"129":-0.29173901677131653,"130":0.12603381276130676,"131":-0.05061659589409828,"132":-0.17272470891475677,"133":-0.13257353007793427,"134":-0.24647939205169678,"135":-0.13301752507686615,"136":0.07171667367219925,"137":-0.12379022687673569,"138":0.031027168035507202,"139":-0.04107073321938515,"140":0.29960671067237854,"141":0.025229504331946373,"142":0.15700843930244446,"143":0.5146127343177795,"144":0.08433268964290619,"145":0.177458718419075,"146":0.1900583803653717,"147":-0.10123880207538605,"148":0.4022357165813446,"149":0.13851363956928253,"150":-0.2501368224620819,"151":-0.02253195270895958,"152":0.7216200828552246,"153":0.5568235516548157,"154":0.0397476889193058,"155":-0.3017352819442749,"156":0.1373506635427475,"157":-0.021476397290825844,"158":-0.2132088840007782,"159":-0.018732381984591484,"160":-0.25254666805267334,"161":-0.04638493061065674,"162":-0.3899676501750946,"163":-0.24115681648254395,"164":-0.0893794596195221,"165":-0.1900017112493515,"166":-0.11906368285417557,"167":-0.053309738636016846,"168":0.16837380826473236,"169":-0.3659783899784088,"170":-0.01671728864312172,"171":0.12491493672132492,"172":-0.031477008014917374,"173":-0.2519488036632538,"174":0.07891763746738434,"175":-0.03345312923192978,"176":-0.2673247754573822,"177":-0.25802838802337646,"178":-0.13157464563846588,"179":-0.06713101267814636,"180":-0.35499879717826843,"181":0.3227531313896179,"182":0.695292055606842,"183":0.7861080169677734,"184":-0.013420158065855503,"185":-0.19709856808185577,"186":-0.08261216431856155,"187":-0.041004788130521774,"188":0.6733275055885315,"189":-0.0741998553276062,"190":0.2514427900314331,"191":0.07865854352712631,"192":-0.10861657559871674,"193":0.04898083955049515,"194":0.15430176258087158,"195":0.050897832959890366,"196":-0.12580826878547668,"197":-0.14672541618347168,"198":-0.08579163253307343,"199":-0.02337558940052986,"200":-0.09456688910722733,"201":-0.09124595671892166,"202":0.021410269662737846,"203":-0.28694769740104675,"204":-0.16661697626113892,"205":-0.35882946848869324,"206":-0.05887354910373688,"207":-0.15661846101284027,"208":-0.12406545132398605,"209":-0.11412172764539719,"210":-0.04213198646903038,"211":-0.21251794695854187,"212":-0.17649555206298828,"213":-0.03260393440723419,"214":-0.21580973267555237,"215":-0.09280705451965332,"216":-0.12503968179225922,"217":0.09357113391160965,"218":0.24197140336036682,"219":0.0615864098072052,"220":0.2350219339132309,"221":0.28979671001434326,"222":0.07974541932344437,"223":0.2356274574995041,"224":-0.10583768039941788,"225":-0.055420540273189545,"226":-0.00311181228607893,"227":-0.1347244530916214,"228":-0.040940385311841965,"229":0.07179760187864304,"230":-0.07240063697099686,"231":0.06246592849493027,"232":-0.0623684823513031,"233":-0.09551998227834702,"234":0.21383635699748993,"235":0.0049078986048698425,"236":-0.07385074347257614,"237":-0.06956058740615845,"238":0.08738218992948532,"239":-0.4827321469783783,"240":0.10948151350021362,"241":-0.046736154705286026,"242":-0.046000946313142776,"243":-0.1547633707523346,"244":-0.4634486734867096,"245":-0.837729811668396,"246":-0.4311172068119049,"247":0.31412068009376526,"248":-0.12646104395389557,"249":-0.33228054642677307,"250":1.8441641330718994,"251":0.09740705788135529,"252":0.2261430323123932,"253":0.274478018283844,"254":0.08368856459856033,"255":0.1422293335199356,"256":0.207210510969162,"257":0.22889238595962524,"258":0.1591114103794098,"259":0.350027859210968,"260":0.12285742163658142,"261":0.21321886777877808,"262":0.18729600310325623,"263":0.007718466687947512,"264":0.22638694941997528,"265":0.29640406370162964,"266":0.11332296580076218,"267":0.11292500793933868,"268":0.2833407521247864,"269":0.10057157278060913,"270":-0.16238054633140564,"271":0.031658072024583817,"272":0.05087905004620552,"273":0.06329155713319778,"274":0.5144779682159424,"275":1.955815076828003,"276":-0.8310075402259827,"277":-0.7577152252197266,"278":0.395592600107193,"279":-0.26319700479507446,"280":-0.12696503102779388,"281":0.1501104086637497,"282":-0.015096702612936497,"283":-0.18657097220420837,"284":0.04004478454589844,"285":0.11311031132936478,"286":-0.04477535933256149,"287":0.4079373776912689,"288":0.5271823406219482,"289":1.2077889442443848,"290":-0.4969627559185028,"291":-0.21651746332645416,"292":-0.5143204927444458,"293":1.6772270202636719,"294":-0.3556658923625946,"295":0.8558937907218933,"296":0.24341145157814026,"297":-1.4244647026062012,"298":0.4172724187374115,"299":2.490217447280884,"300":-0.0518186055123806,"301":0.156183123588562,"302":0.2175026684999466,"303":0.20768499374389648,"304":0.07474493235349655,"305":0.14709973335266113,"306":0.062011171132326126,"307":0.15972380340099335,"308":0.04743453860282898,"309":-0.1155116856098175,"310":-0.10409677028656006,"311":0.03973129764199257,"312":-0.130305677652359,"313":-0.00033601000905036926,"314":0.05261775478720665,"315":-0.08196692168712616,"316":-0.25458258390426636,"317":-0.12216392159461975,"318":-0.04928548261523247,"319":-0.1695580929517746,"320":-0.15615102648735046,"321":-0.10252291709184647,"322":0.24125753343105316,"323":-0.4061964750289917,"324":-0.43669968843460083,"325":0.7492985129356384,"326":-0.15331770479679108,"327":0.26176488399505615,"328":-0.582784116268158,"329":-0.07050484418869019,"330":0.12490437924861908,"331":-0.010395379737019539,"332":0.09165062010288239,"333":0.0145273357629776,"334":-0.24637208878993988,"335":0.01828252337872982,"336":-0.1234884038567543,"337":0.03281524032354355,"338":-0.051195476204156876,"339":-0.03573974594473839,"340":0.05853075161576271,"341":0.171065092086792,"342":-0.008716762997210026,"343":-0.18314607441425323,"344":-0.3566562235355377,"345":0.28786706924438477,"346":-0.43937477469444275,"347":-0.41866594552993774,"348":0.04967503622174263,"349":0.19220009446144104}},"inputHidden":{"rows":50,"columns":50,"weights":{"0":-0.38325780630111694,"1":-0.06086897850036621,"2":-0.03740562126040459,"3":-0.6937975883483887,"4":-0.3430059552192688,"5":0.01966763660311699,"6":0.6085816621780396,"7":-0.05170956626534462,"8":-0.41006383299827576,"9":-0.30002111196517944,"10":0.07822325080633163,"11":0.3389420211315155,"12":-0.10189323872327805,"13":0.6493241786956787,"14":0.07842791080474854,"15":-0.645235538482666,"16":-0.3519287109375,"17":0.3691551685333252,"18":0.3831254541873932,"19":0.0034127889666706324,"20":-0.5819078087806702,"21":-0.4744972884654999,"22":-0.23441076278686523,"23":-0.0712616965174675,"24":0.38390859961509705,"25":-0.20375944674015045,"26":0.37617725133895874,"27":0.6015030145645142,"28":0.01937006413936615,"29":0.07440420985221863,"30":-0.06575662642717361,"31":0.6638751029968262,"32":0.012304378673434258,"33":0.21321651339530945,"34":-0.6222392320632935,"35":0.026747476309537888,"36":-0.6085279583930969,"37":0.42492905259132385,"38":0.06152520701289177,"39":0.7891034483909607,"40":-0.001764632179401815,"41":0.07567235082387924,"42":-0.05146045610308647,"43":0.49858221411705017,"44":0.11177290976047516,"45":-0.4667046070098877,"46":-0.008828401565551758,"47":-0.03490946441888809,"48":-0.3403260409832001,"49":0.2824653387069702,"50":-0.27257612347602844,"51":-0.8054872751235962,"52":-3.4457364082336426,"53":-3.471569538116455,"54":-0.21738235652446747,"55":1.7492914199829102,"56":4.454624176025391,"57":2.6623237133026123,"58":0.4963293671607971,"59":0.1293618530035019,"60":0.5739096403121948,"61":-1.210031509399414,"62":5.554461479187012,"63":0.13977938890457153,"64":0.4167618751525879,"65":0.10912775993347168,"66":-0.9898285269737244,"67":-0.9212571382522583,"68":0.44915971159935,"69":-0.7977171540260315,"70":-0.10729924589395523,"71":-0.27809324860572815,"72":-4.422257900238037,"73":-1.1226555109024048,"74":-1.151628851890564,"75":-2.2397708892822266,"76":0.9035418033599854,"77":-0.13206186890602112,"78":-1.4921621084213257,"79":-0.12055614590644836,"80":-0.1565660536289215,"81":0.30073434114456177,"82":0.7185354232788086,"83":3.471251964569092,"84":-0.309294730424881,"85":2.1059818267822266,"86":-0.2461702525615692,"87":0.10279275476932526,"88":-21.48868179321289,"89":0.11400432884693146,"90":-1.647579312324524,"91":2.1329612731933594,"92":2.604785442352295,"93":-0.36266016960144043,"94":0.6792212724685669,"95":1.0752480030059814,"96":-1.9037060737609863,"97":0.8872977495193481,"98":-1.6500145196914673,"99":0.49693402647972107,"100":0.09499285370111465,"101":-0.5356143712997437,"102":-4.8800435066223145,"103":0.34046369791030884,"104":-0.07835230231285095,"105":1.0650278329849243,"106":-3.457869529724121,"107":0.30349206924438477,"108":-0.499301940202713,"109":0.27229902148246765,"110":0.43455150723457336,"111":0.1328624039888382,"112":-3.912877321243286,"113":-0.23056696355342865,"114":0.13979262113571167,"115":0.08294608443975449,"116":-1.34454345703125,"117":0.03863813728094101,"118":1.5777771472930908,"119":-1.5590426921844482,"120":0.05498839169740677,"121":2.1191422939300537,"122":1.7189010381698608,"123":-0.47483327984809875,"124":0.1005231961607933,"125":-0.041060734540224075,"126":-0.2760683298110962,"127":-0.12485358119010925,"128":-1.3312677145004272,"129":-0.23320889472961426,"130":0.7420563101768494,"131":-0.09857621043920517,"132":0.5936264395713806,"133":-1.2185534238815308,"134":-0.9287213087081909,"135":1.2363678216934204,"136":0.10996288806200027,"137":-0.048386380076408386,"138":-3.486126184463501,"139":2.401280641555786,"140":-3.9279725551605225,"141":2.8033697605133057,"142":-2.616885185241699,"143":0.12166541814804077,"144":0.5753611922264099,"145":-1.4213972091674805,"146":-1.0853863954544067,"147":-1.8084659576416016,"148":-0.08651931583881378,"149":0.8302279114723206,"150":0.07786014676094055,"151":-1.071900486946106,"152":0.7593213319778442,"153":-0.24794207513332367,"154":-0.4854936897754669,"155":0.8254376649856567,"156":5.868900775909424,"157":-0.12119943648576736,"158":0.011603323742747307,"159":0.36540448665618896,"160":-0.2830532193183899,"161":0.6737380027770996,"162":-2.657388210296631,"163":0.558137059211731,"164":0.21071165800094604,"165":0.003742791712284088,"166":-1.0224806070327759,"167":0.2567341923713684,"168":0.13975955545902252,"169":1.6126257181167603,"170":-0.2581076920032501,"171":2.5090713500976562,"172":-0.8877476453781128,"173":-0.18375229835510254,"174":0.44032707810401917,"175":3.050352096557617,"176":1.1493998765945435,"177":-0.05222252756357193,"178":1.0176721811294556,"179":0.3515268564224243,"180":-0.05879776179790497,"181":-0.07397720962762833,"182":-0.25337350368499756,"183":-2.818424940109253,"184":-1.398045301437378,"185":1.3313870429992676,"186":-0.014780432917177677,"187":-0.07885999977588654,"188":1.1587589979171753,"189":-0.13698646426200867,"190":1.1104516983032227,"191":-0.7614479064941406,"192":4.517507076263428,"193":-0.6740341782569885,"194":-0.3307829201221466,"195":-0.4401554465293884,"196":-0.3604802191257477,"197":1.1994091272354126,"198":-8.042634963989258,"199":0.5995963215827942,"200":-0.5404469966888428,"201":-0.5018815398216248,"202":0.3574468493461609,"203":-1.2270464897155762,"204":-1.5157878398895264,"205":-0.43343809247016907,"206":1.0667896270751953,"207":0.020879726856946945,"208":-0.30965784192085266,"209":-0.19258703291416168,"210":0.2900506556034088,"211":0.5899924039840698,"212":-0.10040870308876038,"213":0.7066532373428345,"214":-1.0350863933563232,"215":-0.6494216918945312,"216":1.0675456523895264,"217":0.6958127021789551,"218":0.07918282598257065,"219":-0.29133081436157227,"220":-0.7543407082557678,"221":-2.672598361968994,"222":-0.20494061708450317,"223":-0.23982597887516022,"224":0.2604520618915558,"225":4.901193618774414,"226":-0.3292071223258972,"227":0.7125656008720398,"228":2.539736747741699,"229":0.3148594796657562,"230":-0.020316628739237785,"231":0.6070542335510254,"232":0.36353328824043274,"233":-0.4287935197353363,"234":-0.5716758370399475,"235":0.3080962896347046,"236":-0.6470160484313965,"237":0.39414656162261963,"238":-7.018360137939453,"239":0.5911930799484253,"240":-0.5908578634262085,"241":1.2369598150253296,"242":-3.3159897327423096,"243":0.32631975412368774,"244":0.18691064417362213,"245":1.0927283763885498,"246":-0.39747700095176697,"247":1.219080924987793,"248":-0.6742028594017029,"249":0.9993485808372498,"250":1.028310775756836,"251":2.623422861099243,"252":5.689631462097168,"253":0.12536273896694183,"254":1.9725466966629028,"255":-1.9212449789047241,"256":-2.977083206176758,"257":-0.20285315811634064,"258":1.8875077962875366,"259":0.27838772535324097,"260":-0.633873701095581,"261":1.1237170696258545,"262":2.5245397090911865,"263":-0.09499850124120712,"264":1.4740641117095947,"265":1.4517686367034912,"266":2.6283767223358154,"267":-1.0971890687942505,"268":1.107168197631836,"269":2.2380459308624268,"270":1.224570870399475,"271":1.6314868927001953,"272":29.77903938293457,"273":-1.550173282623291,"274":-0.5943376421928406,"275":2.7091145515441895,"276":-0.026346568018198013,"277":-0.9771146178245544,"278":1.2924120426177979,"279":-0.25829607248306274,"280":-2.190662384033203,"281":-1.0589244365692139,"282":-0.2425587922334671,"283":-0.47880199551582336,"284":1.6967599391937256,"285":-2.2781403064727783,"286":1.1375237703323364,"287":-1.7773897647857666,"288":7.669287204742432,"289":-0.7303393483161926,"290":0.6765492558479309,"291":7.673961639404297,"292":3.162526845932007,"293":-1.6060118675231934,"294":-0.5586704015731812,"295":0.8135315179824829,"296":-0.6130795478820801,"297":-2.2511658668518066,"298":1.792110800743103,"299":-1.7538435459136963,"300":0.08804202079772949,"301":-0.26211556792259216,"302":-0.05630504712462425,"303":-2.4020540714263916,"304":-0.9342316389083862,"305":0.9249402284622192,"306":-2.850323438644409,"307":0.6355748772621155,"308":-0.6362352967262268,"309":-0.3366982340812683,"310":0.7029970288276672,"311":0.8720013499259949,"312":2.042196750640869,"313":0.21171899139881134,"314":0.06782711297273636,"315":0.16610878705978394,"316":0.5752967596054077,"317":2.7420003414154053,"318":0.5623131394386292,"319":-0.12962010502815247,"320":0.009424437768757343,"321":-1.3787760734558105,"322":0.1307547241449356,"323":0.03301325440406799,"324":0.2291174978017807,"325":1.8066555261611938,"326":0.45297613739967346,"327":-0.13956885039806366,"328":-0.6435525417327881,"329":0.2308591902256012,"330":-0.5546581745147705,"331":-0.10729662328958511,"332":0.6488556861877441,"333":0.5000191926956177,"334":-0.15914633870124817,"335":-0.5389459729194641,"336":0.04574969783425331,"337":0.14943023025989532,"338":7.950361728668213,"339":-0.18507874011993408,"340":0.07036177068948746,"341":1.0245002508163452,"342":-0.6819719076156616,"343":0.21403884887695312,"344":0.7856683135032654,"345":-1.7892240285873413,"346":-0.38708925247192383,"347":0.8878334164619446,"348":-1.7742366790771484,"349":0.2698948085308075,"350":-0.04542884975671768,"351":-0.6045401692390442,"352":-0.3392135798931122,"353":0.04403816908597946,"354":0.08842042833566666,"355":0.705959677696228,"356":-0.10998985171318054,"357":0.2337428480386734,"358":0.1922542005777359,"359":0.2704635560512543,"360":0.37799474596977234,"361":0.012014415115118027,"362":0.5101748704910278,"363":-0.09289964288473129,"364":0.9887136816978455,"365":-0.0971529632806778,"366":0.08984620124101639,"367":-0.12850721180438995,"368":-0.08523912727832794,"369":-0.3661332130432129,"370":0.030273696407675743,"371":0.030440837144851685,"372":0.6130956411361694,"373":-0.5170484781265259,"374":-0.22860941290855408,"375":1.1170933246612549,"376":-0.02542198821902275,"377":0.10324916988611221,"378":-0.27591216564178467,"379":-0.26049450039863586,"380":0.2626533806324005,"381":-0.005875723902136087,"382":0.3253236413002014,"383":-0.5005505681037903,"384":-0.03672229126095772,"385":0.4104251265525818,"386":0.055605072528123856,"387":-0.024488668888807297,"388":-0.17907974123954773,"389":2.5229439735412598,"390":0.10528776049613953,"391":0.6137454509735107,"392":0.398373544216156,"393":0.40866726636886597,"394":0.43466466665267944,"395":-0.584972620010376,"396":-0.3555491864681244,"397":-0.3743325471878052,"398":0.2004123479127884,"399":1.6040472984313965,"400":-0.7076494097709656,"401":-0.10108733922243118,"402":-0.3487968444824219,"403":-1.0771161317825317,"404":-0.44223806262016296,"405":0.4925238788127899,"406":0.6764537692070007,"407":-0.2996865510940552,"408":-0.9022807478904724,"409":-0.2717306911945343,"410":0.3584814965724945,"411":0.10822650045156479,"412":0.00684344582259655,"413":0.6588733196258545,"414":0.19540491700172424,"415":-0.8152053952217102,"416":-0.5148262977600098,"417":0.02085452526807785,"418":0.8749530911445618,"419":-0.2599724233150482,"420":-0.9303668737411499,"421":-0.4707340896129608,"422":-0.009081555530428886,"423":-0.10973931849002838,"424":0.48612651228904724,"425":-0.28934237360954285,"426":0.2561107873916626,"427":0.5179591178894043,"428":0.21802416443824768,"429":0.32130905985832214,"430":0.31233084201812744,"431":0.8889269828796387,"432":0.315048485994339,"433":-0.6060512065887451,"434":-0.39217326045036316,"435":0.5099283456802368,"436":-0.8350459933280945,"437":0.5740867853164673,"438":-0.1199946478009224,"439":0.7889323830604553,"440":-0.006435026880353689,"441":0.5566723346710205,"442":0.3008885383605957,"443":0.48855340480804443,"444":0.22896680235862732,"445":-0.5871356129646301,"446":0.20045849680900574,"447":0.1079161986708641,"448":-0.41763320565223694,"449":1.441862940788269,"450":-0.3760802745819092,"451":0.22351735830307007,"452":0.3169634938240051,"453":-0.3253178596496582,"454":-0.3126784861087799,"455":-0.325092613697052,"456":0.25721466541290283,"457":-0.28564566373825073,"458":-0.19860541820526123,"459":-0.15372063219547272,"460":-0.31428444385528564,"461":0.3621785342693329,"462":-0.0470685176551342,"463":0.23550555109977722,"464":0.035009127110242844,"465":-0.30602407455444336,"466":-0.376495361328125,"467":0.22714969515800476,"468":0.3609803318977356,"469":0.37644943594932556,"470":-0.30800774693489075,"471":-0.35362496972084045,"472":-0.2996126115322113,"473":0.3648712933063507,"474":0.3011355400085449,"475":-0.21210935711860657,"476":0.3515786826610565,"477":0.23876598477363586,"478":0.355614572763443,"479":0.11367250978946686,"480":-0.34393447637557983,"481":0.2571469247341156,"482":-0.2980630695819855,"483":0.3041527569293976,"484":-0.29405301809310913,"485":-0.22028887271881104,"486":-0.3529791831970215,"487":0.20224830508232117,"488":0.3253689110279083,"489":-0.09723567217588425,"490":0.1857505887746811,"491":-0.24885188043117523,"492":-0.3554748296737671,"493":0.3210444450378418,"494":-0.2321608066558838,"495":-0.30968353152275085,"496":0.2356557697057724,"497":0.3692374527454376,"498":-0.33169031143188477,"499":-0.09807337075471878,"500":-0.4581022262573242,"501":-1.296255111694336,"502":-0.582755982875824,"503":-0.5253152251243591,"504":-0.4014294743537903,"505":1.4672634601593018,"506":0.2114129364490509,"507":0.8102174401283264,"508":-0.7328323721885681,"509":0.3679598569869995,"510":0.9784843921661377,"511":0.31020697951316833,"512":-0.030835626646876335,"513":0.135549396276474,"514":1.5995813608169556,"515":-0.3733554780483246,"516":-0.3264848589897156,"517":0.8255215883255005,"518":0.447061687707901,"519":-0.8116927146911621,"520":-0.42933306097984314,"521":-0.4385988414287567,"522":1.0545822381973267,"523":-0.9104071259498596,"524":-0.35626140236854553,"525":1.3797404766082764,"526":0.24221983551979065,"527":0.36621055006980896,"528":-0.7207362651824951,"529":-0.2757124900817871,"530":0.92756187915802,"531":0.4380907714366913,"532":1.0693063735961914,"533":-1.2897089719772339,"534":-0.4940471649169922,"535":1.3611782789230347,"536":-0.37730032205581665,"537":0.6868617534637451,"538":-0.9531158208847046,"539":3.2752811908721924,"540":-0.4132987856864929,"541":1.5098758935928345,"542":0.8731669187545776,"543":0.9585359692573547,"544":1.0973360538482666,"545":-0.9798903465270996,"546":-0.7468491792678833,"547":-1.2326093912124634,"548":-0.5296441912651062,"549":2.9952774047851562,"550":-0.23599937558174133,"551":-0.1518966555595398,"552":-3.487635612487793,"553":-1.3356223106384277,"554":0.29745781421661377,"555":0.24081173539161682,"556":2.382556200027466,"557":-0.05784187093377113,"558":0.8611677885055542,"559":-0.3409377932548523,"560":-0.6450399160385132,"561":-1.8704071044921875,"562":3.5699710845947266,"563":0.4417121410369873,"564":0.587994396686554,"565":-0.33101388812065125,"566":-0.26407381892204285,"567":-1.0906800031661987,"568":0.5116469860076904,"569":2.141819715499878,"570":-0.43217238783836365,"571":-0.642527163028717,"572":1.7520025968551636,"573":0.7702896595001221,"574":0.6844879984855652,"575":5.727870941162109,"576":0.7100274562835693,"577":0.5721860527992249,"578":2.776397943496704,"579":0.2849316895008087,"580":-1.1506037712097168,"581":0.13184446096420288,"582":-0.8043184876441956,"583":2.5904459953308105,"584":4.191904067993164,"585":-1.0025700330734253,"586":-0.28118008375167847,"587":-0.15496324002742767,"588":1.014615774154663,"589":0.7668946981430054,"590":0.04391090199351311,"591":2.878340721130371,"592":1.3525559902191162,"593":0.5179099440574646,"594":0.6505197882652283,"595":1.6048482656478882,"596":2.6718344688415527,"597":-1.1498688459396362,"598":-0.07961627840995789,"599":0.8093946576118469,"600":0.08830256760120392,"601":0.17127399146556854,"602":0.5320019721984863,"603":-0.4770486652851105,"604":0.1832781881093979,"605":-1.0834684371948242,"606":-6.302911281585693,"607":-0.9998878836631775,"608":0.14893393218517303,"609":0.01711486093699932,"610":-0.9538313746452332,"611":-0.32923829555511475,"612":10.046627044677734,"613":-0.6394975185394287,"614":5.4927978515625,"615":0.5997516512870789,"616":-0.3469550907611847,"617":-0.5042247772216797,"618":-0.09473085403442383,"619":-1.5745238065719604,"620":0.5175495147705078,"621":0.396864116191864,"622":0.3533678352832794,"623":0.755651593208313,"624":0.18020981550216675,"625":4.8026533126831055,"626":-0.20019584894180298,"627":-0.05613847076892853,"628":0.8985500931739807,"629":0.04956059157848358,"630":-0.3539752662181854,"631":-0.005086962599307299,"632":0.8756471872329712,"633":-0.879022479057312,"634":-0.03387406840920448,"635":-0.6112881898880005,"636":-0.22069527208805084,"637":0.236203134059906,"638":-2.805386781692505,"639":-0.5953921675682068,"640":-0.8538954854011536,"641":-0.9259476065635681,"642":2.005934238433838,"643":0.27309703826904297,"644":-0.6062825322151184,"645":1.4868847131729126,"646":0.5682289600372314,"647":0.3169078826904297,"648":-0.5654228329658508,"649":-0.48339223861694336,"650":-0.14170421659946442,"651":-0.22514387965202332,"652":0.038790009915828705,"653":-0.4717796742916107,"654":-0.16278135776519775,"655":0.3940807580947876,"656":0.27055051922798157,"657":0.05474279075860977,"658":-0.2742261290550232,"659":-0.29205286502838135,"660":0.0005472606862895191,"661":0.01445764023810625,"662":0.690060019493103,"663":0.4183250069618225,"664":0.3421051502227783,"665":-0.28319478034973145,"666":-0.1725301593542099,"667":0.27659663558006287,"668":0.2579464018344879,"669":0.034848783165216446,"670":-0.32706186175346375,"671":-0.2733538746833801,"672":-0.28578218817710876,"673":-0.009381360374391079,"674":0.3787752389907837,"675":0.3915039896965027,"676":0.06588802486658096,"677":0.18414807319641113,"678":-0.03892269730567932,"679":0.37887057662010193,"680":-0.03273330628871918,"681":0.12191256880760193,"682":0.09465216845273972,"683":0.34393972158432007,"684":-0.5809288620948792,"685":0.17322537302970886,"686":-0.2900812029838562,"687":0.3251594305038452,"688":-0.0036252872087061405,"689":0.41779449582099915,"690":-0.2655464708805084,"691":0.10927818715572357,"692":-0.0049640461802482605,"693":0.35241788625717163,"694":0.07414340227842331,"695":-0.2951136529445648,"696":-0.06561726331710815,"697":0.05223880335688591,"698":-0.2792998254299164,"699":1.0328794717788696,"700":0.03216451406478882,"701":-0.6358046531677246,"702":-2.099902391433716,"703":0.21300725638866425,"704":0.9601776003837585,"705":1.250502347946167,"706":-0.1290024369955063,"707":0.6500962376594543,"708":-0.08113833516836166,"709":0.2678094804286957,"710":1.2040317058563232,"711":-0.16610831022262573,"712":1.1508233547210693,"713":-0.10001502931118011,"714":8.099621772766113,"715":-0.011342812329530716,"716":1.0305942296981812,"717":-0.04545648768544197,"718":0.5168351531028748,"719":-1.8323163986206055,"720":0.010445968247950077,"721":0.0863633006811142,"722":1.8495588302612305,"723":-1.289966344833374,"724":-0.1287921518087387,"725":1.3121130466461182,"726":1.1573278903961182,"727":-0.01897089183330536,"728":-1.7409172058105469,"729":-0.3377729058265686,"730":1.1414949893951416,"731":0.08874329924583435,"732":0.8975229263305664,"733":-1.1365047693252563,"734":-0.41143178939819336,"735":0.8007661700248718,"736":-0.05992572009563446,"737":0.2635786235332489,"738":-3.031925916671753,"739":1.4049044847488403,"740":-0.7101460099220276,"741":-2.1719555854797363,"742":15.131010055541992,"743":1.1685868501663208,"744":1.153816819190979,"745":-1.4176315069198608,"746":-0.052282944321632385,"747":-0.06689339131116867,"748":0.6738096475601196,"749":0.2996363937854767,"750":0.046469416469335556,"751":0.4450380206108093,"752":3.761626720428467,"753":-0.8491824269294739,"754":-0.142603799700737,"755":-1.8759328126907349,"756":2.9551351070404053,"757":0.2684628367424011,"758":-4.1749491691589355,"759":-0.3378218412399292,"760":-0.10824476182460785,"761":0.21455255150794983,"762":0.9774573445320129,"763":0.2868802845478058,"764":1.8858120441436768,"765":-1.1838784217834473,"766":2.3189945220947266,"767":-0.24736753106117249,"768":1.6604734659194946,"769":0.24325993657112122,"770":-0.46141576766967773,"771":-0.22914141416549683,"772":-4.528110027313232,"773":-0.1113695427775383,"774":-1.2799373865127563,"775":-1.076674461364746,"776":0.5231408476829529,"777":0.48164090514183044,"778":-0.7415084838867188,"779":0.31224122643470764,"780":0.06564544886350632,"781":-0.19850192964076996,"782":-0.663406491279602,"783":1.2920165061950684,"784":-1.0346277952194214,"785":-1.0565805435180664,"786":-0.022031249478459358,"787":-0.03813732787966728,"788":-1.9742634296417236,"789":0.25810563564300537,"790":-1.1874136924743652,"791":1.90416419506073,"792":0.5427297353744507,"793":0.4970305860042572,"794":2.5946619510650635,"795":-1.6423178911209106,"796":0.876480221748352,"797":1.4541120529174805,"798":-0.21044544875621796,"799":0.892667829990387,"800":-0.24295231699943542,"801":0.10026779025793076,"802":0.6633315086364746,"803":-0.2265612781047821,"804":-0.7649357914924622,"805":0.8804884552955627,"806":0.5630583763122559,"807":0.41348299384117126,"808":-0.10657384246587753,"809":-0.2661910355091095,"810":-0.26491624116897583,"811":0.27866727113723755,"812":-0.6442567706108093,"813":0.6516470313072205,"814":0.18959712982177734,"815":-0.22240224480628967,"816":-1.434880256652832,"817":1.045244574546814,"818":0.08210651576519012,"819":0.5947346687316895,"820":-0.18726350367069244,"821":-0.7599868774414062,"822":-0.024600844830274582,"823":-0.10096510499715805,"824":0.5094821453094482,"825":1.5389137268066406,"826":0.10300987958908081,"827":0.4374065101146698,"828":0.03162538260221481,"829":0.2512660026550293,"830":-0.4241400957107544,"831":0.29760846495628357,"832":-0.30660584568977356,"833":-0.05241313949227333,"834":-0.6891316175460815,"835":-0.2719048857688904,"836":-0.13453131914138794,"837":0.04841243848204613,"838":-1.3502601385116577,"839":0.8433761596679688,"840":0.9500094652175903,"841":0.07143336534500122,"842":0.37091273069381714,"843":0.0790620967745781,"844":-0.5296297073364258,"845":-0.36284783482551575,"846":0.5565834641456604,"847":1.2348027229309082,"848":-0.049213942140340805,"849":-0.1978382021188736,"850":-0.4901328980922699,"851":-0.004429146647453308,"852":0.24117355048656464,"853":-0.25370660424232483,"854":-0.404068261384964,"855":0.03848477080464363,"856":5.276514053344727,"857":-0.23037657141685486,"858":-0.8683140277862549,"859":-0.2893364131450653,"860":0.5362244844436646,"861":0.7917743921279907,"862":-1.3044325113296509,"863":0.5495904684066772,"864":1.375846028327942,"865":-0.5527931451797485,"866":-0.9053489565849304,"867":0.7414703965187073,"868":0.572356641292572,"869":-0.07530339807271957,"870":-0.532172679901123,"871":-2.2626442909240723,"872":-1.0540519952774048,"873":-0.026857705786824226,"874":0.6485794186592102,"875":0.4778349697589874,"876":0.762269139289856,"877":0.5714773535728455,"878":0.8738301396369934,"879":0.28126925230026245,"880":-0.17296455800533295,"881":0.6409962773323059,"882":-2.5203773975372314,"883":0.3148269057273865,"884":-1.2907345294952393,"885":0.1881445348262787,"886":-0.5756874680519104,"887":0.39235979318618774,"888":-0.5972582697868347,"889":0.4126657545566559,"890":-0.7110896706581116,"891":-2.0951242446899414,"892":0.37396523356437683,"893":0.7066748142242432,"894":0.22827069461345673,"895":0.3882719874382019,"896":0.26085585355758667,"897":-0.18607307970523834,"898":-0.29342544078826904,"899":0.9562410116195679,"900":0.020099565386772156,"901":0.22411112487316132,"902":0.021116741001605988,"903":1.876998782157898,"904":-0.3795182406902313,"905":0.6762687563896179,"906":3.6978492736816406,"907":-0.6914786696434021,"908":0.3738549053668976,"909":-0.2814263105392456,"910":-0.5925660133361816,"911":0.6273697018623352,"912":-0.4041231870651245,"913":0.21705734729766846,"914":-0.8807851076126099,"915":0.08501048386096954,"916":1.380192518234253,"917":0.922744631767273,"918":-2.8542027473449707,"919":0.4212099611759186,"920":0.017804386094212532,"921":-1.3806098699569702,"922":-1.666813850402832,"923":0.3344288170337677,"924":-0.13368532061576843,"925":2.0497515201568604,"926":0.6332488656044006,"927":-0.19945445656776428,"928":0.19883255660533905,"929":0.36897528171539307,"930":-1.218123435974121,"931":-0.03779890015721321,"932":-0.5154634714126587,"933":-4.158052921295166,"934":-2.017180919647217,"935":-0.6131474375724792,"936":-0.015557246282696724,"937":-0.10304934531450272,"938":0.6822472214698792,"939":-0.17395490407943726,"940":-0.07544443011283875,"941":-5.195367813110352,"942":-1.7930045127868652,"943":-0.18072959780693054,"944":0.08655469864606857,"945":-1.4986821413040161,"946":1.9133360385894775,"947":0.6584402918815613,"948":2.8065879344940186,"949":-0.06142355501651764,"950":0.4170551598072052,"951":-0.5018447041511536,"952":-5.526880264282227,"953":0.17360444366931915,"954":0.5199184417724609,"955":0.7387564182281494,"956":-1.3664121627807617,"957":-0.35641810297966003,"958":5.789484977722168,"959":0.377934068441391,"960":0.3256359100341797,"961":-0.8843533992767334,"962":-0.16720449924468994,"963":-0.24960170686244965,"964":1.8362157344818115,"965":0.3603890538215637,"966":-1.6740971803665161,"967":-0.491861492395401,"968":1.941861867904663,"969":-7.167789459228516,"970":0.3937888443470001,"971":0.2588428854942322,"972":1.4010487794876099,"973":-1.1297712326049805,"974":-0.3613743782043457,"975":-0.31059327721595764,"976":-0.8168947100639343,"977":-0.36541587114334106,"978":-1.741352915763855,"979":-0.2764395475387573,"980":4.580626010894775,"981":-0.42537540197372437,"982":0.19567826390266418,"983":3.9117140769958496,"984":0.7823961973190308,"985":-0.8459634184837341,"986":0.41026103496551514,"987":-0.10506956279277802,"988":0.5478499531745911,"989":1.879286289215088,"990":0.6572626829147339,"991":-0.8405822515487671,"992":6.054001331329346,"993":0.3405360281467438,"994":0.3434043824672699,"995":-0.3960171639919281,"996":-0.5129278898239136,"997":3.8571131229400635,"998":-0.045387908816337585,"999":1.3992748260498047,"1000":-0.4593699276447296,"1001":-0.2563576400279999,"1002":-0.20339685678482056,"1003":-1.1305269002914429,"1004":-0.1650361567735672,"1005":-0.3344215452671051,"1006":1.0657631158828735,"1007":0.19607597589492798,"1008":-0.8745289444923401,"1009":-0.2896954417228699,"1010":0.2940621078014374,"1011":0.26262983679771423,"1012":2.9804272651672363,"1013":0.29792648553848267,"1014":0.3387193977832794,"1015":-0.4767615497112274,"1016":-0.3942551016807556,"1017":0.6059820652008057,"1018":0.6744234561920166,"1019":-0.1529424786567688,"1020":-0.6188175082206726,"1021":-0.5367500185966492,"1022":0.4024996757507324,"1023":0.1460513323545456,"1024":0.657924473285675,"1025":1.052190899848938,"1026":0.4545617699623108,"1027":0.5701335668563843,"1028":-0.10947034507989883,"1029":0.346015065908432,"1030":0.37536177039146423,"1031":0.5600971579551697,"1032":0.3088915944099426,"1033":-0.3253282606601715,"1034":-1.1492607593536377,"1035":0.2725617289543152,"1036":-0.8063744902610779,"1037":0.9689559936523438,"1038":-0.33724746108055115,"1039":0.4797195494174957,"1040":-0.5129849910736084,"1041":-0.2870751619338989,"1042":-0.37912118434906006,"1043":1.1764918565750122,"1044":0.30017247796058655,"1045":-1.1062875986099243,"1046":-0.29564252495765686,"1047":-0.38569825887680054,"1048":-1.1690107583999634,"1049":1.045157790184021,"1050":-0.20476776361465454,"1051":-0.13381652534008026,"1052":-0.44097182154655457,"1053":-0.20635247230529785,"1054":0.4399528503417969,"1055":-0.6689885854721069,"1056":-2.572373867034912,"1057":0.2917530834674835,"1058":-0.3721138536930084,"1059":-0.35763251781463623,"1060":-0.4051782190799713,"1061":1.1921242475509644,"1062":0.03985901549458504,"1063":0.4597965180873871,"1064":0.1458401083946228,"1065":0.19036602973937988,"1066":-0.32511547207832336,"1067":1.8783506155014038,"1068":-1.2205334901809692,"1069":0.10614850372076035,"1070":-0.2701866030693054,"1071":-3.8338937759399414,"1072":-0.5991410613059998,"1073":0.06908426433801651,"1074":0.261622816324234,"1075":-0.5292751789093018,"1076":0.47156599164009094,"1077":-0.9408928155899048,"1078":-1.5911897420883179,"1079":0.24758584797382355,"1080":-0.765097439289093,"1081":0.245560422539711,"1082":-0.20656941831111908,"1083":0.4770449697971344,"1084":0.7238397598266602,"1085":-0.24232564866542816,"1086":-0.25994133949279785,"1087":0.6570749282836914,"1088":-8.923945426940918,"1089":0.04243598133325577,"1090":0.40602046251296997,"1091":-0.6669555306434631,"1092":2.0419869422912598,"1093":0.8403229713439941,"1094":-1.2874903678894043,"1095":-2.7535181045532227,"1096":0.5508127808570862,"1097":0.38420170545578003,"1098":1.2055658102035522,"1099":-0.24389484524726868,"1100":-0.4188758134841919,"1101":-0.16154898703098297,"1102":-0.09419257193803787,"1103":-0.07097486406564713,"1104":-0.006888388656079769,"1105":-0.2961992919445038,"1106":0.8248903155326843,"1107":-0.14206039905548096,"1108":-2.2266433238983154,"1109":0.21445423364639282,"1110":-0.1332380473613739,"1111":0.8782210350036621,"1112":-0.5774491429328918,"1113":0.6599662899971008,"1114":0.5667990446090698,"1115":-0.4133344292640686,"1116":-0.551098108291626,"1117":1.2927967309951782,"1118":1.0234304666519165,"1119":1.0383037328720093,"1120":-0.4363682270050049,"1121":-1.5561549663543701,"1122":4.848144054412842,"1123":-0.11401624977588654,"1124":0.1812296211719513,"1125":3.0485634803771973,"1126":1.7911441326141357,"1127":0.4431203603744507,"1128":0.2119377851486206,"1129":0.3114606440067291,"1130":0.029315263032913208,"1131":0.5239943861961365,"1132":-0.08522766083478928,"1133":-5.699441432952881,"1134":0.05659293010830879,"1135":-0.663048505783081,"1136":-0.5673462748527527,"1137":0.7305434942245483,"1138":-1.2499127388000488,"1139":0.06534864753484726,"1140":-0.8455280065536499,"1141":-0.8098079562187195,"1142":0.5273118019104004,"1143":0.7278479933738708,"1144":0.0011081655975431204,"1145":-0.6653606295585632,"1146":0.05849836394190788,"1147":0.2820571959018707,"1148":-0.75909823179245,"1149":0.7042226791381836,"1150":-0.24710819125175476,"1151":-0.8084297776222229,"1152":-1.2361164093017578,"1153":-0.39469069242477417,"1154":-2.8403215408325195,"1155":3.332101821899414,"1156":0.12983949482440948,"1157":0.10446514934301376,"1158":1.0237457752227783,"1159":0.2522333264350891,"1160":-0.6145030856132507,"1161":-0.8323680758476257,"1162":0.3164694905281067,"1163":0.400054395198822,"1164":-0.3937119245529175,"1165":-0.29160645604133606,"1166":-2.0437400341033936,"1167":0.9898209571838379,"1168":0.16946305334568024,"1169":-0.5799318552017212,"1170":-0.24806201457977295,"1171":-0.2937200963497162,"1172":8.368757247924805,"1173":-3.7433552742004395,"1174":-0.2813391089439392,"1175":3.4435017108917236,"1176":-0.22475557029247284,"1177":0.28496313095092773,"1178":0.3300321400165558,"1179":-0.30549558997154236,"1180":1.2312382459640503,"1181":0.20090165734291077,"1182":0.22098572552204132,"1183":-1.775895357131958,"1184":-0.36799192428588867,"1185":-1.160970687866211,"1186":-0.29171574115753174,"1187":0.5095582604408264,"1188":0.1847560554742813,"1189":2.8578903675079346,"1190":-0.805479884147644,"1191":-0.7614660263061523,"1192":-1.8059378862380981,"1193":0.7841598987579346,"1194":0.13315656781196594,"1195":-0.7606774568557739,"1196":1.6138073205947876,"1197":-4.73383092880249,"1198":-0.4885527491569519,"1199":1.4737014770507812,"1200":-0.3223668038845062,"1201":0.8470355868339539,"1202":-0.03896676003932953,"1203":-0.27488887310028076,"1204":-4.952749729156494,"1205":-1.269140601158142,"1206":-5.415319919586182,"1207":0.5673196911811829,"1208":-1.0666790008544922,"1209":-0.036151222884655,"1210":-0.5390961766242981,"1211":-0.610515832901001,"1212":-2.3211472034454346,"1213":0.3186546862125397,"1214":-0.6348676681518555,"1215":-0.18454238772392273,"1216":-0.6598616242408752,"1217":1.3057279586791992,"1218":-0.04248768091201782,"1219":0.6275362372398376,"1220":-0.23765283823013306,"1221":0.07278382778167725,"1222":-0.9888240098953247,"1223":0.36109647154808044,"1224":-0.32043159008026123,"1225":-1.1257624626159668,"1226":-0.374234676361084,"1227":0.27036604285240173,"1228":2.8289265632629395,"1229":0.014728842303156853,"1230":-0.7174949049949646,"1231":0.28739655017852783,"1232":-1.332788109779358,"1233":-1.0690609216690063,"1234":0.8593782782554626,"1235":-0.6310332417488098,"1236":-0.30871590971946716,"1237":0.16665124893188477,"1238":5.288196563720703,"1239":-0.19670370221138,"1240":-0.04914025962352753,"1241":-3.6241185665130615,"1242":5.864079475402832,"1243":0.24871115386486053,"1244":-0.9012988805770874,"1245":-4.1908159255981445,"1246":0.3794350326061249,"1247":1.0550487041473389,"1248":0.9489300847053528,"1249":-0.4341332018375397,"1250":-0.8474757671356201,"1251":-0.34802761673927307,"1252":0.3906610906124115,"1253":-1.4450918436050415,"1254":-2.600811719894409,"1255":1.7677273750305176,"1256":-2.080777406692505,"1257":-0.23467296361923218,"1258":-1.1503956317901611,"1259":0.17639844119548798,"1260":0.5169385671615601,"1261":0.8839386701583862,"1262":2.456691026687622,"1263":0.6325725317001343,"1264":2.075164794921875,"1265":-0.473333477973938,"1266":-2.286644220352173,"1267":1.4149751663208008,"1268":1.1196011304855347,"1269":-0.1363293081521988,"1270":-0.9329614043235779,"1271":1.886815071105957,"1272":2.0162811279296875,"1273":-0.23945865035057068,"1274":0.3634248971939087,"1275":-8.241371154785156,"1276":1.0544642210006714,"1277":0.8704798817634583,"1278":-0.12886987626552582,"1279":-0.27546361088752747,"1280":0.8742114901542664,"1281":0.9978722929954529,"1282":0.31689587235450745,"1283":-0.6538105607032776,"1284":0.5712782144546509,"1285":0.4148101210594177,"1286":-0.44781869649887085,"1287":1.0641238689422607,"1288":-0.590006411075592,"1289":0.6747937798500061,"1290":0.03149257227778435,"1291":5.14857816696167,"1292":2.3259665966033936,"1293":0.58331298828125,"1294":0.3274378478527069,"1295":-1.057473063468933,"1296":-0.17389719188213348,"1297":-0.5091469287872314,"1298":-1.4024337530136108,"1299":0.35041341185569763,"1300":-0.703905463218689,"1301":-0.33177638053894043,"1302":-0.7694641947746277,"1303":-1.1180304288864136,"1304":-0.5045873522758484,"1305":0.6900326609611511,"1306":0.49231773614883423,"1307":0.13954514265060425,"1308":-1.0938682556152344,"1309":0.10117077827453613,"1310":0.15073002874851227,"1311":0.3696054220199585,"1312":-0.2601984143257141,"1313":1.3299249410629272,"1314":0.13830506801605225,"1315":-1.7784373760223389,"1316":-0.6800655722618103,"1317":1.6573632955551147,"1318":1.3711130619049072,"1319":-0.25510337948799133,"1320":-1.4220396280288696,"1321":-1.4150644540786743,"1322":0.19687756896018982,"1323":-0.6971166133880615,"1324":0.3614595830440521,"1325":0.5268694162368774,"1326":0.7704457640647888,"1327":1.1976643800735474,"1328":-0.05830829218029976,"1329":-0.24776190519332886,"1330":0.8615866899490356,"1331":1.395302176475525,"1332":0.045814644545316696,"1333":-0.7276370525360107,"1334":-1.672646403312683,"1335":0.09582632035017014,"1336":-1.5921422243118286,"1337":1.2642923593521118,"1338":-0.7717980742454529,"1339":0.6033051013946533,"1340":-1.625200629234314,"1341":0.30775731801986694,"1342":0.36160001158714294,"1343":1.5895918607711792,"1344":0.578462541103363,"1345":-2.7796738147735596,"1346":-0.2673039734363556,"1347":-0.07890544086694717,"1348":-1.3608335256576538,"1349":0.8246749639511108,"1350":-0.8403586745262146,"1351":-1.8294788599014282,"1352":-0.26872754096984863,"1353":-1.198691487312317,"1354":-0.41358253359794617,"1355":0.8179025053977966,"1356":0.3010195791721344,"1357":-0.7994933128356934,"1358":-1.8050529956817627,"1359":-0.24128985404968262,"1360":0.6794512867927551,"1361":0.6460798382759094,"1362":-0.31328684091567993,"1363":0.5513249039649963,"1364":2.250479221343994,"1365":-1.7268719673156738,"1366":0.740654706954956,"1367":-1.0345489978790283,"1368":0.7650048732757568,"1369":-0.7540215253829956,"1370":-1.2238596677780151,"1371":-0.22688905894756317,"1372":-0.24497969448566437,"1373":-0.042365171015262604,"1374":0.306692898273468,"1375":1.5369279384613037,"1376":1.311738133430481,"1377":3.0201382637023926,"1378":-1.159926176071167,"1379":0.31052595376968384,"1380":1.338991641998291,"1381":0.969752848148346,"1382":0.8585591316223145,"1383":-1.5019538402557373,"1384":-0.6869689226150513,"1385":1.3860961198806763,"1386":-0.8764706254005432,"1387":0.8304208517074585,"1388":-1.370016098022461,"1389":0.9228962063789368,"1390":-1.1015827655792236,"1391":-0.2425985485315323,"1392":3.2463972568511963,"1393":0.9117650985717773,"1394":1.6700847148895264,"1395":-1.2658734321594238,"1396":-0.1381477564573288,"1397":-0.04160778596997261,"1398":-0.9540851712226868,"1399":1.7567728757858276,"1400":-0.24225667119026184,"1401":0.2947665750980377,"1402":2.3272933959960938,"1403":0.26911231875419617,"1404":-1.5298340320587158,"1405":2.6016225814819336,"1406":0.4400267004966736,"1407":0.22665131092071533,"1408":-0.7846119403839111,"1409":0.2991032302379608,"1410":-0.1098858118057251,"1411":-0.20034834742546082,"1412":-3.855555295944214,"1413":0.27526044845581055,"1414":1.1881117820739746,"1415":-0.22518083453178406,"1416":-0.09068559110164642,"1417":-0.1745486557483673,"1418":1.1293258666992188,"1419":0.18461871147155762,"1420":-0.31273773312568665,"1421":0.06717472523450851,"1422":6.498232364654541,"1423":-0.7097347378730774,"1424":-0.40832287073135376,"1425":5.207194805145264,"1426":-0.16193580627441406,"1427":0.33943021297454834,"1428":-2.7826802730560303,"1429":-0.26559215784072876,"1430":1.1466888189315796,"1431":0.18274976313114166,"1432":0.10686080157756805,"1433":-2.5919137001037598,"1434":1.20833158493042,"1435":0.8333747982978821,"1436":-0.2775613069534302,"1437":0.2559269070625305,"1438":0.3078843355178833,"1439":1.3480021953582764,"1440":4.021476745605469,"1441":-1.5045278072357178,"1442":3.6322731971740723,"1443":0.25029048323631287,"1444":-0.06325579434633255,"1445":2.227277994155884,"1446":-0.31884992122650146,"1447":-3.0429086685180664,"1448":-0.5820311307907104,"1449":1.571642518043518,"1450":-0.29328978061676025,"1451":0.262558251619339,"1452":0.27157148718833923,"1453":0.1960267871618271,"1454":-0.23096826672554016,"1455":-0.25944656133651733,"1456":0.30424007773399353,"1457":-0.3151169419288635,"1458":-0.3179055154323578,"1459":-0.2061581164598465,"1460":-0.32607030868530273,"1461":0.25272977352142334,"1462":-0.09279744327068329,"1463":0.3381538987159729,"1464":0.1792009025812149,"1465":-0.29607293009757996,"1466":-0.25791049003601074,"1467":0.34816163778305054,"1468":0.2601558566093445,"1469":0.334490031003952,"1470":-0.25244468450546265,"1471":-0.3690863251686096,"1472":0.3564743101596832,"1473":0.24789337813854218,"1474":0.29159486293792725,"1475":-0.25627821683883667,"1476":0.34616297483444214,"1477":0.32423675060272217,"1478":0.2657747268676758,"1479":-0.22509175539016724,"1480":-0.2932955324649811,"1481":0.28320538997650146,"1482":-0.28979063034057617,"1483":0.309695839881897,"1484":0.2415245920419693,"1485":-0.3552405834197998,"1486":-0.2608780860900879,"1487":0.3304179012775421,"1488":0.25493839383125305,"1489":-0.31247517466545105,"1490":-0.24538539350032806,"1491":-0.32422274351119995,"1492":-0.24607513844966888,"1493":0.26306018233299255,"1494":-0.34292224049568176,"1495":-0.2768929898738861,"1496":0.27013176679611206,"1497":0.24422644078731537,"1498":-0.3012033700942993,"1499":-0.005626977887004614,"1500":0.4482843279838562,"1501":-0.648607611656189,"1502":1.6132718324661255,"1503":-1.6951771974563599,"1504":2.408130168914795,"1505":0.8460941910743713,"1506":-6.409154415130615,"1507":0.352693647146225,"1508":0.06232243776321411,"1509":0.3181888461112976,"1510":0.2897185683250427,"1511":-0.6926996111869812,"1512":0.9017934799194336,"1513":-0.15566633641719818,"1514":3.2317488193511963,"1515":0.23035599291324615,"1516":0.7748923897743225,"1517":-1.105118751525879,"1518":0.6103385090827942,"1519":-1.732731819152832,"1520":0.30908718705177307,"1521":2.940668821334839,"1522":1.7828271389007568,"1523":-0.4277228116989136,"1524":-7.12446403503418,"1525":-1.7305874824523926,"1526":-0.10775310546159744,"1527":-0.3558817207813263,"1528":-4.889942646026611,"1529":-0.22897206246852875,"1530":2.019361972808838,"1531":-0.46798309683799744,"1532":0.49176913499832153,"1533":0.07508952915668488,"1534":2.0673139095306396,"1535":1.6645532846450806,"1536":0.503029465675354,"1537":-0.3902607262134552,"1538":1.6852765083312988,"1539":2.2626070976257324,"1540":1.7205191850662231,"1541":1.1378320455551147,"1542":10.447437286376953,"1543":0.5137779712677002,"1544":-0.13442227244377136,"1545":1.5765867233276367,"1546":-0.29353606700897217,"1547":1.55239737033844,"1548":1.2038758993148804,"1549":1.0186268091201782,"1550":-0.36532261967658997,"1551":-0.2973138689994812,"1552":-0.019444622099399567,"1553":-0.7954117655754089,"1554":-0.36692047119140625,"1555":1.048770785331726,"1556":0.40995779633522034,"1557":-0.15091848373413086,"1558":-0.44466090202331543,"1559":-0.34904447197914124,"1560":0.0010907836258411407,"1561":0.2913326621055603,"1562":0.07388100028038025,"1563":0.6058549880981445,"1564":0.28026077151298523,"1565":-0.5440828204154968,"1566":-0.27585187554359436,"1567":0.32895055413246155,"1568":0.36092427372932434,"1569":0.011812438257038593,"1570":-0.5980675220489502,"1571":-0.4185473322868347,"1572":-0.18983764946460724,"1573":-0.02844182960689068,"1574":0.32527247071266174,"1575":0.42848238348960876,"1576":0.33435237407684326,"1577":0.45971131324768066,"1578":0.018583081662654877,"1579":0.24392899870872498,"1580":-0.06916875392198563,"1581":0.42290741205215454,"1582":0.01751653663814068,"1583":-0.3357369899749756,"1584":-0.7355358600616455,"1585":-0.004765533842146397,"1586":-0.41183894872665405,"1587":0.3397131860256195,"1588":0.06948010623455048,"1589":0.37666788697242737,"1590":-0.3801601827144623,"1591":0.08644784986972809,"1592":-0.04870164021849632,"1593":0.3677365183830261,"1594":0.06685399264097214,"1595":-0.4652377665042877,"1596":-0.07328150421380997,"1597":0.019843485206365585,"1598":-0.31286096572875977,"1599":0.3961864709854126,"1600":0.5366648435592651,"1601":-0.544243574142456,"1602":0.15246839821338654,"1603":0.6254215240478516,"1604":-1.7275022268295288,"1605":0.7910702228546143,"1606":9.464349746704102,"1607":0.17800861597061157,"1608":0.13534203171730042,"1609":0.3407495319843292,"1610":0.030864788219332695,"1611":0.35148483514785767,"1612":3.547861337661743,"1613":-0.1291719228029251,"1614":3.270190715789795,"1615":0.8274564146995544,"1616":0.6919937133789062,"1617":0.6511377692222595,"1618":-0.04619233310222626,"1619":-0.19344370067119598,"1620":0.6253910660743713,"1621":1.7761900424957275,"1622":5.744992256164551,"1623":-0.5247272849082947,"1624":-0.8581752181053162,"1625":-1.4198362827301025,"1626":-1.16981840133667,"1627":-0.7451769709587097,"1628":0.3945699632167816,"1629":-0.272064745426178,"1630":0.22017095983028412,"1631":-0.6413998603820801,"1632":2.0633151531219482,"1633":-0.8522742390632629,"1634":6.869903087615967,"1635":0.8423985838890076,"1636":0.5996307730674744,"1637":-0.39958515763282776,"1638":0.3827887177467346,"1639":2.0415289402008057,"1640":-0.5416741371154785,"1641":-3.8424179553985596,"1642":0.8205139636993408,"1643":0.07296409457921982,"1644":-0.15590162575244904,"1645":1.5731433629989624,"1646":0.06401077657938004,"1647":-0.3629797101020813,"1648":0.29888466000556946,"1649":1.4482250213623047,"1650":-0.06786110997200012,"1651":0.6954359412193298,"1652":0.7973899245262146,"1653":-0.20731215178966522,"1654":-1.0737667083740234,"1655":-1.0462783575057983,"1656":18.3905029296875,"1657":-0.8618059158325195,"1658":1.358660340309143,"1659":-0.27431896328926086,"1660":-0.9636712074279785,"1661":0.25376853346824646,"1662":0.07989070564508438,"1663":-0.08480347692966461,"1664":-0.615877091884613,"1665":-0.05674978718161583,"1666":3.4299368858337402,"1667":1.1897255182266235,"1668":0.06470842659473419,"1669":1.0590351819992065,"1670":-0.17475007474422455,"1671":0.6472228765487671,"1672":-1.4361639022827148,"1673":0.7948734164237976,"1674":0.054260481148958206,"1675":0.10418505221605301,"1676":0.6537068486213684,"1677":0.03092217445373535,"1678":0.9217400550842285,"1679":0.03379381448030472,"1680":-0.8603378534317017,"1681":0.24960769712924957,"1682":-0.29243236780166626,"1683":-5.277566432952881,"1684":0.16850094497203827,"1685":-0.7092278003692627,"1686":-0.3006874620914459,"1687":0.35512468218803406,"1688":1.7060273885726929,"1689":-0.9234549403190613,"1690":0.3050503134727478,"1691":1.396392583847046,"1692":-1.5477186441421509,"1693":0.28130874037742615,"1694":-1.0783073902130127,"1695":0.33187752962112427,"1696":1.0594590902328491,"1697":3.172579526901245,"1698":-3.913560628890991,"1699":-0.43235403299331665,"1700":0.43780946731567383,"1701":-0.9686172604560852,"1702":0.27969834208488464,"1703":-0.0654364600777626,"1704":0.4700316786766052,"1705":0.9503638744354248,"1706":-2.820016622543335,"1707":0.23403123021125793,"1708":0.23049603402614594,"1709":0.07052984833717346,"1710":0.22145810723304749,"1711":0.11877359449863434,"1712":5.349255561828613,"1713":-0.22317074239253998,"1714":0.9794944524765015,"1715":0.06728518009185791,"1716":0.14361070096492767,"1717":-0.8294941782951355,"1718":1.1623107194900513,"1719":-0.7618585228919983,"1720":0.39323025941848755,"1721":0.3061679005622864,"1722":-0.45026108622550964,"1723":-0.8187359571456909,"1724":-0.42084166407585144,"1725":-0.18905332684516907,"1726":0.13972297310829163,"1727":-0.3360913097858429,"1728":-0.30223017930984497,"1729":0.2160770148038864,"1730":0.30074504017829895,"1731":-0.5257185697555542,"1732":0.5130333304405212,"1733":-0.5676982402801514,"1734":-0.7996056079864502,"1735":0.9965251684188843,"1736":-0.364664226770401,"1737":-0.4881090521812439,"1738":-9.746231079101562,"1739":0.6342238783836365,"1740":-0.31859803199768066,"1741":0.3558111786842346,"1742":-1.4497610330581665,"1743":0.29510724544525146,"1744":0.04389845207333565,"1745":0.48760607838630676,"1746":-0.3374082148075104,"1747":-0.37788909673690796,"1748":0.05068647116422653,"1749":0.38777127861976624,"1750":0.4643431603908539,"1751":0.21973155438899994,"1752":-2.2911858558654785,"1753":0.5231346487998962,"1754":0.4197874963283539,"1755":-1.5523914098739624,"1756":0.8486491441726685,"1757":1.6750080585479736,"1758":2.353421211242676,"1759":-0.19394846260547638,"1760":0.46357467770576477,"1761":5.627614498138428,"1762":5.889457702636719,"1763":-0.11121448129415512,"1764":0.4604438245296478,"1765":0.4843130111694336,"1766":-0.4410931169986725,"1767":-0.43891799449920654,"1768":0.6294630169868469,"1769":-0.9784882068634033,"1770":0.4127507507801056,"1771":-1.3909882307052612,"1772":-2.3866524696350098,"1773":-0.1547188013792038,"1774":1.9712488651275635,"1775":3.7475075721740723,"1776":0.09421604126691818,"1777":-0.15359404683113098,"1778":-1.3351738452911377,"1779":0.023899439722299576,"1780":-0.030788984149694443,"1781":-0.3766053318977356,"1782":-0.4697379767894745,"1783":-6.164848327636719,"1784":-0.383319616317749,"1785":-2.647732734680176,"1786":0.5059018731117249,"1787":-0.38120514154434204,"1788":3.7321901321411133,"1789":-0.4061184525489807,"1790":-0.03710399940609932,"1791":-2.124114990234375,"1792":0.7438437342643738,"1793":-0.21801762282848358,"1794":-0.681485116481781,"1795":-1.5575608015060425,"1796":0.22618111968040466,"1797":4.552390098571777,"1798":0.03490086644887924,"1799":0.9672009348869324,"1800":-0.4095195233821869,"1801":-0.1711948662996292,"1802":0.029877571389079094,"1803":-0.6727815270423889,"1804":-0.4475181996822357,"1805":0.23753827810287476,"1806":0.37284186482429504,"1807":-0.002916736761108041,"1808":-0.4052695035934448,"1809":-0.3006036877632141,"1810":0.17491519451141357,"1811":0.3571457862854004,"1812":0.05984321981668472,"1813":0.5097259879112244,"1814":0.2804737091064453,"1815":-0.6082203388214111,"1816":-0.334442138671875,"1817":0.3283059597015381,"1818":0.34272298216819763,"1819":-0.10725061595439911,"1820":-0.5399574041366577,"1821":-0.3244399130344391,"1822":-0.18246714770793915,"1823":-0.16097988188266754,"1824":0.2553338408470154,"1825":-0.10675574839115143,"1826":0.3373505175113678,"1827":0.3282467722892761,"1828":0.016563748940825462,"1829":0.18608927726745605,"1830":-0.09854801744222641,"1831":0.4008740484714508,"1832":0.05535133183002472,"1833":0.3453712463378906,"1834":-0.6103617548942566,"1835":0.19688254594802856,"1836":-0.3967837691307068,"1837":0.4111447334289551,"1838":0.012026078999042511,"1839":0.3812539577484131,"1840":-0.48452481627464294,"1841":0.3144710958003998,"1842":0.11066354811191559,"1843":0.5405305624008179,"1844":0.15225625038146973,"1845":-0.39334678649902344,"1846":-0.024041341617703438,"1847":-0.06787434220314026,"1848":-0.3501091003417969,"1849":0.3385384678840637,"1850":-0.5503512620925903,"1851":-0.5210726261138916,"1852":-0.01728270761668682,"1853":-1.6277836561203003,"1854":-0.6670745015144348,"1855":1.0756832361221313,"1856":0.6966704726219177,"1857":-0.034074485301971436,"1858":-0.6763411164283752,"1859":-0.25705257058143616,"1860":0.04825695976614952,"1861":0.5198105573654175,"1862":-0.06216518208384514,"1863":0.675129771232605,"1864":0.47419866919517517,"1865":-0.592511773109436,"1866":-0.6689451932907104,"1867":1.19963538646698,"1868":0.6653847098350525,"1869":-0.033144451677799225,"1870":-0.6517871022224426,"1871":-0.5562753081321716,"1872":-0.28428736329078674,"1873":-0.15981651842594147,"1874":0.3019738793373108,"1875":0.2265612632036209,"1876":0.6475503444671631,"1877":0.5355521440505981,"1878":-0.10034038871526718,"1879":0.27282410860061646,"1880":0.1036790981888771,"1881":0.6182230710983276,"1882":0.06969142705202103,"1883":-0.23449110984802246,"1884":-0.1428033411502838,"1885":0.19766674935817719,"1886":-0.5250959992408752,"1887":0.5630168318748474,"1888":0.03846633434295654,"1889":1.1321130990982056,"1890":-0.6906753778457642,"1891":0.12534761428833008,"1892":0.06042508780956268,"1893":1.0306963920593262,"1894":0.04369153082370758,"1895":-1.1441906690597534,"1896":0.02236003242433071,"1897":0.03130055218935013,"1898":-0.6812916398048401,"1899":1.3293139934539795,"1900":0.8012816905975342,"1901":-0.6988669633865356,"1902":1.309409260749817,"1903":1.265311360359192,"1904":0.3205535113811493,"1905":-0.7574679851531982,"1906":-0.5254006385803223,"1907":0.5393574833869934,"1908":0.5378033518791199,"1909":0.2807175815105438,"1910":-0.4738483130931854,"1911":-0.41112226247787476,"1912":-1.848467469215393,"1913":-0.3494061231613159,"1914":-0.37192848324775696,"1915":0.7398744821548462,"1916":-0.18243518471717834,"1917":-1.005912184715271,"1918":1.1805825233459473,"1919":0.18879203498363495,"1920":0.7096012830734253,"1921":0.8821482062339783,"1922":-1.0391892194747925,"1923":0.23682695627212524,"1924":-0.22158199548721313,"1925":-0.6647742390632629,"1926":0.25452733039855957,"1927":-0.8130599856376648,"1928":0.3138590157032013,"1929":-0.2562183439731598,"1930":0.8721076250076294,"1931":-0.7806136608123779,"1932":-0.3138168454170227,"1933":2.4380106925964355,"1934":1.0169994831085205,"1935":1.712255835533142,"1936":0.8754313588142395,"1937":-1.1953938007354736,"1938":-5.924807071685791,"1939":-0.7260894179344177,"1940":0.8972388505935669,"1941":-1.1139074563980103,"1942":4.606922149658203,"1943":-1.3379615545272827,"1944":-0.49494314193725586,"1945":1.8466335535049438,"1946":-0.6743263006210327,"1947":0.2416885644197464,"1948":-0.004520746413618326,"1949":1.3456953763961792,"1950":-0.6169888973236084,"1951":-0.25190263986587524,"1952":-0.21648982167243958,"1953":-1.8663971424102783,"1954":1.656380534172058,"1955":2.1785857677459717,"1956":11.205887794494629,"1957":1.0997545719146729,"1958":-1.1377437114715576,"1959":0.3073602616786957,"1960":1.1900835037231445,"1961":1.6297597885131836,"1962":0.37846866250038147,"1963":0.02190408855676651,"1964":2.3645050525665283,"1965":-0.5594258904457092,"1966":2.2941315174102783,"1967":-0.5766629576683044,"1968":5.097879886627197,"1969":-3.0764007568359375,"1970":-0.6690412163734436,"1971":-1.5668962001800537,"1972":-1.8540277481079102,"1973":-0.7196897864341736,"1974":-0.5080347061157227,"1975":-7.597103595733643,"1976":-1.4867018461227417,"1977":0.8019375205039978,"1978":-2.1212809085845947,"1979":-0.29448893666267395,"1980":4.276167869567871,"1981":0.5514132976531982,"1982":1.6002483367919922,"1983":2.5525591373443604,"1984":-1.5488520860671997,"1985":0.21380120515823364,"1986":-0.45737630128860474,"1987":0.15051569044589996,"1988":-1.822835087776184,"1989":1.2233461141586304,"1990":-1.1041609048843384,"1991":-0.1630825400352478,"1992":3.6723239421844482,"1993":-0.02292007952928543,"1994":1.4684412479400635,"1995":-2.1768252849578857,"1996":-1.3426865339279175,"1997":-1.4688494205474854,"1998":-5.2708821296691895,"1999":-0.006865174509584904,"2000":-0.22946569323539734,"2001":-0.3080945909023285,"2002":0.4220961630344391,"2003":-0.7309081554412842,"2004":-1.576986312866211,"2005":0.5800837874412537,"2006":0.1739560216665268,"2007":0.1484794169664383,"2008":-0.3230506181716919,"2009":-0.26034975051879883,"2010":-0.2219340056180954,"2011":0.5547880530357361,"2012":3.361644983291626,"2013":0.4158276319503784,"2014":-0.5537545680999756,"2015":-0.34063318371772766,"2016":-0.6966168880462646,"2017":0.6879472732543945,"2018":0.3802940547466278,"2019":0.6123638153076172,"2020":-0.2869723439216614,"2021":0.9943309426307678,"2022":0.9639252424240112,"2023":0.03301529958844185,"2024":0.4652177393436432,"2025":1.2441681623458862,"2026":1.0673569440841675,"2027":0.3038597106933594,"2028":-0.2553603947162628,"2029":0.26649072766304016,"2030":-0.14766395092010498,"2031":0.34565258026123047,"2032":-0.1479228138923645,"2033":-1.5862038135528564,"2034":-0.5146762132644653,"2035":0.14775481820106506,"2036":-0.3022625744342804,"2037":0.16673247516155243,"2038":-4.758058071136475,"2039":-0.14120912551879883,"2040":-4.846065521240234,"2041":1.5200190544128418,"2042":-2.3922483921051025,"2043":0.582824170589447,"2044":-0.0762290358543396,"2045":-1.2182185649871826,"2046":0.24841326475143433,"2047":0.2999171018600464,"2048":-0.8882328867912292,"2049":0.43093201518058777,"2050":1.187930941581726,"2051":-2.409456968307495,"2052":0.2711023688316345,"2053":1.1348799467086792,"2054":1.1071027517318726,"2055":0.7000146508216858,"2056":-2.5364251136779785,"2057":-0.32685387134552,"2058":1.5985581874847412,"2059":0.3393276035785675,"2060":-0.7918186187744141,"2061":-2.5396881103515625,"2062":-17.204172134399414,"2063":-0.9368754029273987,"2064":-0.047889210283756256,"2065":1.3454585075378418,"2066":3.368467330932617,"2067":-0.6634222269058228,"2068":-3.46411395072937,"2069":-2.1812808513641357,"2070":1.290854811668396,"2071":2.433405637741089,"2072":-2.9130232334136963,"2073":0.5156337022781372,"2074":-1.555550456047058,"2075":-5.227118968963623,"2076":0.527341902256012,"2077":-1.2844313383102417,"2078":0.5382542610168457,"2079":-0.3385900557041168,"2080":3.6003034114837646,"2081":-1.3159701824188232,"2082":-0.8226889967918396,"2083":3.1817922592163086,"2084":1.0443480014801025,"2085":0.8541412353515625,"2086":1.2895822525024414,"2087":-1.7910282611846924,"2088":6.774404525756836,"2089":-0.22159066796302795,"2090":1.3172787427902222,"2091":1.2726752758026123,"2092":-3.497896671295166,"2093":-1.735758662223816,"2094":-0.8073316812515259,"2095":1.6257625818252563,"2096":0.6805887222290039,"2097":2.398104429244995,"2098":0.5382734537124634,"2099":0.5333231091499329,"2100":1.0208057165145874,"2101":5.174678802490234,"2102":1.1337361335754395,"2103":1.574248194694519,"2104":2.1834640502929688,"2105":-0.42453956604003906,"2106":-2.640566825866699,"2107":-0.6090066432952881,"2108":5.818853855133057,"2109":0.26216888427734375,"2110":-0.5567131042480469,"2111":-6.345237731933594,"2112":1.7349919080734253,"2113":-0.6126943230628967,"2114":-5.413912296295166,"2115":1.1129828691482544,"2116":0.24153120815753937,"2117":0.2389974594116211,"2118":-5.1990814208984375,"2119":3.4564900398254395,"2120":1.0487874746322632,"2121":1.4853706359863281,"2122":2.520232677459717,"2123":0.7106884717941284,"2124":-1.220526099205017,"2125":-1.2331938743591309,"2126":-1.2233575582504272,"2127":-1.3190984725952148,"2128":-0.4165070056915283,"2129":-0.25891146063804626,"2130":-1.8230719566345215,"2131":-1.2218639850616455,"2132":-1.5619245767593384,"2133":-3.133878231048584,"2134":1.4156513214111328,"2135":-2.154402017593384,"2136":1.1494299173355103,"2137":-1.2320785522460938,"2138":-9.28415584564209,"2139":0.2659665644168854,"2140":2.503535032272339,"2141":-1.6750383377075195,"2142":-3.9956157207489014,"2143":-1.4770945310592651,"2144":-1.4393895864486694,"2145":2.618307590484619,"2146":0.007420241832733154,"2147":-5.450013160705566,"2148":2.0805764198303223,"2149":-4.876075267791748,"2150":-0.5270414352416992,"2151":-0.11434480547904968,"2152":0.08373856544494629,"2153":-0.5573101043701172,"2154":-0.6047103404998779,"2155":0.07883227616548538,"2156":0.5185205340385437,"2157":-0.06189560145139694,"2158":-0.5421448349952698,"2159":-0.23963198065757751,"2160":-0.06378478556871414,"2161":0.31537413597106934,"2162":0.050007112324237823,"2163":0.5386279821395874,"2164":0.18486134707927704,"2165":-0.6194164156913757,"2166":-0.6206056475639343,"2167":0.6733976006507874,"2168":0.6830571293830872,"2169":-0.07041998952627182,"2170":-0.6157652735710144,"2171":-0.5414045453071594,"2172":-0.2516905963420868,"2173":0.10587330907583237,"2174":0.3206811547279358,"2175":0.37450745701789856,"2176":0.5836422443389893,"2177":0.5310002565383911,"2178":0.05366364121437073,"2179":0.3638356029987335,"2180":0.019358675926923752,"2181":0.5221484899520874,"2182":-0.00026369906845502555,"2183":0.33219113945961,"2184":-0.7648314833641052,"2185":0.12308689206838608,"2186":-0.7015812397003174,"2187":0.4602419435977936,"2188":0.04883836582303047,"2189":0.7384576201438904,"2190":-0.36407285928726196,"2191":0.005949110258370638,"2192":-0.10049556940793991,"2193":0.8161062002182007,"2194":0.05279586836695671,"2195":-0.378348171710968,"2196":-0.035208217799663544,"2197":0.05387502536177635,"2198":-0.5970495343208313,"2199":0.6656758785247803,"2200":0.38928377628326416,"2201":-0.462171345949173,"2202":-2.662970542907715,"2203":1.3812110424041748,"2204":0.38784611225128174,"2205":1.8529558181762695,"2206":-13.875484466552734,"2207":0.7723202109336853,"2208":0.4595368206501007,"2209":0.25621601939201355,"2210":0.2545439898967743,"2211":0.13676133751869202,"2212":-0.557211697101593,"2213":-0.19878928363323212,"2214":-2.3250019550323486,"2215":0.3992420434951782,"2216":-0.6030218601226807,"2217":-0.11835639178752899,"2218":-0.5369178056716919,"2219":-1.4686527252197266,"2220":0.4523782432079315,"2221":-0.3105294108390808,"2222":0.4802204966545105,"2223":-0.7274927496910095,"2224":-5.726714134216309,"2225":4.483347415924072,"2226":0.3322873115539551,"2227":-0.4366820454597473,"2228":-1.1079959869384766,"2229":-0.34525081515312195,"2230":-0.1475285142660141,"2231":-0.4470588266849518,"2232":-0.1896645575761795,"2233":-0.034347716718912125,"2234":0.14436322450637817,"2235":1.1602944135665894,"2236":0.3909069001674652,"2237":-0.0660979151725769,"2238":4.571231842041016,"2239":2.242581367492676,"2240":-1.1321771144866943,"2241":-3.712806463241577,"2242":-4.162493705749512,"2243":0.1482285112142563,"2244":0.1457846462726593,"2245":-0.4262380599975586,"2246":-0.25839582085609436,"2247":-0.9126048684120178,"2248":-0.23248033225536346,"2249":2.13965106010437,"2250":-0.44132423400878906,"2251":-0.20432357490062714,"2252":-0.018500113859772682,"2253":-0.8139955401420593,"2254":-1.8873294591903687,"2255":0.3471473157405853,"2256":0.43994176387786865,"2257":0.004077653866261244,"2258":-0.7230975031852722,"2259":-0.25688955187797546,"2260":0.026776062324643135,"2261":0.9018199443817139,"2262":3.2483959197998047,"2263":0.36916905641555786,"2264":0.26913467049598694,"2265":-0.6429754495620728,"2266":-0.9666516184806824,"2267":0.7390362024307251,"2268":0.7253276705741882,"2269":-0.10780824720859528,"2270":-0.6720483899116516,"2271":-0.1963106393814087,"2272":0.3982720971107483,"2273":0.07963132113218307,"2274":0.7747612595558167,"2275":-0.3121543526649475,"2276":0.764126181602478,"2277":0.5594080090522766,"2278":-0.1119413897395134,"2279":0.28281980752944946,"2280":0.44894295930862427,"2281":0.690593957901001,"2282":0.07559441775083542,"2283":-0.27617865800857544,"2284":-0.9744575619697571,"2285":0.2202276885509491,"2286":-0.5852512717247009,"2287":0.8103145956993103,"2288":-2.072567939758301,"2289":0.4130076766014099,"2290":-2.137077569961548,"2291":-0.9872391223907471,"2292":0.9397298097610474,"2293":0.800457775592804,"2294":0.13190674781799316,"2295":-1.3820055723190308,"2296":-0.0922861248254776,"2297":-0.14586183428764343,"2298":-0.7394087314605713,"2299":1.3344166278839111,"2300":-0.006773730274289846,"2301":2.200974464416504,"2302":-3.231449842453003,"2303":-0.8764266967773438,"2304":1.139786720275879,"2305":3.3059496879577637,"2306":-8.081147193908691,"2307":-0.13299790024757385,"2308":-1.367315649986267,"2309":0.2692030072212219,"2310":0.6073935031890869,"2311":2.196389675140381,"2312":2.212383985519409,"2313":0.24332959949970245,"2314":4.152373313903809,"2315":-0.046454887837171555,"2316":-3.0548501014709473,"2317":-0.8803869485855103,"2318":-0.702194094657898,"2319":1.5421544313430786,"2320":-0.04444838687777519,"2321":1.2468290328979492,"2322":3.32476806640625,"2323":-0.5826258063316345,"2324":-0.14350609481334686,"2325":-1.5810858011245728,"2326":-0.8051909804344177,"2327":0.007950134575366974,"2328":-0.08389028906822205,"2329":-0.3413524031639099,"2330":-1.3740732669830322,"2331":-0.10758218914270401,"2332":-0.39924487471580505,"2333":1.5809967517852783,"2334":-0.8500239849090576,"2335":2.3035850524902344,"2336":0.10197091847658157,"2337":-0.4840126931667328,"2338":0.5867249369621277,"2339":0.7116453647613525,"2340":-1.2718181610107422,"2341":14.65099048614502,"2342":-9.318624496459961,"2343":-0.4252092242240906,"2344":-0.783191442489624,"2345":0.289283812046051,"2346":-5.131747245788574,"2347":-8.681832313537598,"2348":1.7724781036376953,"2349":0.4883527159690857,"2350":0.02675590105354786,"2351":-1.5275943279266357,"2352":-0.09155713021755219,"2353":-0.8386063575744629,"2354":1.4225635528564453,"2355":-0.17594297230243683,"2356":2.5957493782043457,"2357":-0.36934638023376465,"2358":-0.6162928342819214,"2359":0.2975097894668579,"2360":0.36296847462654114,"2361":0.16920554637908936,"2362":-2.1472394466400146,"2363":-0.08595132827758789,"2364":-0.6059210896492004,"2365":0.12810279428958893,"2366":1.7449593544006348,"2367":1.909364938735962,"2368":-1.0802966356277466,"2369":0.2981735169887543,"2370":0.0547495111823082,"2371":0.2626239061355591,"2372":1.8115907907485962,"2373":-0.5566781759262085,"2374":-0.1517677903175354,"2375":2.096071720123291,"2376":-0.36635076999664307,"2377":-0.019207879900932312,"2378":-0.11741946637630463,"2379":-0.2906091511249542,"2380":0.031841494143009186,"2381":-0.04576132446527481,"2382":2.0936243534088135,"2383":0.013585072010755539,"2384":-0.41310423612594604,"2385":1.0948632955551147,"2386":0.14548131823539734,"2387":-0.15547573566436768,"2388":-3.826992988586426,"2389":1.9416298866271973,"2390":-0.12523409724235535,"2391":2.724331855773926,"2392":0.48944440484046936,"2393":0.1299695074558258,"2394":0.8873093724250793,"2395":-1.5815482139587402,"2396":-0.3081967830657959,"2397":-0.36168357729911804,"2398":-1.4451720714569092,"2399":0.7682961821556091,"2400":0.2384171187877655,"2401":0.10287043452262878,"2402":1.6401348114013672,"2403":0.033476296812295914,"2404":-0.662164568901062,"2405":0.41470158100128174,"2406":1.0171616077423096,"2407":-0.8810518980026245,"2408":-0.44995102286338806,"2409":-0.3161033093929291,"2410":-0.6359593868255615,"2411":-0.35972461104393005,"2412":4.7545013427734375,"2413":0.2215748131275177,"2414":0.346942275762558,"2415":0.1580953449010849,"2416":-4.85438871383667,"2417":-0.16628722846508026,"2418":0.03615443408489227,"2419":0.8552741408348083,"2420":0.21472910046577454,"2421":0.8309169411659241,"2422":-1.2257952690124512,"2423":-0.12307581305503845,"2424":0.10813792794942856,"2425":-0.40492650866508484,"2426":1.4784870147705078,"2427":-0.22649264335632324,"2428":1.3295698165893555,"2429":0.2851679027080536,"2430":-1.4997624158859253,"2431":-0.23067983984947205,"2432":-0.7680175304412842,"2433":1.545572280883789,"2434":0.2869597375392914,"2435":-0.20144760608673096,"2436":0.14622056484222412,"2437":-0.11238936334848404,"2438":-9.73231315612793,"2439":-0.2926248013973236,"2440":0.4632202982902527,"2441":4.2744526863098145,"2442":-1.8851265907287598,"2443":-0.08754707127809525,"2444":-0.9161579608917236,"2445":-0.6757451891899109,"2446":-0.20602461695671082,"2447":0.060182929039001465,"2448":-0.6433002948760986,"2449":-0.39201366901397705,"2450":0.09113048017024994,"2451":0.309116393327713,"2452":-2.274038314819336,"2453":0.066843181848526,"2454":-2.1063835620880127,"2455":0.37938714027404785,"2456":2.8254506587982178,"2457":0.9046155214309692,"2458":-0.6399324536323547,"2459":-0.08406141400337219,"2460":-0.29388296604156494,"2461":0.18138152360916138,"2462":2.0497376918792725,"2463":0.5537729859352112,"2464":2.5052690505981445,"2465":-0.14670361578464508,"2466":0.22230498492717743,"2467":2.5433671474456787,"2468":-0.5290760397911072,"2469":-2.3251359462738037,"2470":-0.3093450963497162,"2471":2.911099433898926,"2472":0.36159399151802063,"2473":-0.12865358591079712,"2474":-1.0513020753860474,"2475":-1.3544334173202515,"2476":0.300360769033432,"2477":1.2334338426589966,"2478":-1.552138090133667,"2479":-0.29777055978775024,"2480":-0.24570663273334503,"2481":-0.08801422268152237,"2482":7.237070083618164,"2483":0.5714418888092041,"2484":0.8020062446594238,"2485":0.7386600375175476,"2486":-0.8484950065612793,"2487":-0.646237850189209,"2488":4.517810821533203,"2489":-0.063747838139534,"2490":-0.6014564633369446,"2491":1.734907865524292,"2492":-4.121565341949463,"2493":0.09913568198680878,"2494":0.5441887378692627,"2495":-0.26960572600364685,"2496":0.3489436209201813,"2497":-0.21549420058727264,"2498":-0.7899559736251831,"2499":0.1747499406337738}},"inputBias":{"rows":50,"columns":1,"weights":{"0":0.581979513168335,"1":-0.28767675161361694,"2":1.206330418586731,"3":-9.885433197021484,"4":4.164830684661865,"5":3.937439441680908,"6":3.8252713680267334,"7":2.791609048843384,"8":1.997673749923706,"9":-0.2066301852464676,"10":0.0967022106051445,"11":14.158710479736328,"12":-0.08442020416259766,"13":1.4751859903335571,"14":-5.758128643035889,"15":14.671945571899414,"16":6.126077651977539,"17":12.247786521911621,"18":2.6599183082580566,"19":9.749088287353516,"20":2.6548681259155273,"21":3.1218347549438477,"22":-0.10379312187433243,"23":4.206492900848389,"24":12.935898780822754,"25":0.21212424337863922,"26":0.5547640323638916,"27":3.9853436946868896,"28":-2.6904544830322266,"29":-0.2934907376766205,"30":21.49079704284668,"31":1.3464211225509644,"32":9.74979305267334,"33":11.105781555175781,"34":0.10262766480445862,"35":18.20384407043457,"36":1.3361040353775024,"37":0.6574353575706482,"38":-6.146244049072266,"39":1.417128562927246,"40":-9.005633354187012,"41":2.8655171394348145,"42":0.4758562445640564,"43":1.5611389875411987,"44":9.266043663024902,"45":2.795783281326294,"46":2.5935370922088623,"47":0.33777815103530884,"48":-3.6202688217163086,"49":17.80038070678711}},"forgetMatrix":{"rows":50,"columns":7,"weights":{"0":0.168374702334404,"1":0.01881016045808792,"2":0.17074759304523468,"3":0.07355017215013504,"4":0.1419992446899414,"5":0.10361583530902863,"6":-0.12542486190795898,"7":0.3312065899372101,"8":0.25117403268814087,"9":0.2278112769126892,"10":0.2635849118232727,"11":0.2877896726131439,"12":0.34448719024658203,"13":0.31341952085494995,"14":-0.013416255824267864,"15":0.0914725661277771,"16":0.007706182077527046,"17":-0.10738174617290497,"18":-0.08883404731750488,"19":-0.09068355709314346,"20":0.08569283783435822,"21":0.07764039188623428,"22":-0.1149212121963501,"23":-0.1405276507139206,"24":-0.11982683092355728,"25":-0.0317302905023098,"26":-0.07704983651638031,"27":-0.03637802228331566,"28":0.19348210096359253,"29":-0.0906984806060791,"30":-0.11396397650241852,"31":0.20363828539848328,"32":0.16027149558067322,"33":-0.36385658383369446,"34":-0.46848881244659424,"35":0.3189801275730133,"36":0.29853352904319763,"37":0.3773361146450043,"38":0.31586742401123047,"39":0.36216309666633606,"40":0.33319732546806335,"41":0.2945174276828766,"42":0.275883287191391,"43":0.28531715273857117,"44":0.17371638119220734,"45":0.3526468575000763,"46":0.24619680643081665,"47":0.07448727637529373,"48":0.3003383278846741,"49":-0.06145503371953964,"50":-0.10057564824819565,"51":-0.04867199435830116,"52":-0.034645047038793564,"53":-0.00011584483581827953,"54":0.19239269196987152,"55":-0.1254759281873703,"56":-0.6047057509422302,"57":0.4837087392807007,"58":-0.5141295790672302,"59":0.07514899969100952,"60":0.32256174087524414,"61":0.04599219933152199,"62":0.12167888134717941,"63":-0.31833475828170776,"64":-0.28350192308425903,"65":-0.23556460440158844,"66":-0.28694140911102295,"67":-0.3209836483001709,"68":-0.34931913018226624,"69":-0.2510169744491577,"70":0.3481011390686035,"71":0.32076162099838257,"72":0.3759704530239105,"73":0.27680453658103943,"74":0.3151423931121826,"75":0.2559998333454132,"76":0.194252610206604,"77":-0.0004355819837655872,"78":-0.2055867314338684,"79":-0.19499807059764862,"80":-0.21721641719341278,"81":-0.0939311683177948,"82":-0.12817376852035522,"83":-0.06064142286777496,"84":0.6648027896881104,"85":0.22273774445056915,"86":0.9787149429321289,"87":0.12938280403614044,"88":0.20221926271915436,"89":0.8492492437362671,"90":0.05311209335923195,"91":-0.33974888920783997,"92":0.20496512949466705,"93":0.5258587598800659,"94":0.05858585238456726,"95":-0.4629952311515808,"96":-0.020704839378595352,"97":-0.07844535261392593,"98":-0.30809810757637024,"99":0.12251684814691544,"100":-0.34608492255210876,"101":0.3836005926132202,"102":-0.2260408252477646,"103":-0.12342555820941925,"104":-0.33366844058036804,"105":0.15838125348091125,"106":0.08750908821821213,"107":0.13779741525650024,"108":0.09366174042224884,"109":0.07219759374856949,"110":0.07625410705804825,"111":0.10111183673143387,"112":-0.15185625851154327,"113":-0.20101116597652435,"114":-0.034852154552936554,"115":0.21056175231933594,"116":-0.2724383473396301,"117":-0.15878811478614807,"118":-0.03200041875243187,"119":0.01969097927212715,"120":-0.13677968084812164,"121":-0.011318125762045383,"122":0.11103249341249466,"123":0.012989266775548458,"124":-0.10451062023639679,"125":0.02798394300043583,"126":0.9888651371002197,"127":-0.06305728107690811,"128":0.4410693347454071,"129":-0.10663149505853653,"130":-0.235410675406456,"131":0.28229597210884094,"132":-0.21984392404556274,"133":-0.008562400937080383,"134":0.11420680582523346,"135":-0.08169985562562943,"136":-0.0012120053870603442,"137":0.012827490456402302,"138":-0.010188999585807323,"139":0.05330044776201248,"140":-0.19535283744335175,"141":-0.08878935128450394,"142":-0.06584016978740692,"143":0.23149432241916656,"144":-0.1214420422911644,"145":-0.21996913850307465,"146":0.3374684453010559,"147":-0.28450414538383484,"148":-0.1840243637561798,"149":-0.16618219017982483,"150":0.14071160554885864,"151":-0.10439703613519669,"152":0.2656800448894501,"153":-0.3257654309272766,"154":-0.11764586716890335,"155":0.034856583923101425,"156":-0.13320401310920715,"157":-0.09272418171167374,"158":-0.19236384332180023,"159":-0.20362533628940582,"160":-0.11731275171041489,"161":-0.09431725740432739,"162":0.004700775258243084,"163":-0.21679683029651642,"164":-0.15993861854076385,"165":-0.09309818595647812,"166":-0.008647232316434383,"167":0.01457195170223713,"168":0.1665995568037033,"169":-0.10620304197072983,"170":-0.012527752667665482,"171":0.09475116431713104,"172":0.008431569673120975,"173":-0.3640635013580322,"174":0.013358675874769688,"175":0.12852583825588226,"176":-0.22018207609653473,"177":-0.07364004850387573,"178":0.04540161415934563,"179":0.02157309465110302,"180":-0.18241733312606812,"181":-0.008897875435650349,"182":-0.2310393899679184,"183":-0.3171136677265167,"184":0.08013778179883957,"185":-0.4420703053474426,"186":0.3016936480998993,"187":-0.34463050961494446,"188":0.417705774307251,"189":-0.1130172610282898,"190":-0.5341435074806213,"191":-0.09684796631336212,"192":0.10998573154211044,"193":-0.23323188722133636,"194":-0.37211552262306213,"195":-0.017801806330680847,"196":0.2476523518562317,"197":-0.00838048942387104,"198":0.4266045093536377,"199":0.29616934061050415,"200":0.5272324681282043,"201":0.5796781182289124,"202":-0.05312692001461983,"203":-0.3313210606575012,"204":-0.34423500299453735,"205":-0.30212706327438354,"206":-0.29029253125190735,"207":-0.25848472118377686,"208":-0.3206433057785034,"209":-0.23951846361160278,"210":-0.6195487976074219,"211":-0.20732124149799347,"212":0.5793394446372986,"213":1.728177547454834,"214":0.3835282623767853,"215":0.1849890649318695,"216":0.14904968440532684,"217":-0.1322709023952484,"218":-0.11004957556724548,"219":-0.21902547776699066,"220":-0.06493212282657623,"221":0.1646149605512619,"222":0.31950613856315613,"223":-0.29164859652519226,"224":-0.009013057686388493,"225":-0.020097041502594948,"226":-0.042901843786239624,"227":-0.05017118528485298,"228":0.0006837875116616488,"229":0.02832755260169506,"230":0.01661335490643978,"231":-0.6730117201805115,"232":-0.3676736056804657,"233":-0.059910085052251816,"234":-0.5391222834587097,"235":0.1840796321630478,"236":-0.465263694524765,"237":-0.45395174622535706,"238":0.04193723946809769,"239":0.13222533464431763,"240":0.05985237658023834,"241":0.21727265417575836,"242":0.14013159275054932,"243":0.12967777252197266,"244":0.22740744054317474,"245":-0.13415375351905823,"246":0.024941176176071167,"247":0.047671977430582047,"248":-0.09572034329175949,"249":0.044959086924791336,"250":0.1793680191040039,"251":-0.10084085911512375,"252":0.09640765935182571,"253":-0.02371990866959095,"254":0.006463398225605488,"255":0.08388350903987885,"256":0.06069847196340561,"257":0.05239713191986084,"258":0.050833553075790405,"259":-0.10491027683019638,"260":-0.2072702944278717,"261":-0.08611858636140823,"262":-0.15722507238388062,"263":-0.4191693961620331,"264":-0.298472136259079,"265":-0.06969676166772842,"266":-0.22467802464962006,"267":-0.30840498208999634,"268":-0.2886863946914673,"269":-0.3371097147464752,"270":-0.2870492935180664,"271":-0.20920753479003906,"272":-0.33763280510902405,"273":0.359247088432312,"274":0.35663366317749023,"275":0.3512975871562958,"276":0.3775603473186493,"277":0.34176599979400635,"278":0.3365206718444824,"279":0.2625323534011841,"280":-0.4497773051261902,"281":-0.4213007390499115,"282":-0.5449499487876892,"283":-0.35596683621406555,"284":-0.506536602973938,"285":-0.5458747148513794,"286":-0.4076213836669922,"287":0.4485609531402588,"288":0.7126405239105225,"289":1.0235501527786255,"290":-0.3120752274990082,"291":0.09620817005634308,"292":0.24230055510997772,"293":2.1308577060699463,"294":0.17099259793758392,"295":0.5100510120391846,"296":0.5278545022010803,"297":-0.21244150400161743,"298":-0.5599573850631714,"299":-0.15770187973976135,"300":-0.8981621265411377,"301":-0.022822177037596703,"302":-0.22718515992164612,"303":-0.06605222821235657,"304":-0.09686380624771118,"305":-0.013573778793215752,"306":-0.09962776303291321,"307":-0.041824713349342346,"308":-0.4316257834434509,"309":0.011250016279518604,"310":0.19905884563922882,"311":-0.6363717317581177,"312":-0.16500605642795563,"313":0.3180156648159027,"314":-0.5776364803314209,"315":0.2778155505657196,"316":0.35218703746795654,"317":0.2201160043478012,"318":0.3646935522556305,"319":0.2799457013607025,"320":0.2391764223575592,"321":0.24058695137500763,"322":-0.03782137855887413,"323":-0.03209882602095604,"324":-0.054285451769828796,"325":-0.014472642913460732,"326":-0.07849052548408508,"327":0.055525247007608414,"328":-0.17599107325077057,"329":-0.1926523894071579,"330":0.13186383247375488,"331":-0.32524487376213074,"332":-0.15404878556728363,"333":-0.22795617580413818,"334":0.4946328401565552,"335":0.21870437264442444,"336":-0.18563787639141083,"337":0.07938728481531143,"338":-0.6752121448516846,"339":-0.08466888964176178,"340":0.443143367767334,"341":-0.17458829283714294,"342":-0.39388737082481384,"343":-0.017552223056554794,"344":1.4906858205795288,"345":0.11590041220188141,"346":-0.07458604127168655,"347":-0.029688650742173195,"348":-0.5125429630279541,"349":-0.1814858466386795}},"forgetHidden":{"rows":50,"columns":50,"weights":{"0":-0.7467168569564819,"1":-0.6010074615478516,"2":-0.2745017409324646,"3":-0.9463435411453247,"4":-0.5686641931533813,"5":0.38553985953330994,"6":0.7850697636604309,"7":0.022013690322637558,"8":-0.8025786876678467,"9":-0.24247339367866516,"10":0.33353957533836365,"11":0.6071967482566833,"12":0.1789316087961197,"13":0.6578770875930786,"14":0.6647599339485168,"15":-0.7846482396125793,"16":-0.6400262713432312,"17":0.657817006111145,"18":1.659044861793518,"19":-0.36940714716911316,"20":-0.8754492998123169,"21":-0.7506654262542725,"22":0.15117798745632172,"23":-0.35528314113616943,"24":3.7838804721832275,"25":0.18656450510025024,"26":0.9135998487472534,"27":0.7606292963027954,"28":-0.20305997133255005,"29":0.30687740445137024,"30":0.34451621770858765,"31":0.8946489691734314,"32":0.20548994839191437,"33":-0.11654667556285858,"34":-0.7638788819313049,"35":0.5845063924789429,"36":-0.8184223175048828,"37":1.0591378211975098,"38":-0.15522083640098572,"39":1.2111608982086182,"40":-0.8071051836013794,"41":0.4434369206428528,"42":-0.2924387454986572,"43":1.0749869346618652,"44":0.2244129180908203,"45":-1.6124855279922485,"46":-0.36261212825775146,"47":-0.2599208950996399,"48":-1.0461173057556152,"49":0.7586379051208496,"50":0.261531263589859,"51":-0.056533001363277435,"52":-0.07533730566501617,"53":0.03189117833971977,"54":0.19327226281166077,"55":-0.043196070939302444,"56":0.04959631338715553,"57":0.22059111297130585,"58":0.16590090095996857,"59":-0.04781527444720268,"60":0.05959309637546539,"61":-0.18972466886043549,"62":0.022468673065304756,"63":-0.15266162157058716,"64":0.0779685527086258,"65":0.17748358845710754,"66":0.09894534945487976,"67":-0.06070401147007942,"68":-0.18212661147117615,"69":-0.21834197640419006,"70":0.13695481419563293,"71":0.13216029107570648,"72":-0.06620435416698456,"73":-0.06150869280099869,"74":-0.10870235413312912,"75":0.03459411486983299,"76":-0.21914105117321014,"77":-0.17595192790031433,"78":-0.11879169940948486,"79":-0.03891625627875328,"80":0.1548779308795929,"81":-0.2509527802467346,"82":0.21683301031589508,"83":-0.023630745708942413,"84":0.04070807248353958,"85":-0.020202958956360817,"86":0.1404760181903839,"87":-0.09686330705881119,"88":-0.12373578548431396,"89":0.07589861750602722,"90":0.07566855847835541,"91":0.1338653862476349,"92":-0.09625542908906937,"93":-0.055264364928007126,"94":0.02389778196811676,"95":-0.04492369666695595,"96":-0.20651717483997345,"97":-0.2289629876613617,"98":0.10061047971248627,"99":0.02067357487976551,"100":0.390800803899765,"101":-0.9457254409790039,"102":-0.48256662487983704,"103":-0.27367061376571655,"104":0.3952427804470062,"105":1.3430933952331543,"106":1.2224657535552979,"107":0.21999794244766235,"108":0.33794596791267395,"109":0.2818853259086609,"110":0.44291090965270996,"111":-0.6341538429260254,"112":0.3635074198246002,"113":-0.1385771632194519,"114":5.454677581787109,"115":0.19977623224258423,"116":0.42979997396469116,"117":0.2684049904346466,"118":-0.22380010783672333,"119":-1.12916898727417,"120":0.2646291255950928,"121":0.16235047578811646,"122":0.7136419415473938,"123":-0.60932856798172,"124":-0.06453462690114975,"125":-0.44492343068122864,"126":-0.3392578065395355,"127":-0.31423407793045044,"128":-0.8357971906661987,"129":-0.37270045280456543,"130":0.2132858783006668,"131":-0.32139766216278076,"132":0.3882806599140167,"133":-0.3428431749343872,"134":0.07087728381156921,"135":0.6644251346588135,"136":0.17772851884365082,"137":1.1879535913467407,"138":-1.5142087936401367,"139":1.910818338394165,"140":-0.04263683035969734,"141":1.137882947921753,"142":1.153956413269043,"143":0.18506969511508942,"144":0.3244986832141876,"145":-1.5095791816711426,"146":-0.3348974287509918,"147":-0.24764665961265564,"148":0.31052136421203613,"149":1.5085762739181519,"150":-0.2408745288848877,"151":-0.006305013317614794,"152":1.7933152914047241,"153":-0.43231678009033203,"154":1.8605902194976807,"155":-0.025134095922112465,"156":2.9353725910186768,"157":-0.29103243350982666,"158":-0.9423506855964661,"159":-0.23926500976085663,"160":-0.0993911474943161,"161":0.04132602736353874,"162":1.6363831758499146,"163":0.6198469400405884,"164":-1.158459186553955,"165":-0.44357287883758545,"166":-0.6142220497131348,"167":2.580310106277466,"168":-1.1401304006576538,"169":1.4582555294036865,"170":-0.5852079391479492,"171":1.9873955249786377,"172":2.0558159351348877,"173":-0.10576114803552628,"174":0.13176074624061584,"175":1.7277534008026123,"176":0.02394307777285576,"177":0.6620274782180786,"178":-0.6419488787651062,"179":0.2751099765300751,"180":-0.4791101813316345,"181":0.5403306484222412,"182":-2.230010509490967,"183":-1.4222056865692139,"184":0.05485915765166283,"185":1.4553906917572021,"186":-0.8071205615997314,"187":1.181073546409607,"188":0.1553436666727066,"189":-0.03048660419881344,"190":-3.126807689666748,"191":-2.8165135383605957,"192":2.8129944801330566,"193":1.4545660018920898,"194":0.139320969581604,"195":-1.5541125535964966,"196":0.9956226348876953,"197":0.32176467776298523,"198":-3.266103506088257,"199":0.290350079536438,"200":-1.878965139389038,"201":-1.7417190074920654,"202":-3.406639337539673,"203":-0.8608273863792419,"204":-1.8950538635253906,"205":3.010521411895752,"206":2.5229332447052,"207":0.10880661010742188,"208":2.115488290786743,"209":-0.3679308593273163,"210":1.2072643041610718,"211":-2.43725848197937,"212":-4.191930770874023,"213":0.5284746289253235,"214":-0.4053710401058197,"215":-2.127318859100342,"216":-7.261051177978516,"217":2.6827151775360107,"218":-0.5453817844390869,"219":6.884291648864746,"220":-2.1110517978668213,"221":-2.7825169563293457,"222":-2.8133931159973145,"223":-0.9202173352241516,"224":0.3172588646411896,"225":-10.635688781738281,"226":7.740485191345215,"227":2.1420061588287354,"228":-1.4411780834197998,"229":0.3336045742034912,"230":-1.2256027460098267,"231":2.0221047401428223,"232":0.4050179421901703,"233":-3.9418911933898926,"234":-2.4311628341674805,"235":-1.4562629461288452,"236":-1.924224853515625,"237":1.4148277044296265,"238":3.7489371299743652,"239":1.0874979496002197,"240":-0.9499344229698181,"241":0.7950767278671265,"242":15.766979217529297,"243":1.3255715370178223,"244":1.2251471281051636,"245":-0.31991294026374817,"246":2.1542556285858154,"247":0.7373982071876526,"248":-2.4415714740753174,"249":2.072476625442505,"250":0.2785870432853699,"251":-0.22781355679035187,"252":-0.3192610740661621,"253":0.2928123474121094,"254":0.2515353858470917,"255":0.24517667293548584,"256":-0.34636566042900085,"257":0.35687533020973206,"258":0.22555799782276154,"259":0.12388095259666443,"260":0.2986636161804199,"261":-0.3299664855003357,"262":0.011621695011854172,"263":-0.22910019755363464,"264":0.16335390508174896,"265":0.2589057385921478,"266":0.3251628577709198,"267":-0.0951630175113678,"268":-0.2960386872291565,"269":-0.27934929728507996,"270":0.24411486089229584,"271":0.2567580044269562,"272":-0.17646896839141846,"273":-0.26814597845077515,"274":-0.13593803346157074,"275":0.08563980460166931,"276":-0.2089075744152069,"277":-0.3043821454048157,"278":-0.27871060371398926,"279":0.002237817272543907,"280":0.2374492734670639,"281":-0.25023841857910156,"282":0.1764373630285263,"283":-0.07910269498825073,"284":0.07293233275413513,"285":0.07585625350475311,"286":0.22258064150810242,"287":0.1480158418416977,"288":-0.30744171142578125,"289":0.1756698489189148,"290":0.11197376996278763,"291":0.18071258068084717,"292":0.31307703256607056,"293":-0.07421385496854782,"294":0.28730273246765137,"295":0.2743827700614929,"296":-0.2908617854118347,"297":-0.34133008122444153,"298":0.2740890383720398,"299":0.04813183471560478,"300":-0.39591819047927856,"301":-0.37101441621780396,"302":-0.37107768654823303,"303":-1.073349118232727,"304":-0.43613842129707336,"305":0.11583909392356873,"306":0.8971285223960876,"307":-0.01672242023050785,"308":-0.4971160590648651,"309":-0.3671492338180542,"310":0.5390587449073792,"311":0.42641401290893555,"312":0.2076951265335083,"313":0.4712502062320709,"314":0.40906310081481934,"315":-0.533881664276123,"316":-0.320000559091568,"317":0.6793593168258667,"318":0.3065754473209381,"319":-0.3422337770462036,"320":-0.44415387511253357,"321":-0.426256000995636,"322":0.15554606914520264,"323":-0.12751369178295135,"324":0.3061637282371521,"325":1.2459112405776978,"326":0.3387435972690582,"327":0.4569655954837799,"328":-0.6041241884231567,"329":0.2877008020877838,"330":0.2404952049255371,"331":0.5249751806259155,"332":0.14090050756931305,"333":0.15273702144622803,"334":-1.058426856994629,"335":0.6464746594429016,"336":-0.5584442019462585,"337":0.8188954591751099,"338":0.21697086095809937,"339":0.45480915904045105,"340":-0.8261989951133728,"341":0.5682259202003479,"342":0.2001880556344986,"343":1.052101731300354,"344":0.31214264035224915,"345":-2.067486524581909,"346":-0.26960107684135437,"347":-0.25528496503829956,"348":-0.6116423606872559,"349":0.7040879130363464,"350":0.13525719940662384,"351":-1.296095848083496,"352":0.6287790536880493,"353":2.3648834228515625,"354":0.176396906375885,"355":-0.9222884774208069,"356":-12.079453468322754,"357":-0.5120721459388733,"358":-2.8760933876037598,"359":0.29916393756866455,"360":0.41294407844543457,"361":-0.720839262008667,"362":3.6911842823028564,"363":0.0626615583896637,"364":7.539763927459717,"365":-0.20218271017074585,"366":0.10088234394788742,"367":-0.3026595711708069,"368":0.0899195745587349,"369":-0.45741844177246094,"370":0.3130754232406616,"371":-6.540823459625244,"372":3.1491775512695312,"373":-0.6257658004760742,"374":0.10295166820287704,"375":3.039203405380249,"376":-1.8804223537445068,"377":-0.15975213050842285,"378":4.996423244476318,"379":-0.2404967099428177,"380":-0.7647857069969177,"381":-0.26380032300949097,"382":1.7189370393753052,"383":-0.6683282852172852,"384":1.5770419836044312,"385":0.07888997346162796,"386":0.3155539333820343,"387":0.11889387667179108,"388":-2.707365036010742,"389":1.9143849611282349,"390":2.5081369876861572,"391":-3.983550786972046,"392":-1.2196075916290283,"393":0.24897730350494385,"394":-0.08319807797670364,"395":5.9847211837768555,"396":-2.1835501194000244,"397":-5.377641201019287,"398":1.018283486366272,"399":1.8997740745544434,"400":0.49989259243011475,"401":-0.27896711230278015,"402":1.9551423788070679,"403":0.4286891520023346,"404":-1.9706724882125854,"405":-1.2574458122253418,"406":-10.478737831115723,"407":-0.5812694430351257,"408":-1.0151921510696411,"409":0.2932838201522827,"410":-1.1144968271255493,"411":-0.34941038489341736,"412":1.6960173845291138,"413":0.41546836495399475,"414":3.0076868534088135,"415":0.3806345462799072,"416":0.22351130843162537,"417":-0.9100765585899353,"418":0.6826680898666382,"419":0.5122892260551453,"420":0.554703950881958,"421":-0.061423882842063904,"422":3.7193801403045654,"423":0.2811413109302521,"424":-0.4685432016849518,"425":-13.982769012451172,"426":0.32067790627479553,"427":-0.24713926017284393,"428":-2.0852601528167725,"429":0.3373565673828125,"430":-0.47983452677726746,"431":-0.4741683602333069,"432":-1.1203665733337402,"433":1.366010069847107,"434":1.536844253540039,"435":2.900949239730835,"436":0.4044603705406189,"437":-0.7969780564308167,"438":3.4829654693603516,"439":-0.4116581380367279,"440":0.20397444069385529,"441":-1.6968028545379639,"442":11.894891738891602,"443":-1.283028244972229,"444":-1.0082237720489502,"445":5.416416168212891,"446":1.9238450527191162,"447":0.8599533438682556,"448":0.011544040404260159,"449":0.25392478704452515,"450":-0.1494622677564621,"451":0.05091898888349533,"452":0.14642935991287231,"453":-0.057711124420166016,"454":-0.023764099925756454,"455":-0.08709428459405899,"456":0.04719461873173714,"457":-0.09463048726320267,"458":0.08057115972042084,"459":-0.03625238314270973,"460":-0.0801774337887764,"461":0.16399458050727844,"462":0.07256562262773514,"463":0.08430910110473633,"464":0.04859047383069992,"465":0.01011483184993267,"466":-0.15587455034255981,"467":0.003163882764056325,"468":0.03135336935520172,"469":-0.008182772435247898,"470":-0.11803169548511505,"471":-0.10145552456378937,"472":-0.03271050751209259,"473":-0.008183899335563183,"474":0.06449868530035019,"475":-0.005990947596728802,"476":0.11242885142564774,"477":0.17299258708953857,"478":0.03411735221743584,"479":0.016502071171998978,"480":-0.0848737433552742,"481":0.10689486563205719,"482":-0.015938134863972664,"483":0.018098147585988045,"484":-0.04166978597640991,"485":0.05177227780222893,"486":-0.07704605907201767,"487":-0.006022023037075996,"488":0.15925385057926178,"489":0.04810231178998947,"490":0.04956624284386635,"491":0.04159950092434883,"492":-0.0795680582523346,"493":0.09089580178260803,"494":-0.04786171764135361,"495":0.00903379451483488,"496":0.02931688167154789,"497":0.016339143738150597,"498":-0.0776614174246788,"499":-0.07984184473752975,"500":0.030502988025546074,"501":-1.0094691514968872,"502":-0.37026646733283997,"503":-0.21604032814502716,"504":0.017539935186505318,"505":0.8537829518318176,"506":-0.0968436673283577,"507":0.33428823947906494,"508":0.10150320082902908,"509":0.30929917097091675,"510":0.6876270771026611,"511":-0.22395159304141998,"512":0.1537681519985199,"513":-0.11378764361143112,"514":1.747859001159668,"515":0.004705376457422972,"516":0.14073193073272705,"517":-0.005293725989758968,"518":-0.009784513153135777,"519":-0.44227179884910583,"520":-0.01897135004401207,"521":0.18053662776947021,"522":0.882899820804596,"523":-0.6379062533378601,"524":-0.15841662883758545,"525":0.2481454312801361,"526":-0.05764678120613098,"527":-0.08285152912139893,"528":-0.3624192476272583,"529":-0.3585643768310547,"530":0.5190159678459167,"531":0.025993376970291138,"532":0.4060176610946655,"533":-0.38834109902381897,"534":-0.17969685792922974,"535":0.670823335647583,"536":0.00924051832407713,"537":0.4049029052257538,"538":-0.3293592631816864,"539":3.9601728916168213,"540":-0.08269558846950531,"541":0.9265596270561218,"542":0.5632112622261047,"543":0.9572374224662781,"544":0.677105188369751,"545":-1.5055241584777832,"546":-0.6003792881965637,"547":-0.5120347738265991,"548":-0.06783995032310486,"549":2.4981679916381836,"550":-1.22446870803833,"551":-0.8569624423980713,"552":1.0272715091705322,"553":-1.6996105909347534,"554":0.03439333289861679,"555":2.458101987838745,"556":6.424877166748047,"557":1.2477891445159912,"558":-2.9461731910705566,"559":-0.2639782130718231,"560":1.1930615901947021,"561":2.383108377456665,"562":1.645283818244934,"563":1.119097352027893,"564":8.452803611755371,