function anonymous(rawInput
) {

  var input = rawInput;
  var json = {"type":"LSTMTimeStep","options":{"inputSize":8,"hiddenLayers":[50],"outputSize":8,"decayRate":0.999,"smoothEps":1e-8,"regc":0.000001,"clipval":5},"hiddenLayers":[{"inputMatrix":{"rows":50,"columns":8,"weights":{"0":-0.343487024307251,"1":-0.28795117139816284,"2":-0.20604199171066284,"3":-0.2021995186805725,"4":-0.29877179861068726,"5":-0.16420473158359528,"6":-0.24580137431621552,"7":-0.38578611612319946,"8":0.1560690701007843,"9":0.11313657462596893,"10":0.17917746305465698,"11":0.1003543958067894,"12":0.04719164967536926,"13":0.07879459857940674,"14":0.02523776702582836,"15":0.052045319229364395,"16":-0.1133674830198288,"17":0.18891757726669312,"18":-0.1224517896771431,"19":0.2582556903362274,"20":0.08945418149232864,"21":0.0070513766258955,"22":-0.3977797031402588,"23":0.08254771679639816,"24":-0.1259392350912094,"25":-0.01667899079620838,"26":-0.3417971134185791,"27":-0.5798829793930054,"28":-0.5240300297737122,"29":-0.4565756916999817,"30":-0.2549106180667877,"31":-0.2781375050544739,"32":0.028081407770514488,"33":0.355783611536026,"34":-0.5041186213493347,"35":-0.20513798296451569,"36":-0.11947287619113922,"37":0.27650246024131775,"38":0.9464630484580994,"39":-0.9912356734275818,"40":-0.15640710294246674,"41":-0.004022219683974981,"42":0.05707420036196709,"43":0.0867835283279419,"44":-0.03204061836004257,"45":0.023946488276124,"46":-0.0853692814707756,"47":0.547191858291626,"48":-0.029857434332370758,"49":-0.0185527503490448,"50":0.06646274775266647,"51":0.05775633826851845,"52":0.11361560970544815,"53":-0.050849996507167816,"54":0.09226078540086746,"55":0.019555026665329933,"56":-0.13385887444019318,"57":-0.04153052344918251,"58":0.04498707503080368,"59":0.3640831410884857,"60":-0.09513162076473236,"61":-0.04889855161309242,"62":-0.6045094132423401,"63":0.38768109679222107,"64":0.13279308378696442,"65":-0.14984503388404846,"66":0.15222720801830292,"67":0.16686177253723145,"68":0.10841862112283707,"69":-0.03583842143416405,"70":-0.15832221508026123,"71":-0.02841244265437126,"72":0.012857621535658836,"73":0.09914077073335648,"74":0.03733581677079201,"75":0.11268644034862518,"76":0.0122162364423275,"77":-0.03225838020443916,"78":0.043851446360349655,"79":0.09857122600078583,"80":0.07260902971029282,"81":0.03696809709072113,"82":0.13499510288238525,"83":0.1542706936597824,"84":0.11288446187973022,"85":0.03162311390042305,"86":0.07507867366075516,"87":0.21203747391700745,"88":0.32766851782798767,"89":0.32354414463043213,"90":0.1379513144493103,"91":0.16137626767158508,"92":0.06635089218616486,"93":0.38199660181999207,"94":0.28189796209335327,"95":0.13731157779693604,"96":-0.21212966740131378,"97":-0.3390915095806122,"98":-0.21322333812713623,"99":0.17110657691955566,"100":-0.12688569724559784,"101":-0.37548068165779114,"102":0.670256495475769,"103":-0.2678775191307068,"104":0.27416905760765076,"105":0.2632499039173126,"106":0.37318894267082214,"107":0.22587551176548004,"108":0.36080822348594666,"109":0.33131545782089233,"110":0.36923834681510925,"111":0.2412557154893875,"112":0.03928098455071449,"113":0.11701927334070206,"114":-0.013030615635216236,"115":0.10482095927000046,"116":0.10226775705814362,"117":-0.03608711063861847,"118":0.12196219712495804,"119":0.0983157753944397,"120":0.11510153859853745,"121":-0.028434814885258675,"122":0.08950002491474152,"123":0.011187301017343998,"124":0.056201446801424026,"125":-0.05014688894152641,"126":0.0742248147726059,"127":0.152226522564888,"128":-0.025422532111406326,"129":0.041677024215459824,"130":0.10120154917240143,"131":0.06927395612001419,"132":0.09779968857765198,"133":0.04540223628282547,"134":-0.016376733779907227,"135":0.03331940993666649,"136":-0.12295696139335632,"137":-0.23561832308769226,"138":-0.0025273931678384542,"139":0.6350865364074707,"140":-0.07637478411197662,"141":-0.25505515933036804,"142":-0.12394433468580246,"143":0.8026799559593201,"144":0.33102574944496155,"145":0.2632063925266266,"146":0.34110045433044434,"147":0.33267033100128174,"148":0.31396618485450745,"149":0.31925830245018005,"150":0.35270002484321594,"151":0.26678067445755005,"152":-0.03476057946681976,"153":-0.07128830254077911,"154":-0.05843070149421692,"155":0.38840481638908386,"156":0.0137633690610528,"157":-0.023737695068120956,"158":-0.09639479964971542,"159":0.08535899221897125,"160":0.06716874241828918,"161":0.14742587506771088,"162":0.13011083006858826,"163":0.11948002129793167,"164":0.09232424944639206,"165":0.03956963121891022,"166":-0.1841171681880951,"167":-0.29696717858314514,"168":-0.05624670907855034,"169":0.5332916378974915,"170":-0.32608404755592346,"171":-0.14575417339801788,"172":-0.4782009720802307,"173":0.428005188703537,"174":-0.3358001112937927,"175":-0.01261343713849783,"176":0.6171793937683105,"177":0.3981802761554718,"178":-0.14686113595962524,"179":0.5042452812194824,"180":-0.28653043508529663,"181":-0.3564930856227875,"182":-0.054783884435892105,"183":-0.7773290276527405,"184":-0.4580649137496948,"185":0.11222999542951584,"186":-0.23484063148498535,"187":-0.5257700085639954,"188":0.22105464339256287,"189":-0.1147555336356163,"190":-0.4315473139286041,"191":-0.8905024528503418,"192":-0.6678662300109863,"193":0.14540553092956543,"194":-0.3062465786933899,"195":-0.3569360077381134,"196":0.5853269696235657,"197":-0.04195292666554451,"198":0.2824390232563019,"199":1.1860214471817017,"200":-0.15616020560264587,"201":1.090579867362976,"202":-0.25183340907096863,"203":0.6017512679100037,"204":0.5048779249191284,"205":-0.7322870492935181,"206":0.4078313410282135,"207":1.137746810913086,"208":0.3523411750793457,"209":0.04156100004911423,"210":0.018959660083055496,"211":-0.3437342643737793,"212":-0.8798302412033081,"213":0.01319075096398592,"214":0.42195749282836914,"215":0.8596030473709106,"216":-0.012354163452982903,"217":0.05269322916865349,"218":0.020673178136348724,"219":0.08902379870414734,"220":0.07093534618616104,"221":0.06524287909269333,"222":0.06299085170030594,"223":-0.007089062128216028,"224":0.023516327142715454,"225":0.3785601258277893,"226":-0.27595624327659607,"227":-0.11999653279781342,"228":-0.24220331013202667,"229":0.20581874251365662,"230":-0.3285130560398102,"231":0.37042638659477234,"232":0.0903288722038269,"233":-0.018899865448474884,"234":-0.006253763567656279,"235":0.11177083849906921,"236":0.03197817504405975,"237":0.04469095170497894,"238":0.0508691631257534,"239":0.049392037093639374,"240":-0.2297312468290329,"241":-0.19690218567848206,"242":-0.3135986030101776,"243":-0.3669132888317108,"244":-0.14971812069416046,"245":-0.21352826058864594,"246":-0.17885705828666687,"247":-0.3173869252204895,"248":0.01653066650032997,"249":0.12600506842136383,"250":0.05386846140027046,"251":0.0940079614520073,"252":0.11248581856489182,"253":0.010434034280478954,"254":0.11074867844581604,"255":0.049306828528642654,"256":-0.21590527892112732,"257":-0.12279419600963593,"258":-0.07815643399953842,"259":-0.1340760588645935,"260":-0.05056631192564964,"261":-0.28693121671676636,"262":-0.16006962954998016,"263":-0.2956623435020447,"264":0.08705032616853714,"265":0.07066819816827774,"266":0.18344026803970337,"267":0.08325745165348053,"268":0.05423968657851219,"269":0.0975661501288414,"270":0.1473284661769867,"271":0.020599130541086197,"272":0.018553657457232475,"273":0.08503739535808563,"274":0.09943003952503204,"275":0.14254064857959747,"276":0.0336112417280674,"277":0.005456222221255302,"278":0.08196449279785156,"279":0.07367110997438431,"280":0.01934261992573738,"281":0.027910996228456497,"282":-0.11967828869819641,"283":-0.0237587857991457,"284":-0.08737721294164658,"285":-0.020107204094529152,"286":-0.02331365831196308,"287":0.024017689749598503,"288":0.2540733814239502,"289":0.2322295606136322,"290":0.2633279263973236,"291":0.15022306144237518,"292":0.3777741491794586,"293":0.3124787509441376,"294":0.3163412809371948,"295":0.1767214834690094,"296":-0.2811843752861023,"297":-0.314716100692749,"298":-0.2875445485115051,"299":-0.2540852129459381,"300":-0.23515205085277557,"301":-0.4125535190105438,"302":-0.2684951722621918,"303":-0.22971254587173462,"304":0.10380961000919342,"305":0.03119567781686783,"306":0.11083175987005234,"307":0.09905708581209183,"308":0.0693499967455864,"309":0.08973538875579834,"310":0.1098891943693161,"311":0.041101280599832535,"312":0.07602006942033768,"313":-0.09800814092159271,"314":-0.059688787907361984,"315":0.01558760553598404,"316":-0.1068219244480133,"317":-0.038205552846193314,"318":-0.13294510543346405,"319":-0.06109851226210594,"320":0.04096415638923645,"321":0.06561599671840668,"322":0.06444903463125229,"323":0.11982815712690353,"324":0.09851549565792084,"325":0.10176343470811844,"326":0.07652164250612259,"327":0.17380961775779724,"328":0.04595266282558441,"329":0.0015715435147285461,"330":0.11697937548160553,"331":0.06912238895893097,"332":0.036630067974328995,"333":0.09118971228599548,"334":0.16081824898719788,"335":0.1229567900300026,"336":-0.004510282538831234,"337":-0.04368603974580765,"338":0.015406270511448383,"339":0.22047172486782074,"340":0.08378040045499802,"341":-0.2146921455860138,"342":0.09997808933258057,"343":-0.15108853578567505,"344":0.28932029008865356,"345":-0.16720321774482727,"346":0.3073245584964752,"347":-0.1693582385778427,"348":-0.050026390701532364,"349":-0.2056412249803543,"350":-0.24425563216209412,"351":-0.40634462237358093,"352":-0.054570022970438004,"353":-0.03165656328201294,"354":0.35216134786605835,"355":0.30955269932746887,"356":-0.16265343129634857,"357":-0.5542281866073608,"358":1.1493642330169678,"359":-0.8394516706466675,"360":0.07994531095027924,"361":0.04781752824783325,"362":0.1150163933634758,"363":0.13282930850982666,"364":0.021155549213290215,"365":0.017747795209288597,"366":0.03432595729827881,"367":0.13213835656642914,"368":-0.12016401439905167,"369":0.05327485501766205,"370":-0.41191768646240234,"371":-0.6816391944885254,"372":0.13209973275661469,"373":0.017539577558636665,"374":-0.36101284623146057,"375":0.8115132451057434,"376":0.008917302824556828,"377":0.06420352309942245,"378":0.04350754991173744,"379":0.06934233754873276,"380":0.15191030502319336,"381":0.0011216973653063178,"382":-0.011625590734183788,"383":0.035700008273124695,"384":-0.16687949001789093,"385":-0.20954756438732147,"386":-0.2738752067089081,"387":-0.280952125787735,"388":-0.3009107708930969,"389":-0.16646312177181244,"390":-0.3114493191242218,"391":0.2703026235103607,"392":0.2020350992679596,"393":0.310260146856308,"394":0.23579205572605133,"395":0.31408149003982544,"396":0.30623558163642883,"397":0.2765183448791504,"398":0.333062082529068,"399":0.35374879837036133}},"inputHidden":{"rows":50,"columns":50,"weights":{"0":0.7433082461357117,"1":-0.2666771709918976,"2":-0.7834932208061218,"3":-0.8152373433113098,"4":-0.20423929393291473,"5":0.11709492653608322,"6":-0.7142038345336914,"7":0.23761245608329773,"8":-0.23488712310791016,"9":-0.7951021790504456,"10":-0.11414970457553864,"11":0.2860895097255707,"12":0.059885621070861816,"13":-0.18077844381332397,"14":0.8500710725784302,"15":-0.7080032825469971,"16":-0.759189248085022,"17":0.2211357206106186,"18":-1.215197205543518,"19":-0.12108493596315384,"20":-0.7453031539916992,"21":-0.9660124182701111,"22":-0.15666741132736206,"23":0.8186647295951843,"24":-0.23944774270057678,"25":-0.19991600513458252,"26":-0.408313512802124,"27":-0.786479115486145,"28":0.08982548862695694,"29":0.845481276512146,"30":-0.6643744111061096,"31":0.22842277586460114,"32":-0.6234588623046875,"33":-0.8860412240028381,"34":-0.17185062170028687,"35":-0.8993059992790222,"36":0.8286105990409851,"37":-1.1831873655319214,"38":-0.8533833026885986,"39":0.5555188655853271,"40":-0.2544640004634857,"41":-0.817683219909668,"42":-0.3965294063091278,"43":0.0828118622303009,"44":-0.0945858284831047,"45":-0.25326618552207947,"46":-0.38735535740852356,"47":0.8104673027992249,"48":-0.17712236940860748,"49":-0.8951974511146545,"50":0.1933952420949936,"51":0.5935412049293518,"52":-0.1774268001317978,"53":-0.2823792099952698,"54":0.5172010064125061,"55":-0.49041974544525146,"56":-0.030318941920995712,"57":0.0528235025703907,"58":0.5525336265563965,"59":-0.21025598049163818,"60":0.507771372795105,"61":0.2864924371242523,"62":0.5669086575508118,"63":0.13769584894180298,"64":0.06593579798936844,"65":-0.11305992305278778,"66":-0.053172752261161804,"67":-0.5558633804321289,"68":-0.577342689037323,"69":-3.24880051612854,"70":-0.6103875041007996,"71":0.38273778557777405,"72":0.7334724068641663,"73":0.21971911191940308,"74":-0.08534741401672363,"75":0.5180866122245789,"76":-0.46951499581336975,"77":-0.02897464670240879,"78":-0.6170388460159302,"79":0.06561070680618286,"80":-0.045547932386398315,"81":-0.5291779041290283,"82":-0.14316916465759277,"83":-0.20877493917942047,"84":0.2011631727218628,"85":-0.08789398521184921,"86":0.2939338684082031,"87":0.08267232775688171,"88":-0.25061407685279846,"89":0.029054593294858932,"90":0.5726261138916016,"91":-0.2695762515068054,"92":-0.5462818145751953,"93":0.6100025177001953,"94":0.18280662596225739,"95":0.09332701563835144,"96":-0.10319656133651733,"97":0.20762336254119873,"98":0.2686741054058075,"99":-0.3218052387237549,"100":0.6340528130531311,"101":-0.12445151805877686,"102":2.109506130218506,"103":-0.33337122201919556,"104":-0.21565164625644684,"105":-1.2516725063323975,"106":0.20889703929424286,"107":0.03397179767489433,"108":-0.10162763297557831,"109":-0.42514586448669434,"110":-0.2915606200695038,"111":-0.8213489055633545,"112":0.5019878149032593,"113":-0.2066035270690918,"114":-0.39014723896980286,"115":0.2801454961299896,"116":0.0946163460612297,"117":-0.8008235096931458,"118":-0.40148839354515076,"119":-0.27690592408180237,"120":-0.5401453971862793,"121":-0.019367951899766922,"122":-0.22901087999343872,"123":-0.42938682436943054,"124":1.358007788658142,"125":-0.17843034863471985,"126":3.203303337097168,"127":0.15151755511760712,"128":-1.759026050567627,"129":0.19062595069408417,"130":0.9377381205558777,"131":0.07063350826501846,"132":0.34135884046554565,"133":0.19176851212978363,"134":0.17508752644062042,"135":0.07163991034030914,"136":-0.04199032485485077,"137":-0.07373389601707458,"138":0.18821018934249878,"139":-0.2015756070613861,"140":0.6072478294372559,"141":0.3005993068218231,"142":3.462209701538086,"143":0.6963930130004883,"144":0.16681264340877533,"145":-0.17386750876903534,"146":4.9340620040893555,"147":0.1521199345588684,"148":-0.010333642363548279,"149":0.45544496178627014,"150":0.8388176560401917,"151":2.117293357849121,"152":2.7023580074310303,"153":4.413811206817627,"154":2.081167221069336,"155":-2.8683791160583496,"156":2.1012444496154785,"157":-2.126516103744507,"158":1.9368879795074463,"159":2.7676074504852295,"160":1.780393123626709,"161":0.15339936316013336,"162":2.969172716140747,"163":1.7870162725448608,"164":-2.4857800006866455,"165":2.090012311935425,"166":2.509286642074585,"167":-1.8802542686462402,"168":-1.4708187580108643,"169":-2.674023151397705,"170":-2.698707103729248,"171":0.8630144000053406,"172":2.094749689102173,"173":0.18092331290245056,"174":1.6268116235733032,"175":1.7251248359680176,"176":-4.364611625671387,"177":2.553171396255493,"178":-2.5487334728240967,"179":-1.9927644729614258,"180":2.108034610748291,"181":-2.1850738525390625,"182":0.8667942881584167,"183":2.1390178203582764,"184":1.9278762340545654,"185":-0.09851226955652237,"186":-1.1003175973892212,"187":-1.809152364730835,"188":0.7376531958580017,"189":-1.0460444688796997,"190":1.073739767074585,"191":2.6296281814575195,"192":-3.007143020629883,"193":-1.966302752494812,"194":1.549324631690979,"195":1.9286718368530273,"196":1.9576927423477173,"197":-2.075066566467285,"198":2.7817981243133545,"199":-0.440520703792572,"200":0.5393864512443542,"201":1.0481903553009033,"202":0.33471357822418213,"203":1.1829782724380493,"204":2.2457399368286133,"205":3.3261797428131104,"206":2.1191883087158203,"207":3.759347677230835,"208":-1.1315797567367554,"209":0.41137248277664185,"210":1.4264720678329468,"211":-4.9101338386535645,"212":0.8830994963645935,"213":-2.10491943359375,"214":-0.41404226422309875,"215":0.7017152309417725,"216":0.4016301929950714,"217":-5.050708293914795,"218":0.8630430698394775,"219":-0.5363483428955078,"220":-1.1889644861221313,"221":-1.6052448749542236,"222":4.493200778961182,"223":5.498574733734131,"224":4.151871204376221,"225":1.247999668121338,"226":5.180222034454346,"227":0.29782482981681824,"228":1.3910861015319824,"229":0.46102726459503174,"230":0.26493701338768005,"231":-0.9689770936965942,"232":2.9144673347473145,"233":-0.9929941892623901,"234":1.3928477764129639,"235":-2.240178108215332,"236":-3.3669610023498535,"237":-0.852794885635376,"238":-2.158795118331909,"239":-0.7307511568069458,"240":-3.6379683017730713,"241":0.3595619201660156,"242":-0.2553810775279999,"243":7.886008262634277,"244":-3.063720226287842,"245":0.9556609392166138,"246":-8.16588020324707,"247":-0.28063443303108215,"248":-0.007779640145599842,"249":2.400313377380371,"250":0.3758869469165802,"251":0.41411060094833374,"252":-0.186605766415596,"253":-0.13626150786876678,"254":0.45254164934158325,"255":-3.815624237060547,"256":-0.15613897144794464,"257":0.5696125030517578,"258":0.9814006090164185,"259":-0.17610029876232147,"260":-0.904740571975708,"261":-3.6739039421081543,"262":2.045691728591919,"263":0.688055157661438,"264":0.36229535937309265,"265":-0.30026108026504517,"266":-0.40595942735671997,"267":3.8584604263305664,"268":-0.4075353741645813,"269":-1.7841577529907227,"270":-0.9969037175178528,"271":-0.13575543463230133,"272":0.45065993070602417,"273":-0.26254475116729736,"274":-5.840548038482666,"275":0.2713531255722046,"276":-11.240152359008789,"277":-0.38295260071754456,"278":-8.296555519104004,"279":-0.1578153818845749,"280":2.089460611343384,"281":-0.41394054889678955,"282":-0.7226493954658508,"283":-0.470617413520813,"284":0.3039969205856323,"285":-0.7060688138008118,"286":0.37369808554649353,"287":-0.7384989261627197,"288":-2.060609817504883,"289":-2.2268874645233154,"290":-1.7092278003692627,"291":-0.32088562846183777,"292":1.6192045211791992,"293":4.9258012771606445,"294":1.3381694555282593,"295":0.1463926136493683,"296":9.640632629394531,"297":0.345140278339386,"298":-0.7666565179824829,"299":-0.42341095209121704,"300":0.009189670905470848,"301":-0.150615394115448,"302":0.3924161195755005,"303":0.7603152990341187,"304":-0.08088880777359009,"305":0.10740607231855392,"306":0.1855931580066681,"307":-1.2388135194778442,"308":-0.037157099694013596,"309":0.6522423624992371,"310":-0.14206093549728394,"311":-0.4232012629508972,"312":-0.1158604621887207,"313":0.05922405421733856,"314":-0.3027179539203644,"315":1.7653878927230835,"316":0.4048190712928772,"317":0.06442765891551971,"318":-0.6200471520423889,"319":-0.2397090196609497,"320":-0.16681469976902008,"321":0.4889674484729767,"322":0.11556578427553177,"323":-0.4724896252155304,"324":0.053807780146598816,"325":-0.12384069710969925,"326":-0.1719302088022232,"327":0.2740273177623749,"328":0.0246064942330122,"329":-0.2956698536872864,"330":0.19340771436691284,"331":0.15136882662773132,"332":0.576469361782074,"333":0.8006582856178284,"334":0.038528718054294586,"335":0.21779775619506836,"336":-0.3791361153125763,"337":-0.6732368469238281,"338":0.666650116443634,"339":-1.157150149345398,"340":-0.08202465623617172,"341":0.6259412169456482,"342":0.027578458189964294,"343":-0.028222134336829185,"344":0.12331964820623398,"345":0.13333377242088318,"346":-0.0343756340444088,"347":-1.283766746520996,"348":-0.031004995107650757,"349":0.22738459706306458,"350":-0.051386430859565735,"351":0.13132573664188385,"352":-0.09847152978181839,"353":-0.28381943702697754,"354":0.6130458116531372,"355":0.5671609044075012,"356":1.5401320457458496,"357":-1.5735899209976196,"358":0.19207972288131714,"359":0.9885556101799011,"360":-0.8638712763786316,"361":-10.284770965576172,"362":3.2188684940338135,"363":0.055464547127485275,"364":-0.6993095874786377,"365":1.6181727647781372,"366":0.7195480465888977,"367":-2.9129343032836914,"368":-0.9332070350646973,"369":-0.419493168592453,"370":-0.6776530742645264,"371":-2.219611644744873,"372":0.9979388117790222,"373":-1.1600022315979004,"374":-0.3669950067996979,"375":0.12464137375354767,"376":0.7782387137413025,"377":0.6649972796440125,"378":-2.5632195472717285,"379":-0.4046843349933624,"380":0.5476097464561462,"381":-0.0942089632153511,"382":0.6515181064605713,"383":0.12093917280435562,"384":-0.3311716318130493,"385":1.912789225578308,"386":0.029154712334275246,"387":-0.5209571719169617,"388":0.5331130027770996,"389":-0.0883263349533081,"390":0.9360924959182739,"391":0.9052565693855286,"392":1.1446714401245117,"393":3.3015904426574707,"394":-2.4990270137786865,"395":0.14142844080924988,"396":-2.0705747604370117,"397":-0.9876222014427185,"398":0.14602354168891907,"399":-0.05058806389570236,"400":0.1497378796339035,"401":0.7382010817527771,"402":0.07087275385856628,"403":0.05337401479482651,"404":0.7723689675331116,"405":-1.3409149646759033,"406":0.11396770179271698,"407":-0.15465304255485535,"408":0.5786245465278625,"409":-0.05028580501675606,"410":0.9478508830070496,"411":0.6230073571205139,"412":0.6571745276451111,"413":0.3348347246646881,"414":-0.0364079475402832,"415":0.32320648431777954,"416":-0.016218900680541992,"417":-0.7612466216087341,"418":-0.768339991569519,"419":-3.2857413291931152,"420":-0.821908175945282,"421":-0.06695796549320221,"422":0.7818797826766968,"423":0.11123909801244736,"424":0.06526830792427063,"425":0.8650575280189514,"426":-0.3181982934474945,"427":0.10193530470132828,"428":-0.8744597434997559,"429":0.3130629062652588,"430":0.20890726149082184,"431":-0.6142123937606812,"432":-0.008363468572497368,"433":-0.04097181558609009,"434":0.25191009044647217,"435":-0.03603583574295044,"436":0.16032761335372925,"437":-0.607719898223877,"438":-0.055274274200201035,"439":-0.36163607239723206,"440":0.5912327766418457,"441":-0.07665184140205383,"442":-0.5755152702331543,"443":0.7910112738609314,"444":0.24788561463356018,"445":0.2204495370388031,"446":-0.4322179853916168,"447":0.04954336956143379,"448":0.4469924867153168,"449":-0.4209119975566864,"450":0.044237468391656876,"451":-0.05790766328573227,"452":0.5075603723526001,"453":1.5699878931045532,"454":-0.04199441149830818,"455":-0.12314315885305405,"456":0.17081384360790253,"457":-1.2110849618911743,"458":-0.26788291335105896,"459":0.047187186777591705,"460":-0.08377294987440109,"461":-0.32134196162223816,"462":-0.18247941136360168,"463":0.056370459496974945,"464":-0.327505499124527,"465":1.4703173637390137,"466":0.2842229902744293,"467":0.050349146127700806,"468":-0.04278482124209404,"469":-0.01662079431116581,"470":-0.008056409657001495,"471":0.3208499252796173,"472":-0.16325518488883972,"473":-0.4057864248752594,"474":0.10350938141345978,"475":-0.15033410489559174,"476":-0.011557449586689472,"477":0.3995486795902252,"478":-0.058686159551143646,"479":-0.3157438039779663,"480":0.1630813628435135,"481":0.028121061623096466,"482":0.5473396182060242,"483":0.9233460426330566,"484":0.042603518813848495,"485":0.21649539470672607,"486":-0.3892325162887573,"487":-0.04241820052266121,"488":0.5391324162483215,"489":-0.4649677574634552,"490":-0.07424967736005783,"491":0.7663723826408386,"492":0.10226158797740936,"493":-0.0018613829743117094,"494":-0.0408305786550045,"495":0.048535145819187164,"496":-0.028149835765361786,"497":-1.2154992818832397,"498":-0.005215998273342848,"499":0.2370588630437851,"500":0.39908313751220703,"501":0.7079472541809082,"502":-0.053658377379179,"503":0.29051828384399414,"504":0.8389890193939209,"505":-0.6769561767578125,"506":-0.3079364597797394,"507":-0.23170651495456696,"508":0.6863922476768494,"509":-0.18056438863277435,"510":0.8133615255355835,"511":0.10529483109712601,"512":0.7685657143592834,"513":0.45656612515449524,"514":0.2176785171031952,"515":1.3202440738677979,"516":-0.2690296769142151,"517":-0.8868459463119507,"518":-0.8726431727409363,"519":-3.5340042114257812,"520":-0.8433027267456055,"521":-0.28743767738342285,"522":0.3936837911605835,"523":0.30509600043296814,"524":-0.2634088695049286,"525":0.8192305564880371,"526":-0.8968557715415955,"527":-0.2601582705974579,"528":-0.885150671005249,"529":0.25491806864738464,"530":-0.21930234134197235,"531":-0.8054421544075012,"532":-0.14811623096466064,"533":-0.22190095484256744,"534":0.45821505784988403,"535":0.0003244447580073029,"536":0.3382285237312317,"537":-0.8760197162628174,"538":-0.06049474701285362,"539":-0.8935250043869019,"540":0.5041186809539795,"541":0.020280886441469193,"542":-0.7465149164199829,"543":0.28906020522117615,"544":0.40423062443733215,"545":0.3193323314189911,"546":-0.4086115062236786,"547":-0.02453235723078251,"548":0.6122070550918579,"549":-0.36014431715011597,"550":-0.054885510355234146,"551":0.09292329102754593,"552":0.6748434901237488,"553":0.9691199064254761,"554":0.06826406717300415,"555":-0.2521235942840576,"556":0.5052538514137268,"557":-1.0291894674301147,"558":0.050166428089141846,"559":0.6241692900657654,"560":0.07505007833242416,"561":-0.24464911222457886,"562":0.2305270880460739,"563":-0.07461953908205032,"564":-0.4576959013938904,"565":0.9273595213890076,"566":0.5140305757522583,"567":-0.0459025539457798,"568":-1.16925048828125,"569":-1.5861625671386719,"570":-1.099021077156067,"571":0.17998935282230377,"572":0.15740855038166046,"573":-0.2323947548866272,"574":0.2876296043395996,"575":0.07681090384721756,"576":-0.2639201283454895,"577":0.5319072008132935,"578":-0.3063386082649231,"579":-0.518970251083374,"580":0.4697243273258209,"581":-0.006205331068485975,"582":0.552373468875885,"583":0.6537326574325562,"584":-0.12798279523849487,"585":0.6416159868240356,"586":-0.254989355802536,"587":-1.0705317258834839,"588":0.7103911638259888,"589":-0.14163152873516083,"590":0.06485385447740555,"591":0.7053405046463013,"592":-0.17990687489509583,"593":0.2673864960670471,"594":-0.1280411332845688,"595":-0.15246668457984924,"596":0.07290670275688171,"597":-0.70857173204422,"598":-0.07180547714233398,"599":0.23166289925575256,"600":0.7071369290351868,"601":0.8176782727241516,"602":1.6094214916229248,"603":-0.15484268963336945,"604":0.9605002403259277,"605":-0.17463621497154236,"606":0.29860180616378784,"607":-0.013474375940859318,"608":0.9263002872467041,"609":2.31756854057312,"610":2.603074073791504,"611":18.960861206054688,"612":-4.240134239196777,"613":0.9236907958984375,"614":-0.26309478282928467,"615":1.8949097394943237,"616":0.22312791645526886,"617":0.5098210573196411,"618":-1.8722015619277954,"619":-1.3852505683898926,"620":-1.420737862586975,"621":2.072842836380005,"622":1.1304153203964233,"623":-1.9729763269424438,"624":-1.7184187173843384,"625":0.5519906282424927,"626":9.812528610229492,"627":0.2089264690876007,"628":-2.6047203540802,"629":-0.5315107703208923,"630":0.3558007776737213,"631":-0.9994562268257141,"632":1.1541004180908203,"633":0.2294091284275055,"634":0.9593382477760315,"635":0.49706923961639404,"636":-0.5009472966194153,"637":-1.025233268737793,"638":0.2735064625740051,"639":0.9859196543693542,"640":-1.7107776403427124,"641":0.18604116141796112,"642":1.1207631826400757,"643":2.064840316772461,"644":-2.8023338317871094,"645":0.9255757331848145,"646":-1.757439136505127,"647":-0.30501994490623474,"648":-2.9351930618286133,"649":0.1260954588651657,"650":0.3589431345462799,"651":0.33873504400253296,"652":-0.25269773602485657,"653":-0.3593728244304657,"654":-0.20835444331169128,"655":-0.31014060974121094,"656":-0.26392123103141785,"657":-0.07914330810308456,"658":0.2663063406944275,"659":-0.251115083694458,"660":0.21845513582229614,"661":-0.12922291457653046,"662":0.36985617876052856,"663":0.2633533179759979,"664":0.3854456841945648,"665":0.15435923635959625,"666":-0.2509130835533142,"667":-0.2886597216129303,"668":0.003127631964161992,"669":0.19188658893108368,"670":-0.16543637216091156,"671":-0.09635033458471298,"672":-0.3085048198699951,"673":0.29531216621398926,"674":-0.31364837288856506,"675":0.3227665424346924,"676":-0.08349420875310898,"677":-0.2796896696090698,"678":-0.20958326756954193,"679":0.38591325283050537,"680":-0.3587197959423065,"681":-0.3241507112979889,"682":-0.32915663719177246,"683":-0.22995135188102722,"684":0.2990649938583374,"685":-0.3355806767940521,"686":0.001788645633496344,"687":0.062339846044778824,"688":-0.33858323097229004,"689":0.26988422870635986,"690":0.2452383041381836,"691":-0.14936695992946625,"692":-0.23255221545696259,"693":0.3630921542644501,"694":0.37877926230430603,"695":0.3747653663158417,"696":-0.3170534670352936,"697":-0.1926729381084442,"698":0.3252270221710205,"699":0.11215799301862717,"700":0.0994708389043808,"701":-0.12031447887420654,"702":0.45159000158309937,"703":0.5152515172958374,"704":0.01897173374891281,"705":0.10913620889186859,"706":0.19060613214969635,"707":-0.7962327003479004,"708":0.025546079501509666,"709":0.7591979503631592,"710":-0.0885486975312233,"711":-0.34369975328445435,"712":-0.08016586303710938,"713":0.11505889147520065,"714":-0.4045338034629822,"715":1.1310839653015137,"716":0.41131824254989624,"717":0.10526599735021591,"718":-0.22713734209537506,"719":-0.26695939898490906,"720":-0.15952558815479279,"721":0.6706843376159668,"722":0.18758903443813324,"723":-0.33933886885643005,"724":0.04665278270840645,"725":-0.12317124754190445,"726":-0.0037488320376724005,"727":0.3346632719039917,"728":-0.12263963371515274,"729":-0.3865317702293396,"730":0.15225516259670258,"731":-0.07672124356031418,"732":0.18723347783088684,"733":0.8163002133369446,"734":0.03670194745063782,"735":0.10349772870540619,"736":-0.34772947430610657,"737":-0.11394452303647995,"738":0.6883803009986877,"739":-0.5930827260017395,"740":-0.0316697359085083,"741":0.3717202842235565,"742":0.018417013809084892,"743":0.09120113402605057,"744":0.08669000118970871,"745":0.15884184837341309,"746":-0.15979087352752686,"747":-0.5741825699806213,"748":0.10818344354629517,"749":0.3834652006626129,"750":-0.21456538140773773,"751":-0.11160701513290405,"752":0.42638370394706726,"753":0.5255816578865051,"754":0.0636034831404686,"755":0.02570038102567196,"756":0.32629257440567017,"757":-0.6678497195243835,"758":-0.10220436006784439,"759":0.5261992812156677,"760":-0.038489311933517456,"761":-1.2364665269851685,"762":-0.00887143425643444,"763":-0.11617472022771835,"764":-0.5021237134933472,"765":0.462576687335968,"766":0.5025789737701416,"767":0.0047727893106639385,"768":-0.6528180241584778,"769":-1.3064473867416382,"770":-0.1723547875881195,"771":0.5725565552711487,"772":0.03590233251452446,"773":-1.2707191705703735,"774":0.23267650604248047,"775":0.07772089540958405,"776":-0.1156795471906662,"777":0.4470895230770111,"778":-0.1807015985250473,"779":-0.4421982169151306,"780":0.32295021414756775,"781":0.05599735304713249,"782":0.4939538836479187,"783":0.45555853843688965,"784":-0.13604043424129486,"785":0.5298839211463928,"786":-0.7384360432624817,"787":-0.33713027834892273,"788":0.4365845024585724,"789":-0.15480782091617584,"790":-0.18588422238826752,"791":0.48821762204170227,"792":-0.02638350985944271,"793":0.07384154945611954,"794":-0.2192903459072113,"795":-0.12313036620616913,"796":0.18729977309703827,"797":-0.6060747504234314,"798":-0.09641961753368378,"799":0.36365869641304016,"800":0.0779418870806694,"801":0.019023295491933823,"802":0.24481262266635895,"803":1.5926162004470825,"804":-0.11561658978462219,"805":0.13006427884101868,"806":0.1542772799730301,"807":-0.9234491586685181,"808":0.09013457596302032,"809":0.3130347430706024,"810":-0.07149221003055573,"811":-0.6227951645851135,"812":-0.01446758583188057,"813":0.01691005751490593,"814":-0.1502753347158432,"815":1.1416068077087402,"816":0.5144304037094116,"817":0.12468337267637253,"818":0.21914643049240112,"819":-0.5598472356796265,"820":0.23201528191566467,"821":1.229985237121582,"822":0.025234634056687355,"823":-3.6479909420013428,"824":0.018737642094492912,"825":-0.20024937391281128,"826":0.13719680905342102,"827":0.3917834758758545,"828":0.2215244472026825,"829":-0.11796388030052185,"830":0.13362888991832733,"831":-0.07783141732215881,"832":0.1828709840774536,"833":0.5170265436172485,"834":0.05559121072292328,"835":0.22196872532367706,"836":-1.0176846981048584,"837":0.17701181769371033,"838":0.380600243806839,"839":-0.23481962084770203,"840":0.06356621533632278,"841":0.554213285446167,"842":0.03392387554049492,"843":-0.20215673744678497,"844":0.08767975121736526,"845":0.01115653570741415,"846":-0.13907937705516815,"847":-0.592444658279419,"848":0.040749479085206985,"849":0.22192172706127167,"850":0.7120581865310669,"851":0.8236031532287598,"852":0.062252383679151535,"853":-0.34389805793762207,"854":0.9869430661201477,"855":-0.41917306184768677,"856":1.0762068033218384,"857":0.6864818334579468,"858":0.7211408019065857,"859":0.05000849440693855,"860":0.3006684482097626,"861":-6.65526008605957,"862":0.19050398468971252,"863":0.4171628952026367,"864":-0.0467049740254879,"865":3.5618784427642822,"866":0.04538491368293762,"867":-3.9754319190979004,"868":-0.4976646602153778,"869":-0.7798730731010437,"870":-0.7762468457221985,"871":-0.9615635275840759,"872":1.5091743469238281,"873":3.61368727684021,"874":-0.49902939796447754,"875":0.6671044826507568,"876":3.2935516834259033,"877":0.08911627531051636,"878":-1.6383883953094482,"879":0.23083871603012085,"880":0.39166978001594543,"881":-0.885020911693573,"882":0.02376524545252323,"883":-0.16281674802303314,"884":0.5416540503501892,"885":-2.833834648132324,"886":-0.010196966119110584,"887":-0.527061939239502,"888":-0.28584885597229004,"889":-0.09891337156295776,"890":0.35155314207077026,"891":-0.313005656003952,"892":-6.0509185791015625,"893":3.0747082233428955,"894":-2.6333420276641846,"895":0.5915365219116211,"896":-10.930325508117676,"897":0.22947657108306885,"898":0.9205811023712158,"899":-0.7480700016021729,"900":0.27136507630348206,"901":0.2512858211994171,"902":-0.3716007471084595,"903":-0.2729874849319458,"904":-0.16089792549610138,"905":-0.30597302317619324,"906":-0.3445475399494171,"907":0.1491248607635498,"908":0.24002809822559357,"909":-0.21688152849674225,"910":0.33009445667266846,"911":0.18391461670398712,"912":0.31120872497558594,"913":0.3493468165397644,"914":0.31630587577819824,"915":-0.012138708494603634,"916":-0.23671577870845795,"917":0.21288661658763885,"918":0.022746248170733452,"919":0.08743500709533691,"920":-0.04029270261526108,"921":0.03685126453638077,"922":-0.2545663118362427,"923":0.002326909452676773,"924":-0.2922216057777405,"925":0.23589345812797546,"926":-0.19003458321094513,"927":-0.2632172107696533,"928":-0.24281607568264008,"929":0.3142072856426239,"930":-0.2602095603942871,"931":-0.24469487369060516,"932":-0.2692442238330841,"933":-0.3692053556442261,"934":0.3464818596839905,"935":-0.27190837264060974,"936":0.10786671191453934,"937":0.059763506054878235,"938":-0.27869465947151184,"939":-0.041906461119651794,"940":0.21320827305316925,"941":-0.28158819675445557,"942":-0.29884812235832214,"943":0.21663406491279602,"944":0.3242536187171936,"945":0.3631258010864258,"946":-0.24543903768062592,"947":-0.10913342237472534,"948":0.3200490474700928,"949":-0.08274930715560913,"950":0.12430617213249207,"951":0.13735069334506989,"952":-0.13715338706970215,"953":2.116443395614624,"954":0.05611317977309227,"955":-0.6380407810211182,"956":0.8154714107513428,"957":-0.6501516699790955,"958":0.17268069088459015,"959":0.17834822833538055,"960":0.06558742374181747,"961":-0.663070797920227,"962":0.1861361265182495,"963":0.09295818209648132,"964":-0.8386827111244202,"965":1.819617509841919,"966":0.913684606552124,"967":-0.02090544067323208,"968":-0.06624837964773178,"969":-1.1342511177062988,"970":-0.7132197618484497,"971":0.23830100893974304,"972":0.12721140682697296,"973":-0.3790186941623688,"974":0.2992333471775055,"975":0.6142705678939819,"976":-0.08161886781454086,"977":1.0311671495437622,"978":-0.13723111152648926,"979":-0.9390061497688293,"980":0.3990054726600647,"981":-0.007179827895015478,"982":1.3883203268051147,"983":0.8542332649230957,"984":0.02203613705933094,"985":0.41906026005744934,"986":-0.2500151991844177,"987":-0.46040141582489014,"988":1.7820461988449097,"989":-0.6388489603996277,"990":0.04535018652677536,"991":1.259588599205017,"992":-0.12604698538780212,"993":0.13444478809833527,"994":0.10107269138097763,"995":0.14276352524757385,"996":-0.6820037961006165,"997":-1.8565694093704224,"998":0.10619769245386124,"999":0.33742082118988037,"1000":0.4306325912475586,"1001":0.5053167343139648,"1002":-0.1329076737165451,"1003":-1.6521437168121338,"1004":0.3294062316417694,"1005":-0.27968961000442505,"1006":-0.4023420214653015,"1007":-1.8152860403060913,"1008":0.33698606491088867,"1009":-0.11647778749465942,"1010":-0.1803320050239563,"1011":-5.251038551330566,"1012":-0.31151601672172546,"1013":-0.6601150035858154,"1014":0.4529998004436493,"1015":0.041585445404052734,"1016":-0.3714393079280853,"1017":-1.249757170677185,"1018":0.069377101957798,"1019":-1.9926177263259888,"1020":-0.44736573100090027,"1021":-1.7606875896453857,"1022":0.6022909283638,"1023":0.41979843378067017,"1024":-0.4722130000591278,"1025":0.5132266283035278,"1026":-0.19616974890232086,"1027":-0.3556956648826599,"1028":-5.388002395629883,"1029":0.08855710923671722,"1030":-1.1830593347549438,"1031":-0.5559954643249512,"1032":-1.0699573755264282,"1033":-0.5460531115531921,"1034":0.37380027770996094,"1035":-0.6044757962226868,"1036":0.26441067457199097,"1037":-0.48914000391960144,"1038":-0.6523783802986145,"1039":2.4103567600250244,"1040":-0.058254580944776535,"1041":-0.30663758516311646,"1042":4.921871662139893,"1043":-0.3055163621902466,"1044":-1.250214695930481,"1045":0.38959699869155884,"1046":4.072635650634766,"1047":0.186851367354393,"1048":0.03853905573487282,"1049":-0.25358718633651733,"1050":0.1656702309846878,"1051":0.7781464457511902,"1052":1.3761101961135864,"1053":2.248476028442383,"1054":1.2367860078811646,"1055":-0.19866639375686646,"1056":1.5763356685638428,"1057":-0.48850467801094055,"1058":0.786872148513794,"1059":0.7567902207374573,"1060":-0.007029436528682709,"1061":-24.742584228515625,"1062":1.5089446306228638,"1063":0.667362630367279,"1064":-1.3403491973876953,"1065":0.06256836652755737,"1066":1.4268139600753784,"1067":8.464887619018555,"1068":-2.461554765701294,"1069":-0.43466436862945557,"1070":-0.7481235265731812,"1071":8.605973243713379,"1072":4.849484920501709,"1073":-1.7262648344039917,"1074":0.07812081277370453,"1075":0.29310616850852966,"1076":-1.8629398345947266,"1077":1.3766356706619263,"1078":1.4621801376342773,"1079":-1.2998135089874268,"1080":1.5793958902359009,"1081":-0.6937483549118042,"1082":0.33521488308906555,"1083":1.0748666524887085,"1084":0.7779337763786316,"1085":3.746840476989746,"1086":-0.04597439989447594,"1087":-0.8388049602508545,"1088":1.480133056640625,"1089":-1.3149911165237427,"1090":0.6086826324462891,"1091":1.3552443981170654,"1092":4.286996841430664,"1093":-1.8416845798492432,"1094":-2.089195728302002,"1095":0.6853916049003601,"1096":10.36014461517334,"1097":-0.12141752988100052,"1098":-2.0574355125427246,"1099":0.5503989458084106,"1100":0.3729168474674225,"1101":0.47787800431251526,"1102":-0.5415078997612,"1103":1.9121018648147583,"1104":0.6972432136535645,"1105":1.1564199924468994,"1106":2.100637674331665,"1107":-1.0854357481002808,"1108":0.4442613124847412,"1109":-0.24434269964694977,"1110":2.9587106704711914,"1111":-4.2263312339782715,"1112":1.547540307044983,"1113":0.11440836638212204,"1114":0.2733999788761139,"1115":0.797480046749115,"1116":0.41234880685806274,"1117":-6.614777565002441,"1118":-0.1039147675037384,"1119":0.13847193121910095,"1120":-1.3162345886230469,"1121":-1.1580983400344849,"1122":0.18517793715000153,"1123":-6.026451587677002,"1124":-1.9613264799118042,"1125":0.3352357745170593,"1126":-0.676321268081665,"1127":-0.3046274781227112,"1128":9.186147689819336,"1129":0.029888691380620003,"1130":-1.6113555431365967,"1131":-0.33644434809684753,"1132":1.4535658359527588,"1133":-2.9531092643737793,"1134":0.3522976040840149,"1135":6.360771656036377,"1136":0.2678144574165344,"1137":-1.0681103467941284,"1138":-0.2912144362926483,"1139":-0.289336234331131,"1140":-7.101389408111572,"1141":-0.09800849109888077,"1142":-9.885056495666504,"1143":1.8086891174316406,"1144":6.512818336486816,"1145":0.2750457525253296,"1146":-11.695858001708984,"1147":0.03591831773519516,"1148":-4.34158992767334,"1149":-0.21889440715312958,"1150":0.7866114974021912,"1151":0.8332923650741577,"1152":1.4748759269714355,"1153":1.4100489616394043,"1154":1.1209332942962646,"1155":-2.680145263671875,"1156":1.434633493423462,"1157":-1.974779725074768,"1158":1.0830538272857666,"1159":1.5567351579666138,"1160":2.5530123710632324,"1161":11.04954719543457,"1162":4.711604118347168,"1163":0.823874294757843,"1164":-1.3625725507736206,"1165":1.678168535232544,"1166":1.4508241415023804,"1167":-4.245179176330566,"1168":-3.3270230293273926,"1169":-1.8916661739349365,"1170":-1.925634741783142,"1171":5.533400535583496,"1172":4.252500057220459,"1173":-5.607449054718018,"1174":1.704975962638855,"1175":0.2904603183269501,"1176":2.367696762084961,"1177":1.3154950141906738,"1178":1.7051143646240234,"1179":-1.848741054534912,"1180":-0.5804864764213562,"1181":-0.9710057973861694,"1182":0.6183777451515198,"1183":0.21639351546764374,"1184":0.5226703882217407,"1185":2.7934210300445557,"1186":-0.1951291859149933,"1187":-1.5594730377197266,"1188":1.4918708801269531,"1189":-2.02506422996521,"1190":-1.4634402990341187,"1191":1.7339191436767578,"1192":1.1988340616226196,"1193":0.0415264368057251,"1194":-0.14198976755142212,"1195":0.6665067672729492,"1196":-11.797436714172363,"1197":-0.17174623906612396,"1198":-2.2739086151123047,"1199":0.4782436192035675,"1200":-0.3571060299873352,"1201":0.45892322063446045,"1202":0.9822660088539124,"1203":0.5472225546836853,"1204":1.035321593284607,"1205":1.7101387977600098,"1206":2.602992296218872,"1207":-0.2906240224838257,"1208":0.44371944665908813,"1209":1.1103332042694092,"1210":-2.620424747467041,"1211":4.046645164489746,"1212":1.3686379194259644,"1213":0.38039305806159973,"1214":-1.0423603057861328,"1215":0.6366295218467712,"1216":1.0492655038833618,"1217":1.580316424369812,"1218":-1.1572335958480835,"1219":-0.7151269316673279,"1220":-0.3521479070186615,"1221":0.4587824046611786,"1222":0.4824366569519043,"1223":-0.2826389968395233,"1224":-0.5920891165733337,"1225":0.3179020583629608,"1226":2.491252899169922,"1227":1.0357768535614014,"1228":-0.11832836270332336,"1229":-0.37116140127182007,"1230":0.829697847366333,"1231":-0.6402695775032043,"1232":2.986154079437256,"1233":-0.1932632178068161,"1234":0.40356218814849854,"1235":0.8251215815544128,"1236":-0.7759550213813782,"1237":0.02945394441485405,"1238":0.05005430430173874,"1239":-0.0069200159050524235,"1240":-1.020235300064087,"1241":1.0579710006713867,"1242":-6.288193225860596,"1243":-2.3375420570373535,"1244":0.39760905504226685,"1245":0.46987783908843994,"1246":2.843108892440796,"1247":-0.9970793724060059,"1248":1.3267650604248047,"1249":-0.9169840812683105,"1250":0.38544365763664246,"1251":0.1694779098033905,"1252":-0.670326828956604,"1253":0.22357481718063354,"1254":0.24661214649677277,"1255":-2.1525495052337646,"1256":-0.7496045827865601,"1257":0.22795480489730835,"1258":0.0014119718689471483,"1259":-0.635873019695282,"1260":2.8531742095947266,"1261":-1.6785173416137695,"1262":-1.3392233848571777,"1263":0.011851709336042404,"1264":0.638145387172699,"1265":1.1705191135406494,"1266":-0.7062640190124512,"1267":1.4457383155822754,"1268":-0.9641101360321045,"1269":-0.6738004684448242,"1270":-1.0516345500946045,"1271":-0.6492810845375061,"1272":1.2806284427642822,"1273":-0.40863755345344543,"1274":-0.6489428281784058,"1275":-0.3969128429889679,"1276":-2.4011917114257812,"1277":-0.6265835762023926,"1278":-1.8310716152191162,"1279":0.0025626523420214653,"1280":0.36660781502723694,"1281":-0.04908054694533348,"1282":0.15408429503440857,"1283":-0.09926837682723999,"1284":-0.1300932765007019,"1285":0.41435354948043823,"1286":0.6137642860412598,"1287":-0.611494243144989,"1288":-0.7371801137924194,"1289":-3.1881933212280273,"1290":0.6184406280517578,"1291":-0.6617122888565063,"1292":4.813331127166748,"1293":3.850612163543701,"1294":-5.461987018585205,"1295":-0.09737947583198547,"1296":0.25071921944618225,"1297":1.207163691520691,"1298":-0.24869249761104584,"1299":0.33299973607063293,"1300":0.4072185158729553,"1301":-0.281287282705307,"1302":-0.9212825894355774,"1303":-1.2464206218719482,"1304":-0.15730935335159302,"1305":-0.12675195932388306,"1306":-0.8802517056465149,"1307":0.614197850227356,"1308":-0.29123377799987793,"1309":-0.9670544266700745,"1310":-2.7388432025909424,"1311":6.509024143218994,"1312":1.68185555934906,"1313":-0.2574228346347809,"1314":1.0278514623641968,"1315":-0.5939924120903015,"1316":-0.8772448301315308,"1317":0.07034612447023392,"1318":-0.4722597599029541,"1319":-0.23249943554401398,"1320":-0.09419313073158264,"1321":-0.4645874500274658,"1322":0.8404958248138428,"1323":0.13235653936862946,"1324":0.26953980326652527,"1325":-0.17034076154232025,"1326":0.2085409313440323,"1327":-0.8877980709075928,"1328":-1.323883056640625,"1329":-0.37435203790664673,"1330":-1.0053589344024658,"1331":0.22468630969524384,"1332":-1.851667046546936,"1333":-0.8328514099121094,"1334":-0.3351919651031494,"1335":1.4876590967178345,"1336":0.8815966248512268,"1337":-0.8131606578826904,"1338":-0.6455756425857544,"1339":-0.0743488296866417,"1340":-0.10285019129514694,"1341":-0.8134350776672363,"1342":-1.6280772686004639,"1343":3.393480062484741,"1344":0.5831167697906494,"1345":-0.2881365120410919,"1346":-2.2884793281555176,"1347":0.8952219486236572,"1348":0.3372949957847595,"1349":0.42102524638175964,"1350":-0.07683780044317245,"1351":-0.24560293555259705,"1352":0.3924890160560608,"1353":1.6801514625549316,"1354":-0.1506565362215042,"1355":0.15065988898277283,"1356":0.24298788607120514,"1357":-1.1922355890274048,"1358":-0.17868638038635254,"1359":0.5786150693893433,"1360":-0.19010338187217712,"1361":-0.3686438500881195,"1362":-0.13572046160697937,"1363":0.060047585517168045,"1364":-0.438297837972641,"1365":2.295867443084717,"1366":0.5408897399902344,"1367":0.195780411362648,"1368":0.11625620722770691,"1369":0.06814083456993103,"1370":0.2040347307920456,"1371":0.47096288204193115,"1372":-0.023840736597776413,"1373":-0.5484578609466553,"1374":0.04301433265209198,"1375":-0.22131186723709106,"1376":0.24621157348155975,"1377":0.4245890974998474,"1378":0.26169902086257935,"1379":-0.32717403769493103,"1380":0.19853132963180542,"1381":0.2445976287126541,"1382":0.4755527079105377,"1383":0.7615418434143066,"1384":0.06572018563747406,"1385":0.7316912412643433,"1386":-0.47165897488594055,"1387":0.21203896403312683,"1388":0.6791263222694397,"1389":-0.6084142327308655,"1390":-0.13172315061092377,"1391":0.7778146862983704,"1392":0.14799781143665314,"1393":-0.18426507711410522,"1394":-0.023564686998724937,"1395":0.04347356781363487,"1396":-0.009364400058984756,"1397":-0.8300155997276306,"1398":-0.23522672057151794,"1399":0.27867618203163147,"1400":0.28185272216796875,"1401":0.4358145594596863,"1402":0.021255837753415108,"1403":1.3080365657806396,"1404":0.14348511397838593,"1405":1.1035562753677368,"1406":-0.6185510158538818,"1407":0.015780635178089142,"1408":0.4795677661895752,"1409":-0.1744321584701538,"1410":1.7929847240447998,"1411":14.544442176818848,"1412":5.810397148132324,"1413":0.4067145884037018,"1414":0.1670495867729187,"1415":0.09545757621526718,"1416":-0.15929915010929108,"1417":-0.6855739951133728,"1418":1.179980754852295,"1419":-0.2488301694393158,"1420":0.17927879095077515,"1421":-0.10206478834152222,"1422":0.7745741009712219,"1423":-2.122274398803711,"1424":0.9251694679260254,"1425":0.2129511684179306,"1426":-6.2800469398498535,"1427":-0.14329981803894043,"1428":-3.477226495742798,"1429":0.02986879274249077,"1430":-1.0650769472122192,"1431":-0.23446166515350342,"1432":-0.40541207790374756,"1433":-0.2331533581018448,"1434":0.4474947452545166,"1435":0.006490001920610666,"1436":0.16757269203662872,"1437":0.11249879747629166,"1438":-0.6258963942527771,"1439":1.06826651096344,"1440":-0.899369478225708,"1441":-0.11686709523200989,"1442":11.272371292114258,"1443":3.872204065322876,"1444":-2.4771878719329834,"1445":0.3617686629295349,"1446":12.986547470092773,"1447":0.20813502371311188,"1448":0.39487895369529724,"1449":0.7522377371788025,"1450":-0.19698670506477356,"1451":-0.13540135324001312,"1452":0.3579786419868469,"1453":0.5176026225090027,"1454":-0.18331925570964813,"1455":0.0952989012002945,"1456":0.31453123688697815,"1457":-1.0201592445373535,"1458":-0.26754188537597656,"1459":0.40446048974990845,"1460":-0.2188546508550644,"1461":-0.3906633257865906,"1462":-0.11613894999027252,"1463":-0.11228036135435104,"1464":-0.32396572828292847,"1465":1.9401355981826782,"1466":0.5921152234077454,"1467":0.25639355182647705,"1468":-0.98534095287323,"1469":0.003061762312427163,"1470":-0.3752284646034241,"1471":0.24119456112384796,"1472":0.6608702540397644,"1473":-0.42161324620246887,"1474":0.08724689483642578,"1475":-0.09156150370836258,"1476":0.022402476519346237,"1477":0.5506809949874878,"1478":-0.120358906686306,"1479":-0.5735072493553162,"1480":0.13228189945220947,"1481":0.22264432907104492,"1482":0.8040760159492493,"1483":0.8783365488052368,"1484":-0.043090544641017914,"1485":0.4512207508087158,"1486":-0.3514629006385803,"1487":-0.20437052845954895,"1488":0.7742162942886353,"1489":-0.4262749254703522,"1490":-0.20923766493797302,"1491":0.7034716606140137,"1492":0.06739504635334015,"1493":0.29108020663261414,"1494":-0.11078401654958725,"1495":-0.012669282034039497,"1496":0.017477281391620636,"1497":-1.3471670150756836,"1498":-0.15525300800800323,"1499":0.28154969215393066,"1500":0.05499666929244995,"1501":0.4409388303756714,"1502":1.084742784500122,"1503":1.4694786071777344,"1504":0.5028320550918579,"1505":-0.6712958216667175,"1506":0.7129585146903992,"1507":-2.61574387550354,"1508":0.4715421795845032,"1509":1.4537221193313599,"1510":1.128391146659851,"1511":6.275697231292725,"1512":3.5052075386047363,"1513":0.4322997033596039,"1514":-0.9617617726325989,"1515":1.157378911972046,"1516":1.028193712234497,"1517":-1.604928731918335,"1518":-0.5656000375747681,"1519":-0.971104621887207,"1520":-1.2166073322296143,"1521":0.6920945644378662,"1522":0.6791058778762817,"1523":-1.6382849216461182,"1524":0.43867167830467224,"1525":0.2959536612033844,"1526":4.540325164794922,"1527":0.8501616716384888,"1528":-1.4207786321640015,"1529":-0.5847294926643372,"1530":3.2796661853790283,"1531":-0.5574813485145569,"1532":1.2445552349090576,"1533":1.7553635835647583,"1534":0.5315105319023132,"1535":-0.017502786591649055,"1536":-0.97127765417099,"1537":-0.1453283727169037,"1538":2.438333034515381,"1539":-2.3910725116729736,"1540":0.3582002818584442,"1541":0.8830513954162598,"1542":5.755980491638184,"1543":3.648071765899658,"1544":0.936558723449707,"1545":0.5811840295791626,"1546":4.941899299621582,"1547":-0.9147670269012451,"1548":0.25093114376068115,"1549":-0.12630847096443176,"1550":0.1443834751844406,"1551":0.5432496070861816,"1552":-0.05857773497700691,"1553":-0.04739910736680031,"1554":0.7595945596694946,"1555":-0.6715222597122192,"1556":0.03641558438539505,"1557":0.027745025232434273,"1558":0.32443514466285706,"1559":-0.14307601749897003,"1560":0.6175753474235535,"1561":0.23241066932678223,"1562":0.6235989332199097,"1563":0.11893460899591446,"1564":0.08702211827039719,"1565":0.33381491899490356,"1566":-0.029391873627901077,"1567":-0.5705172419548035,"1568":-0.8127521276473999,"1569":-1.8208208084106445,"1570":-0.7828665971755981,"1571":-0.08864733576774597,"1572":0.6682232022285461,"1573":0.2296433001756668,"1574":-0.027418270707130432,"1575":0.6148957014083862,"1576":-0.7201629877090454,"1577":0.04585673287510872,"1578":-0.6991901993751526,"1579":0.037484753876924515,"1580":-0.06722313165664673,"1581":-0.4484204947948456,"1582":-0.008066587150096893,"1583":-0.0446227490901947,"1584":0.07884258776903152,"1585":-0.050124071538448334,"1586":0.1982518881559372,"1587":-0.7564346194267273,"1588":-0.05981134623289108,"1589":-0.21204474568367004,"1590":0.432955265045166,"1591":-0.15851105749607086,"1592":-0.5576273798942566,"1593":0.7681664824485779,"1594":0.12552285194396973,"1595":0.13292530179023743,"1596":-0.11471881717443466,"1597":0.12553143501281738,"1598":0.25780606269836426,"1599":-0.26241058111190796,"1600":-0.025201503187417984,"1601":0.16952447593212128,"1602":1.0054709911346436,"1603":2.76633882522583,"1604":0.1998937875032425,"1605":-0.433631032705307,"1606":0.5839380025863647,"1607":-2.4488844871520996,"1608":0.2042788565158844,"1609":0.7824358940124512,"1610":0.23050087690353394,"1611":2.5353469848632812,"1612":0.6133527755737305,"1613":0.33578434586524963,"1614":-0.6276188492774963,"1615":2.98185396194458,"1616":0.7016290426254272,"1617":-0.23856472969055176,"1618":-0.4445668160915375,"1619":-0.5773217082023621,"1620":-0.5753445029258728,"1621":1.2087115049362183,"1622":0.3123883605003357,"1623":-1.6720105409622192,"1624":0.7517611980438232,"1625":0.2766024172306061,"1626":3.579054832458496,"1627":0.7242493629455566,"1628":-0.5304323434829712,"1629":-0.10335713624954224,"1630":1.0864074230194092,"1631":-0.23292188346385956,"1632":3.8351123332977295,"1633":1.1966313123703003,"1634":0.5943986773490906,"1635":1.1048718690872192,"1636":-1.0960297584533691,"1637":-0.08494417369365692,"1638":0.8540209531784058,"1639":-1.7542020082473755,"1640":0.15611708164215088,"1641":1.228736162185669,"1642":5.688817024230957,"1643":0.06886223703622818,"1644":0.269684761762619,"1645":0.31788355112075806,"1646":2.533308744430542,"1647":-1.0783805847167969,"1648":0.34663906693458557,"1649":-0.3268287181854248,"1650":-0.06397952139377594,"1651":0.14295147359371185,"1652":0.5555737614631653,"1653":0.374697208404541,"1654":0.278460294008255,"1655":-0.24225322902202606,"1656":0.32539793848991394,"1657":-0.2607736885547638,"1658":0.07409246265888214,"1659":0.38867422938346863,"1660":0.20329272747039795,"1661":-0.3408048450946808,"1662":0.3791768252849579,"1663":-0.04285072907805443,"1664":-0.4075582027435303,"1665":0.24525313079357147,"1666":0.31140169501304626,"1667":-0.32696807384490967,"1668":-0.6045843958854675,"1669":-0.27648496627807617,"1670":-0.5514829754829407,"1671":0.19605982303619385,"1672":0.9839217066764832,"1673":-0.3275701105594635,"1674":0.19086146354675293,"1675":0.22225283086299896,"1676":-0.4376577138900757,"1677":0.253307968378067,"1678":-0.314868301153183,"1679":-0.3694421052932739,"1680":0.2237909436225891,"1681":-0.1022145077586174,"1682":0.3403642177581787,"1683":0.3516772389411926,"1684":-0.08009140938520432,"1685":0.3095359802246094,"1686":-0.3118226230144501,"1687":-1.2062129974365234,"1688":0.33682021498680115,"1689":0.28820088505744934,"1690":0.14236849546432495,"1691":0.34623271226882935,"1692":-0.27490687370300293,"1693":0.28460970520973206,"1694":-0.07506776601076126,"1695":-0.16739800572395325,"1696":0.1649641990661621,"1697":-0.3798570930957794,"1698":0.052370235323905945,"1699":0.2614111304283142,"1700":0.0925731435418129,"1701":0.42876532673835754,"1702":-0.13090205192565918,"1703":-0.11699815094470978,"1704":0.5599144101142883,"1705":-0.5361973643302917,"1706":-0.0585954412817955,"1707":-0.22346685826778412,"1708":0.427526593208313,"1709":-0.22705702483654022,"1710":0.4602123498916626,"1711":0.3371746838092804,"1712":0.406434029340744,"1713":0.056115929037332535,"1714":-0.016580572351813316,"1715":0.16796348989009857,"1716":-0.03934068977832794,"1717":-0.4953523576259613,"1718":-2.1124138832092285,"1719":-2.288346290588379,"1720":-0.977000892162323,"1721":-0.2553711533546448,"1722":0.5330610275268555,"1723":0.22110335528850555,"1724":-0.044858667999506,"1725":0.41415098309516907,"1726":-0.6577263474464417,"1727":-0.10199010372161865,"1728":-0.8748831152915955,"1729":0.00260914396494627,"1730":-0.07269003242254257,"1731":-0.2940257489681244,"1732":-0.1598055213689804,"1733":-0.13344010710716248,"1734":0.08615211397409439,"1735":-0.06822971999645233,"1736":0.2700667977333069,"1737":-1.442656397819519,"1738":-0.08636549115180969,"1739":0.23412419855594635,"1740":0.3490265905857086,"1741":-0.17471231520175934,"1742":-0.4962359666824341,"1743":0.6672196388244629,"1744":0.08200714737176895,"1745":0.08538980036973953,"1746":-0.11305353045463562,"1747":0.1865997463464737,"1748":0.2348465770483017,"1749":-0.2937844693660736,"1750":-0.21223728358745575,"1751":0.05620656535029411,"1752":0.6899756789207458,"1753":2.5815606117248535,"1754":0.052365366369485855,"1755":-0.16892100870609283,"1756":0.5497280955314636,"1757":-3.471254348754883,"1758":0.14200334250926971,"1759":0.7982791662216187,"1760":0.08598015457391739,"1761":0.6319071650505066,"1762":0.19249089062213898,"1763":0.13400033116340637,"1764":-0.6370798945426941,"1765":5.6195878982543945,"1766":0.6798443794250488,"1767":-0.11150092631578445,"1768":-0.42525461316108704,"1769":-0.6906067728996277,"1770":-0.34795618057250977,"1771":0.7715979218482971,"1772":0.11094287782907486,"1773":-0.8586764931678772,"1774":0.2604953944683075,"1775":0.23986458778381348,"1776":0.560141921043396,"1777":0.6694850325584412,"1778":-0.290363609790802,"1779":-0.25435927510261536,"1780":0.4929000437259674,"1781":-0.07817559689283371,"1782":0.8371221423149109,"1783":0.8148968815803528,"1784":0.026509158313274384,"1785":0.6985819935798645,"1786":-0.824860155582428,"1787":-0.11399298906326294,"1788":0.627824068069458,"1789":-3.2085516452789307,"1790":0.06294965744018555,"1791":0.6862573027610779,"1792":0.5531970262527466,"1793":0.3461330831050873,"1794":0.2064906507730484,"1795":0.0848584771156311,"1796":0.6207876801490784,"1797":-0.7925209999084473,"1798":-0.039265912026166916,"1799":0.09983605146408081,"1800":0.117526575922966,"1801":0.05588024854660034,"1802":0.6319734454154968,"1803":0.6242570281028748,"1804":0.08278389275074005,"1805":0.019873978570103645,"1806":0.6718617677688599,"1807":-0.5096862316131592,"1808":-0.004561860114336014,"1809":0.7494847178459167,"1810":0.06879229098558426,"1811":-0.2421722412109375,"1812":0.12511971592903137,"1813":0.04399155080318451,"1814":-0.6612959504127502,"1815":0.494887113571167,"1816":0.622839093208313,"1817":0.04317036643624306,"1818":0.6124340295791626,"1819":0.4137912094593048,"1820":0.1853560209274292,"1821":0.5872921943664551,"1822":0.040793195366859436,"1823":-0.6964343786239624,"1824":0.28996703028678894,"1825":-0.034539733082056046,"1826":0.15602774918079376,"1827":0.6135674118995667,"1828":-0.0045937723480165005,"1829":-0.730986475944519,"1830":0.7358783483505249,"1831":-0.07327605038881302,"1832":0.6168957352638245,"1833":0.6865542531013489,"1834":0.09651881456375122,"1835":0.7238959670066833,"1836":-0.21693843603134155,"1837":0.3319564163684845,"1838":0.7027924656867981,"1839":-0.5607398748397827,"1840":0.011270898394286633,"1841":0.645388662815094,"1842":-0.033882807940244675,"1843":-0.023428933694958687,"1844":-0.015421845950186253,"1845":0.11473947763442993,"1846":0.6024348139762878,"1847":-0.60698401927948,"1848":-0.26070693135261536,"1849":0.33103927969932556,"1850":0.6165665984153748,"1851":0.10349556058645248,"1852":-0.7052379846572876,"1853":-0.6732944846153259,"1854":0.13784727454185486,"1855":-0.2012912780046463,"1856":-0.7567501664161682,"1857":0.5251368284225464,"1858":0.22361674904823303,"1859":-0.6204160451889038,"1860":0.2059352546930313,"1861":0.09690801799297333,"1862":0.18547269701957703,"1863":0.09818180650472641,"1864":0.835347056388855,"1865":0.5491898655891418,"1866":-0.7258924245834351,"1867":-0.2381437122821808,"1868":-0.1187097579240799,"1869":-0.8208725452423096,"1870":-0.09709596633911133,"1871":-0.628303587436676,"1872":0.1887018382549286,"1873":0.652825653553009,"1874":-0.3068736493587494,"1875":0.17903217673301697,"1876":-0.662857174873352,"1877":-0.7883246541023254,"1878":-0.16904906928539276,"1879":0.7068189978599548,"1880":-0.7433886528015137,"1881":-0.09310732036828995,"1882":-0.6730676293373108,"1883":-0.6301732063293457,"1884":0.12404615432024002,"1885":-0.6628169417381287,"1886":0.7255859971046448,"1887":-0.9841364622116089,"1888":-0.7628875970840454,"1889":0.3959258496761322,"1890":0.18276219069957733,"1891":-0.7322577834129333,"1892":-0.6459597945213318,"1893":0.14911839365959167,"1894":0.17349198460578918,"1895":0.1091509610414505,"1896":-0.806877076625824,"1897":0.5769180059432983,"1898":0.10553494840860367,"1899":-0.7055712342262268,"1900":0.08919591456651688,"1901":0.04770338162779808,"1902":0.6982476711273193,"1903":0.31882622838020325,"1904":0.26367104053497314,"1905":-0.2676231265068054,"1906":0.13774064183235168,"1907":-0.3783190846443176,"1908":0.12673220038414001,"1909":0.6405943632125854,"1910":0.19408176839351654,"1911":-0.3065485656261444,"1912":0.16411378979682922,"1913":0.003994549158960581,"1914":-0.17735180258750916,"1915":0.28468984365463257,"1916":0.2040606588125229,"1917":-0.07350997626781464,"1918":-0.7928555011749268,"1919":-0.5302428007125854,"1920":-0.5729222297668457,"1921":0.24335475265979767,"1922":0.22295695543289185,"1923":-0.28894880414009094,"1924":0.04500523582100868,"1925":0.23140758275985718,"1926":-0.42469486594200134,"1927":0.10905347019433975,"1928":-0.4301014244556427,"1929":-0.12332864105701447,"1930":0.20907866954803467,"1931":-0.12556929886341095,"1932":0.13428327441215515,"1933":0.3125860393047333,"1934":0.09913469851016998,"1935":0.2860215902328491,"1936":-0.30477696657180786,"1937":-0.6618772745132446,"1938":0.42966553568840027,"1939":-0.34411242604255676,"1940":0.03499263525009155,"1941":0.3398090898990631,"1942":-0.24620427191257477,"1943":0.30255597829818726,"1944":0.12808910012245178,"1945":0.09816952049732208,"1946":-0.1368308812379837,"1947":-0.3122000992298126,"1948":0.07715941220521927,"1949":0.284807026386261,"1950":-0.05385429784655571,"1951":-0.2852005362510681,"1952":0.4739152491092682,"1953":0.8436009883880615,"1954":-0.3486391603946686,"1955":-0.36988404393196106,"1956":-0.05295022204518318,"1957":0.0763201117515564,"1958":-0.3515729010105133,"1959":0.48469972610473633,"1960":0.10116833448410034,"1961":4.193047523498535,"1962":-0.38136473298072815,"1963":-1.013808250427246,"1964":-0.30127981305122375,"1965":0.37811627984046936,"1966":0.05015363544225693,"1967":1.0252258777618408,"1968":0.2555355429649353,"1969":-0.20523567497730255,"1970":0.4538666307926178,"1971":0.6380326151847839,"1972":-0.08962425589561462,"1973":-1.0456064939498901,"1974":-0.2751399874687195,"1975":-0.193752720952034,"1976":-1.0133072137832642,"1977":0.14431777596473694,"1978":0.2150832563638687,"1979":-0.8937457203865051,"1980":0.11500847339630127,"1981":0.25735998153686523,"1982":1.8647758960723877,"1983":0.27965879440307617,"1984":-0.16499707102775574,"1985":0.3383121192455292,"1986":0.138864204287529,"1987":0.1864650994539261,"1988":0.019889559596776962,"1989":0.5974761843681335,"1990":-0.4488324522972107,"1991":0.47674334049224854,"1992":4.141854763031006,"1993":1.359006404876709,"1994":0.19346968829631805,"1995":-0.18596510589122772,"1996":1.5294123888015747,"1997":-0.5939924120903015,"1998":-0.33978474140167236,"1999":0.7391563057899475,"2000":0.15115539729595184,"2001":0.6062837243080139,"2002":-0.001416421728208661,"2003":-0.1318841576576233,"2004":0.7348111271858215,"2005":-0.5815503597259521,"2006":0.06264498829841614,"2007":0.05210770666599274,"2008":0.5362933278083801,"2009":-0.06388255208730698,"2010":0.6564708948135376,"2011":0.36524009704589844,"2012":0.43759286403656006,"2013":0.11140675842761993,"2014":0.07073095440864563,"2015":0.05227026715874672,"2016":0.00025436212308704853,"2017":-0.6260495781898499,"2018":-0.7484264373779297,"2019":-1.1638048887252808,"2020":-0.7594612240791321,"2021":0.03890154883265495,"2022":0.6588767766952515,"2023":0.07928254455327988,"2024":-0.09565706551074982,"2025":0.7850272059440613,"2026":-0.5769703984260559,"2027":0.011171507649123669,"2028":-0.6919569373130798,"2029":0.06934257596731186,"2030":0.02002965472638607,"2031":-0.3809302747249603,"2032":-0.006823674775660038,"2033":-0.07635278254747391,"2034":0.21269598603248596,"2035":-0.006545286159962416,"2036":0.13056239485740662,"2037":-0.707368791103363,"2038":-0.09266028553247452,"2039":-0.018590690568089485,"2040":0.46874305605888367,"2041":-0.09487597644329071,"2042":-0.5636146664619446,"2043":0.6751835942268372,"2044":0.08861533552408218,"2045":0.0663716197013855,"2046":-0.08767297118902206,"2047":0.13740026950836182,"2048":0.2789553105831146,"2049":-0.2937961220741272,"2050":0.1016710177063942,"2051":0.005104427691549063,"2052":0.5795474648475647,"2053":0.34976527094841003,"2054":-0.04932595416903496,"2055":0.004945980850607157,"2056":0.24309128522872925,"2057":-0.7204944491386414,"2058":-0.15385238826274872,"2059":0.5154383182525635,"2060":-0.04694368690252304,"2061":-0.26740145683288574,"2062":-0.12099223583936691,"2063":0.12279369682073593,"2064":-0.3698343336582184,"2065":0.6382847428321838,"2066":0.4907554090023041,"2067":0.0962798073887825,"2068":-0.6206206679344177,"2069":-0.35506096482276917,"2070":-0.3235880732536316,"2071":0.2811855673789978,"2072":-0.07761839777231216,"2073":-0.27145156264305115,"2074":0.046209052205085754,"2075":-0.058212462812662125,"2076":-0.07857909798622131,"2077":0.2958720326423645,"2078":-0.02745400182902813,"2079":-0.4162948727607727,"2080":0.24503213167190552,"2081":0.13745450973510742,"2082":0.38337329030036926,"2083":0.7515872120857239,"2084":0.10183848440647125,"2085":0.48993492126464844,"2086":-0.3158097267150879,"2087":-0.42921027541160583,"2088":0.5781504511833191,"2089":-0.5998221635818481,"2090":-0.08997039496898651,"2091":0.5252252817153931,"2092":0.06801421195268631,"2093":0.09725762903690338,"2094":0.1100732758641243,"2095":0.10670150071382523,"2096":-0.028443465009331703,"2097":-0.5269237756729126,"2098":-0.058526791632175446,"2099":0.2862911820411682,"2100":0.26528218388557434,"2101":-0.05334519222378731,"2102":-0.6644476056098938,"2103":-1.2680387496948242,"2104":-0.021721435710787773,"2105":0.06564947962760925,"2106":-0.6175546646118164,"2107":0.5998730063438416,"2108":-0.16028785705566406,"2109":-0.7085627913475037,"2110":0.09495631605386734,"2111":-6.9455132484436035,"2112":0.49037978053092957,"2113":-0.11546092480421066,"2114":0.7440661191940308,"2115":-0.2579987645149231,"2116":-0.8053579330444336,"2117":-0.38350385427474976,"2118":-0.29693758487701416,"2119":-1.7149486541748047,"2120":-0.3519343435764313,"2121":-0.8348614573478699,"2122":-0.14323458075523376,"2123":2.9211478233337402,"2124":3.7728769779205322,"2125":0.14286655187606812,"2126":1.0192378759384155,"2127":-0.7541164755821228,"2128":-0.12113972753286362,"2129":0.6928918361663818,"2130":-0.2638920545578003,"2131":0.10528173297643661,"2132":-0.9767290353775024,"2133":-0.8898712396621704,"2134":0.07492318004369736,"2135":-0.3819310665130615,"2136":0.8495591282844543,"2137":-0.717543363571167,"2138":-0.7227388024330139,"2139":-0.5407878756523132,"2140":1.8336671590805054,"2141":-0.7082024216651917,"2142":-0.42250099778175354,"2143":1.5586646795272827,"2144":-0.6827895045280457,"2145":-0.2102566510438919,"2146":-2.7066802978515625,"2147":0.576682984828949,"2148":2.214658737182617,"2149":0.08410556614398956,"2150":-0.12342333048582077,"2151":-0.4739344120025635,"2152":0.3898352086544037,"2153":-0.19996009767055511,"2154":-0.3545230031013489,"2155":1.4157518148422241,"2156":0.9235888719558716,"2157":-0.38106995820999146,"2158":-0.5353845357894897,"2159":0.9862650632858276,"2160":-0.8851548433303833,"2161":-5.089313507080078,"2162":-0.9566566944122314,"2163":-0.46321171522140503,"2164":-0.8205334544181824,"2165":0.15981097519397736,"2166":0.9449861645698547,"2167":0.6079500317573547,"2168":-0.07778749614953995,"2169":-0.28244590759277344,"2170":0.47464388608932495,"2171":-0.4386405944824219,"2172":-0.29212433099746704,"2173":1.471974492073059,"2174":-1.053450107574463,"2175":-0.3955780267715454,"2176":-8.137003898620605,"2177":0.7395910024642944,"2178":-0.021693579852581024,"2179":-1.49733567237854,"2180":-0.0382598452270031,"2181":0.43173396587371826,"2182":-1.2167125940322876,"2183":1.0074399709701538,"2184":-0.5682209730148315,"2185":0.3990541398525238,"2186":0.34369879961013794,"2187":0.16544649004936218,"2188":0.8115172982215881,"2189":1.145383358001709,"2190":0.8745497465133667,"2191":-0.03266431391239166,"2192":-8.96739387512207,"2193":-2.1288297176361084,"2194":0.35301473736763,"2195":-0.4434853792190552,"2196":-7.95914888381958,"2197":-0.07325057685375214,"2198":0.14515802264213562,"2199":0.8582621812820435,"2200":0.5249612927436829,"2201":0.8805415630340576,"2202":0.49987006187438965,"2203":-0.2501663863658905,"2204":0.7125758528709412,"2205":-0.4898532032966614,"2206":-0.23835471272468567,"2207":0.17883212864398956,"2208":0.6296746730804443,"2209":0.3759309947490692,"2210":0.5960767269134521,"2211":-6.660341739654541,"2212":4.0228118896484375,"2213":0.6197757720947266,"2214":-0.11325859278440475,"2215":0.15542325377464294,"2216":0.0989254042506218,"2217":-0.9626827836036682,"2218":-0.5246396660804749,"2219":-0.8446833491325378,"2220":-0.7798941731452942,"2221":-1.1882418394088745,"2222":0.9471332430839539,"2223":-0.7805771231651306,"2224":-1.7388960123062134,"2225":0.7098166346549988,"2226":-2.3526346683502197,"2227":0.08096857368946075,"2228":-0.13883087038993835,"2229":-0.5609276294708252,"2230":0.37801411747932434,"2231":-0.8850215673446655,"2232":0.28985923528671265,"2233":1.374852180480957,"2234":0.8391916751861572,"2235":0.49486133456230164,"2236":-0.1744184046983719,"2237":-0.114560566842556,"2238":-3.6349875926971436,"2239":-0.6160604953765869,"2240":-3.48503041267395,"2241":-0.447610080242157,"2242":1.380504846572876,"2243":2.0237202644348145,"2244":3.6256515979766846,"2245":0.6850887537002563,"2246":-9.394966125488281,"2247":0.6611994504928589,"2248":-2.4668025970458984,"2249":-0.6963148713111877,"2250":0.011464230716228485,"2251":0.2189851999282837,"2252":0.027181262150406837,"2253":-0.10908056795597076,"2254":0.5945805907249451,"2255":-0.4726118743419647,"2256":-0.05708134174346924,"2257":-0.10351604223251343,"2258":0.28806135058403015,"2259":0.047252852469682693,"2260":0.3441178798675537,"2261":0.22220784425735474,"2262":0.27805444598197937,"2263":0.07622605562210083,"2264":-0.04975451901555061,"2265":0.25768351554870605,"2266":0.022743290290236473,"2267":-0.46281003952026367,"2268":-0.8091754913330078,"2269":-2.336005210876465,"2270":-0.7203009128570557,"2271":0.112220399081707,"2272":0.7660113573074341,"2273":0.1566011607646942,"2274":-0.03560018166899681,"2275":0.5281033515930176,"2276":-0.5790833830833435,"2277":-0.059628743678331375,"2278":-0.7493695020675659,"2279":-0.005640833172947168,"2280":-0.046650130301713943,"2281":-0.20974332094192505,"2282":0.03618917614221573,"2283":-0.019519245252013206,"2284":-0.018934516236186028,"2285":0.004027484450489283,"2286":0.13405314087867737,"2287":-0.7292883396148682,"2288":0.0018229358829557896,"2289":0.06384650617837906,"2290":0.28999340534210205,"2291":0.060247574001550674,"2292":-0.31377723813056946,"2293":0.6172579526901245,"2294":0.08423551172018051,"2295":0.043917618691921234,"2296":-0.04392948001623154,"2297":-0.0483931228518486,"2298":0.08721476048231125,"2299":-0.31296753883361816,"2300":0.30544012784957886,"2301":0.45150646567344666,"2302":0.11467334628105164,"2303":2.8666627407073975,"2304":0.5400506258010864,"2305":-0.6276989579200745,"2306":0.1634940207004547,"2307":0.06720029562711716,"2308":0.37141165137290955,"2309":-0.018955834209918976,"2310":0.49496695399284363,"2311":-7.925581455230713,"2312":-0.7599176168441772,"2313":0.2081734538078308,"2314":-0.05609199404716492,"2315":0.2763117551803589,"2316":0.1545119732618332,"2317":-0.016060542315244675,"2318":-1.043852686882019,"2319":-2.004348039627075,"2320":-1.143228530883789,"2321":-0.12864257395267487,"2322":0.6364508271217346,"2323":-0.3342426121234894,"2324":-0.38949453830718994,"2325":0.5001575946807861,"2326":-2.368631362915039,"2327":0.06236569210886955,"2328":-0.9633503556251526,"2329":-0.018861591815948486,"2330":0.03177791088819504,"2331":-0.44116753339767456,"2332":1.2893481254577637,"2333":0.03140418604016304,"2334":0.25599896907806396,"2335":0.27219948172569275,"2336":-0.13685204088687897,"2337":-1.0627994537353516,"2338":0.19889004528522491,"2339":-0.3469848036766052,"2340":0.5122045278549194,"2341":-0.05699930712580681,"2342":-2.8937745094299316,"2343":0.8213230967521667,"2344":0.18885280191898346,"2345":0.17492513358592987,"2346":12.51513957977295,"2347":0.28836315870285034,"2348":0.3027440309524536,"2349":0.04894382506608963,"2350":0.03617238253355026,"2351":-0.1216864287853241,"2352":0.2655656337738037,"2353":2.289703369140625,"2354":-0.08158863335847855,"2355":0.12662331759929657,"2356":0.09126250445842743,"2357":-1.142799973487854,"2358":-0.21586832404136658,"2359":0.40087053179740906,"2360":-0.22384624183177948,"2361":-0.8639770746231079,"2362":-0.14381328225135803,"2363":-0.028730548918247223,"2364":-0.17427663505077362,"2365":1.7876982688903809,"2366":0.26439279317855835,"2367":0.08403227478265762,"2368":-0.3936673402786255,"2369":-0.16172057390213013,"2370":-0.023803915828466415,"2371":2.3189470767974854,"2372":-0.1787678301334381,"2373":-1.5452946424484253,"2374":0.0935872495174408,"2375":-0.09676803648471832,"2376":0.047500647604465485,"2377":0.32226312160491943,"2378":-0.0008859737426973879,"2379":-0.1877703219652176,"2380":0.12145895510911942,"2381":0.1573331207036972,"2382":0.3973216116428375,"2383":0.6264200806617737,"2384":0.01841466873884201,"2385":0.416811466217041,"2386":-0.800445556640625,"2387":-0.0657302588224411,"2388":0.42334842681884766,"2389":-0.9314723610877991,"2390":-0.22839224338531494,"2391":0.6682977080345154,"2392":0.09618929773569107,"2393":-0.07859108597040176,"2394":0.07028333097696304,"2395":0.014469028450548649,"2396":-0.045426033437252045,"2397":-0.5644716620445251,"2398":-0.028144197538495064,"2399":0.27724310755729675,"2400":0.1371620148420334,"2401":0.9150141477584839,"2402":0.24687130749225616,"2403":-1.5146764516830444,"2404":1.0986031293869019,"2405":-0.7826467156410217,"2406":0.08609768748283386,"2407":0.5968862771987915,"2408":1.1778709888458252,"2409":0.3098580241203308,"2410":1.0180680751800537,"2411":8.874800682067871,"2412":3.0576367378234863,"2413":0.5125911235809326,"2414":-0.4136543571949005,"2415":0.4844822287559509,"2416":0.44916215538978577,"2417":-1.901787281036377,"2418":-1.4401466846466064,"2419":-2.9559435844421387,"2420":-1.421711802482605,"2421":-0.06673328578472137,"2422":1.8891819715499878,"2423":-2.6072964668273926,"2424":1.4136688709259033,"2425":1.2379282712936401,"2426":2.789316415786743,"2427":0.44824203848838806,"2428":-3.738100290298462,"2429":0.7074279189109802,"2430":-0.40910831093788147,"2431":-0.6928160786628723,"2432":-0.9152619242668152,"2433":0.5966815948486328,"2434":0.6172875165939331,"2435":-1.8737713098526,"2436":-0.28431379795074463,"2437":-0.8433467745780945,"2438":0.3482435941696167,"2439":11.851770401000977,"2440":1.5524027347564697,"2441":0.37088313698768616,"2442":-1.2446815967559814,"2443":2.9204399585723877,"2444":3.259402275085449,"2445":0.5639362335205078,"2446":-2.246147632598877,"2447":-0.290675550699234,"2448":6.96726131439209,"2449":-0.559938907623291,"2450":0.10341398417949677,"2451":0.008994054980576038,"2452":0.6221233606338501,"2453":0.4761742353439331,"2454":-0.011626321822404861,"2455":0.02483905479311943,"2456":0.6085589528083801,"2457":-0.5135914087295532,"2458":-0.018692631274461746,"2459":0.6519869565963745,"2460":-0.0011762897484004498,"2461":0.08147811889648438,"2462":-0.08330517262220383,"2463":0.09063445031642914,"2464":-0.6719022393226624,"2465":0.373035728931427,"2466":0.5976670980453491,"2467":0.029254768043756485,"2468":0.7440364956855774,"2469":0.19364969432353973,"2470":0.2247324138879776,"2471":0.5769782662391663,"2472":0.028850257396697998,"2473":-0.43636995553970337,"2474":0.3122626543045044,"2475":0.01763400249183178,"2476":0.45301854610443115,"2477":0.6201278567314148,"2478":0.21923920512199402,"2479":-0.7191157937049866,"2480":0.6026803255081177,"2481":-0.009233816526830196,"2482":0.6073903441429138,"2483":0.7191222906112671,"2484":0.050489168614149094,"2485":0.5921379327774048,"2486":-0.7021082043647766,"2487":0.39854559302330017,"2488":0.7221914529800415,"2489":0.40175554156303406,"2490":-0.03605400770902634,"2491":0.6030773520469666,"2492":0.04447248950600624,"2493":-0.07780534029006958,"2494":0.020610639825463295,"2495":0.016971589997410774,"2496":0.6204830408096313,"2497":-0.5880832672119141,"2498":0.1214059442281723,"2499":0.3522009253501892}},"inputBias":{"rows":50,"columns":1,"weights":{"0":6.282118797302246,"1":2.8094587326049805,"2":4.173987865447998,"3":1.7470729351043701,"4":12.76326847076416,"5":6.298895359039307,"6":7.171797275543213,"7":8.2960786819458,"8":3.2544496059417725,"9":7.866825103759766,"10":0.2116272747516632,"11":4.380781173706055,"12":4.0990166664123535,"13":0.017621580511331558,"14":5.252721309661865,"15":8.988112449645996,"16":5.561521053314209,"17":1.5627763271331787,"18":0.0013159073423594236,"19":7.903208255767822,"20":1.917197585105896,"21":-0.17956647276878357,"22":7.6504950523376465,"23":-0.6980642676353455,"24":9.788808822631836,"25":3.004034996032715,"26":-0.21821478009223938,"27":6.971302509307861,"28":0.3867107331752777,"29":6.884146690368652,"30":6.222391605377197,"31":5.617269992828369,"32":4.1719231605529785,"33":2.8610434532165527,"34":6.233097076416016,"35":7.03329610824585,"36":0.014119734056293964,"37":0.21516357362270355,"38":4.345278739929199,"39":1.0170305967330933,"40":4.097680568695068,"41":5.734393119812012,"42":0.527731716632843,"43":16.01826286315918,"44":2.7688801288604736,"45":4.692098617553711,"46":1.3679804801940918,"47":5.868709564208984,"48":2.98396372795105,"49":-0.05615702643990517}},"forgetMatrix":{"rows":50,"columns":8,"weights":{"0":-0.41226041316986084,"1":-0.33227238059043884,"2":-0.3465409576892853,"3":-0.30128198862075806,"4":-0.2142544537782669,"5":0.24081207811832428,"6":-0.23846907913684845,"7":-0.26328936219215393,"8":0.030917556956410408,"9":0.06521099805831909,"10":-0.005545512307435274,"11":0.07393298298120499,"12":0.06824516505002975,"13":0.006280635017901659,"14":0.09070468693971634,"15":0.022966569289565086,"16":-0.15143410861492157,"17":0.0051121492870152,"18":0.058578971773386,"19":-0.005808927584439516,"20":-0.1682456135749817,"21":-0.16885972023010254,"22":-0.05704359710216522,"23":-0.08678703755140305,"24":-0.0035525145940482616,"25":-0.1139904111623764,"26":-0.08916724473237991,"27":0.08792084455490112,"28":-0.08562878519296646,"29":-0.15343281626701355,"30":0.09195099025964737,"31":0.1481795310974121,"32":0.3679516613483429,"33":0.31186443567276,"34":0.3743024468421936,"35":0.25155478715896606,"36":0.2922951281070709,"37":0.36741548776626587,"38":0.3864259123802185,"39":0.2733542025089264,"40":0.3041776716709137,"41":0.26596295833587646,"42":1.1824642419815063,"43":-0.6934024095535278,"44":-0.019869448617100716,"45":-0.03358288109302521,"46":1.0999943017959595,"47":-0.34568464756011963,"48":0.06917170435190201,"49":0.03618256747722626,"50":-0.004164417739957571,"51":0.011023039929568768,"52":0.10725235939025879,"53":0.07717328518629074,"54":0.05077154189348221,"55":0.0709557980298996,"56":0.1249282956123352,"57":-0.024432264268398285,"58":0.017889896407723427,"59":0.006154797971248627,"60":0.07272510975599289,"61":0.10703568905591965,"62":0.08142206817865372,"63":-0.03521585837006569,"64":-0.1225723847746849,"65":0.37404969334602356,"66":-0.49172037839889526,"67":0.5423176288604736,"68":-0.24994608759880066,"69":-0.04013554006814957,"70":-0.45351070165634155,"71":0.5587080717086792,"72":0.07275445759296417,"73":-0.019614486023783684,"74":-0.033320989459753036,"75":0.06325743347406387,"76":0.055229008197784424,"77":0.0352645218372345,"78":0.061899006366729736,"79":-0.13556641340255737,"80":0.09516888856887817,"81":0.3827863037586212,"82":1.8527634143829346,"83":-0.834419310092926,"84":0.24346370995044708,"85":-0.38047078251838684,"86":0.9769412279129028,"87":-1.7197785377502441,"88":-0.39619874954223633,"89":-0.2937823235988617,"90":-0.3769529163837433,"91":-0.35459208488464355,"92":-0.2578457295894623,"93":-0.23568524420261383,"94":-0.3086300492286682,"95":-0.34856459498405457,"96":-0.2003914713859558,"97":-0.2644735276699066,"98":0.22165855765342712,"99":0.12856455147266388,"100":-0.11104494333267212,"101":0.14266501367092133,"102":0.3475034236907959,"103":1.2240698337554932,"104":0.45289695262908936,"105":0.46178457140922546,"106":0.386307954788208,"107":0.5493812561035156,"108":-0.41181451082229614,"109":0.2625843286514282,"110":-0.13206468522548676,"111":-0.11020781844854355,"112":0.07884275168180466,"113":-0.015101160854101181,"114":0.12242277711629868,"115":0.11891686916351318,"116":0.07599236816167831,"117":0.06725290417671204,"118":0.02457919716835022,"119":0.08348816633224487,"120":0.045399729162454605,"121":0.15343734622001648,"122":0.028008930385112762,"123":0.05947502329945564,"124":0.41799139976501465,"125":0.08544514328241348,"126":0.2988659143447876,"127":0.1558944135904312,"128":0.03684607520699501,"129":0.015603989362716675,"130":0.03735347092151642,"131":0.024939540773630142,"132":0.021257106214761734,"133":-0.01889866031706333,"134":0.0839623436331749,"135":0.11846477538347244,"136":-0.04652285948395729,"137":-0.014287563040852547,"138":0.12133467197418213,"139":0.026880985125899315,"140":-0.08835616707801819,"141":-0.1153390184044838,"142":0.09666583687067032,"143":0.04422841966152191,"144":-0.13608328998088837,"145":0.8470568060874939,"146":-0.5146004557609558,"147":3.142878532409668,"148":0.6694138050079346,"149":1.1759982109069824,"150":-0.23549406230449677,"151":3.7168684005737305,"152":0.32714465260505676,"153":0.1344907432794571,"154":0.031048698350787163,"155":0.3420398235321045,"156":-0.06427187472581863,"157":0.010295712389051914,"158":-0.534576416015625,"159":0.4179975390434265,"160":-0.10487356036901474,"161":-0.2240259051322937,"162":-0.13215821981430054,"163":-0.3254448175430298,"164":-0.18355950713157654,"165":-0.19244560599327087,"166":-0.5505836606025696,"167":-0.15865686535835266,"168":0.05603055655956268,"169":0.4994199573993683,"170":-0.33470940589904785,"171":0.186555415391922,"172":0.12566649913787842,"173":-0.5351464748382568,"174":-0.2163245677947998,"175":-0.6871808767318726,"176":0.4234555661678314,"177":0.5528019070625305,"178":-0.32731014490127563,"179":0.08916111290454865,"180":-0.29088515043258667,"181":-0.2978210747241974,"182":0.37433576583862305,"183":-2.6816139221191406,"184":0.32538312673568726,"185":0.24233107268810272,"186":0.2925940155982971,"187":0.3132675886154175,"188":0.3053545355796814,"189":0.24446755647659302,"190":0.3698473572731018,"191":0.253507137298584,"192":0.2584386467933655,"193":0.3614273965358734,"194":0.3693746030330658,"195":0.3698103129863739,"196":0.22561585903167725,"197":-0.23489534854888916,"198":0.2936026155948639,"199":0.2543715536594391,"200":0.18249370157718658,"201":0.1069222167134285,"202":0.32645949721336365,"203":0.381297767162323,"204":-0.293121337890625,"205":0.02832047827541828,"206":-0.060160279273986816,"207":0.07817207276821136,"208":-0.28593921661376953,"209":0.1233559399843216,"210":0.11506608128547668,"211":-0.17433896660804749,"212":0.16980868577957153,"213":0.12832267582416534,"214":0.27255794405937195,"215":0.16380824148654938,"216":0.023686889559030533,"217":0.044632647186517715,"218":0.09802186489105225,"219":0.022992178797721863,"220":0.0018781130202114582,"221":0.04110674187541008,"222":0.02368282526731491,"223":0.11516665667295456,"224":0.28984734416007996,"225":0.2612520456314087,"226":0.35233378410339355,"227":0.37243378162384033,"228":0.28856712579727173,"229":0.2520270347595215,"230":0.25561997294425964,"231":0.256289005279541,"232":-0.42989200353622437,"233":-0.4208689033985138,"234":-0.2639141380786896,"235":-0.30764925479888916,"236":-0.47031036019325256,"237":-0.2796843349933624,"238":-0.3732459843158722,"239":-0.48403051495552063,"240":-0.16273875534534454,"241":-0.07255131006240845,"242":-0.044953953474760056,"243":-0.12553244829177856,"244":0.21029691398143768,"245":-0.21063873171806335,"246":-0.06442223489284515,"247":0.24176685512065887,"248":-0.3295481204986572,"249":-0.21607986092567444,"250":-0.3478727638721466,"251":-0.24650636315345764,"252":-0.3454211950302124,"253":-0.3231569528579712,"254":-0.3683452904224396,"255":-0.32199257612228394,"256":-0.30645203590393066,"257":-0.2818993926048279,"258":-0.31125935912132263,"259":-0.29235905408859253,"260":-0.2662839889526367,"261":-0.228689044713974,"262":-0.2579800486564636,"263":-0.35100865364074707,"264":0.16312041878700256,"265":0.015226688235998154,"266":-0.03619535639882088,"267":0.030805356800556183,"268":0.021969139575958252,"269":-0.03858762979507446,"270":0.05483809858560562,"271":0.07050179690122604,"272":0.08608849346637726,"273":0.16203713417053223,"274":0.3254533112049103,"275":-0.0447581522166729,"276":0.4554314613342285,"277":0.25420984625816345,"278":0.3519655466079712,"279":0.5562906861305237,"280":-0.3361946642398834,"281":0.40512582659721375,"282":0.13112422823905945,"283":-0.3734649419784546,"284":-0.10647067427635193,"285":-0.060617364943027496,"286":-0.1545434445142746,"287":0.058197252452373505,"288":0.20680280029773712,"289":0.10909255594015121,"290":0.07715961337089539,"291":0.19309665262699127,"292":0.25982826948165894,"293":0.07626184821128845,"294":0.18261952698230743,"295":0.05213896557688713,"296":0.3841366767883301,"297":0.2720499634742737,"298":0.2390746772289276,"299":0.2899945080280304,"300":0.3761918246746063,"301":0.2758373022079468,"302":0.2791544198989868,"303":0.3478049337863922,"304":0.10494392365217209,"305":-0.027631472796201706,"306":-0.04567818343639374,"307":0.05117034912109375,"308":-0.012976638972759247,"309":0.006177482660859823,"310":-0.001335207256488502,"311":-0.00752613041549921,"312":-0.1948142647743225,"313":-0.36869779229164124,"314":-0.3589438796043396,"315":-0.16553054749965668,"316":-0.0608970932662487,"317":-0.1030733734369278,"318":-0.35572853684425354,"319":-0.38236185908317566,"320":1.2122758626937866,"321":0.8356168866157532,"322":-1.1342566013336182,"323":0.11116786301136017,"324":-1.012465000152588,"325":3.023249864578247,"326":0.0013804470654577017,"327":-1.2899200916290283,"328":-0.04753641039133072,"329":0.03318006545305252,"330":-0.04694993048906326,"331":0.1649351865053177,"332":0.06414307653903961,"333":0.07897478342056274,"334":-0.07160325348377228,"335":0.12064007669687271,"336":-0.05528201535344124,"337":0.11267924308776855,"338":0.35902512073516846,"339":-0.6718258261680603,"340":-0.02940419316291809,"341":0.024148425087332726,"342":0.7576761841773987,"343":-0.7454283237457275,"344":0.06830742210149765,"345":0.5372822880744934,"346":0.46156564354896545,"347":0.5046377182006836,"348":0.07549424469470978,"349":0.6275269985198975,"350":0.38155966997146606,"351":0.6823092699050903,"352":0.5182504653930664,"353":0.23556114733219147,"354":0.10555455833673477,"355":0.19067677855491638,"356":0.32869625091552734,"357":0.16188810765743256,"358":0.11727509647607803,"359":0.20615427196025848,"360":-0.01435353048145771,"361":0.10010109841823578,"362":0.12713399529457092,"363":0.07573205977678299,"364":0.12854157388210297,"365":0.1645929217338562,"366":0.12444600462913513,"367":0.27786707878112793,"368":-0.2377118319272995,"369":-0.09051283448934555,"370":0.2119768261909485,"371":-0.758417010307312,"372":0.03735365346074104,"373":-0.5881894826889038,"374":0.16251696646213531,"375":1.0969680547714233,"376":0.03451671451330185,"377":-0.02790904976427555,"378":0.006939304061233997,"379":0.09138172119855881,"380":0.09653966873884201,"381":-0.03637334704399109,"382":0.07321634888648987,"383":0.10198751837015152,"384":0.12293027341365814,"385":0.06392274051904678,"386":0.10634549707174301,"387":0.09431273490190506,"388":0.07896465063095093,"389":0.07920151203870773,"390":0.0873446986079216,"391":0.150381937623024,"392":-0.4542869031429291,"393":-0.017915133386850357,"394":0.1948663592338562,"395":-0.6580671668052673,"396":0.6370418667793274,"397":-0.13660603761672974,"398":0.3439643383026123,"399":-0.789664089679718}},"forgetHidden":{"rows":50,"columns":50,"weights":{"0":-0.015347015112638474,"1":0.0848359540104866,"2":-0.7796998620033264,"3":-0.6099520325660706,"4":0.01822582818567753,"5":0.04202869161963463,"6":-0.7710410952568054,"7":0.4990549683570862,"8":-0.10884816944599152,"9":-0.6579993963241577,"10":-0.036506425589323044,"11":0.5236437916755676,"12":-0.1211928054690361,"13":-0.04438601806759834,"14":0.6927464604377747,"15":-0.33395352959632874,"16":-0.7334670424461365,"17":0.12242579460144043,"18":-2.8628318309783936,"19":-0.798021674156189,"20":-0.49632373452186584,"21":-0.13613229990005493,"22":-0.06361149251461029,"23":0.7687548995018005,"24":-0.2719859182834625,"25":1.2010209560394287,"26":-0.16598330438137054,"27":-0.7768824100494385,"28":-0.1554105281829834,"29":0.7898563742637634,"30":-0.6751562356948853,"31":0.04903654009103775,"32":-0.7194536924362183,"33":-0.7883557677268982,"34":-0.14383581280708313,"35":-0.6578991413116455,"36":0.2962866723537445,"37":-0.8687098026275635,"38":-0.7980452179908752,"39":0.40599536895751953,"40":-0.0836646556854248,"41":-0.6374875903129578,"42":-0.011221158318221569,"43":0.24703896045684814,"44":-0.01790895126760006,"45":-0.04089869558811188,"46":-0.16089868545532227,"47":0.6337233781814575,"48":0.2807134687900543,"49":-0.2738703787326813,"50":0.6652607917785645,"51":0.32256779074668884,"52":-0.2068859338760376,"53":3.959916114807129,"54":0.8274065256118774,"55":-0.1913810521364212,"56":0.034432634711265564,"57":-1.6701229810714722,"58":0.7209265828132629,"59":-0.040239881724119186,"60":0.6991326808929443,"61":0.17940999567508698,"62":0.07163796573877335,"63":0.22045813500881195,"64":0.08382908999919891,"65":3.3705685138702393,"66":-0.11635354906320572,"67":-0.7890337109565735,"68":-0.8866186141967773,"69":-1.8794760704040527,"70":-0.8571319580078125,"71":0.0016382437897846103,"72":0.5331008434295654,"73":0.18411505222320557,"74":-0.08780065923929214,"75":0.741533100605011,"76":-0.8094024062156677,"77":-0.07520928233861923,"78":-0.8664519190788269,"79":0.05261175334453583,"80":-0.014291462488472462,"81":-0.7202321290969849,"82":-0.17608726024627686,"83":-0.2218499779701233,"84":0.3713419437408447,"85":-0.2574969530105591,"86":0.11847691982984543,"87":-0.7964584827423096,"88":-0.14645600318908691,"89":0.057310860604047775,"90":0.5201165676116943,"91":-0.11895710229873657,"92":-0.7654834985733032,"93":0.9383813738822937,"94":0.23313070833683014,"95":0.12987089157104492,"96":-0.17672374844551086,"97":-0.0879545733332634,"98":0.7386587858200073,"99":-0.21063554286956787,"100":-0.1354823112487793,"101":0.3579641878604889,"102":1.761788010597229,"103":1.1139556169509888,"104":0.3757769763469696,"105":-0.32788220047950745,"106":0.34714579582214355,"107":-1.5700105428695679,"108":0.2408098429441452,"109":0.7798954248428345,"110":0.18218660354614258,"111":2.137423515319824,"112":0.3166573643684387,"113":0.27651384472846985,"114":-0.6381323933601379,"115":3.6915903091430664,"116":1.2259992361068726,"117":-0.28184017539024353,"118":-0.5264132618904114,"119":-1.1247860193252563,"120":-0.5328479409217834,"121":0.24857759475708008,"122":1.1353951692581177,"123":-0.49351295828819275,"124":1.3808255195617676,"125":0.3916429579257965,"126":0.9628320932388306,"127":0.708146870136261,"128":-1.3414604663848877,"129":-0.37761110067367554,"130":0.7349502444267273,"131":-0.2891698479652405,"132":2.7254648208618164,"133":0.6642417907714844,"134":0.26662465929985046,"135":0.7236994504928589,"136":-0.5841320753097534,"137":-0.21050730347633362,"138":0.702248752117157,"139":-0.4598679542541504,"140":0.38184478878974915,"141":0.8125831484794617,"142":2.462409257888794,"143":0.3541206419467926,"144":0.3946978747844696,"145":0.3505443036556244,"146":1.3848198652267456,"147":-1.4238715171813965,"148":0.3628804683685303,"149":-0.024084098637104034,"150":-0.38039010763168335,"151":-0.06486169993877411,"152":-0.0044946507550776005,"153":0.4961618185043335,"154":-0.0896654725074768,"155":0.9832859039306641,"156":1.743988037109375,"157":-0.04321707785129547,"158":-0.24336208403110504,"159":0.36370328068733215,"160":1.7299346923828125,"161":-8.838399887084961,"162":2.3894033432006836,"163":-0.28531718254089355,"164":-0.43708935379981995,"165":0.11747271567583084,"166":0.41581442952156067,"167":-0.3764877915382385,"168":-0.3423270583152771,"169":-0.05793473497033119,"170":0.14544856548309326,"171":0.023776033893227577,"172":-1.6676137447357178,"173":-2.024885892868042,"174":0.3215756118297577,"175":-0.026099588721990585,"176":-0.47351598739624023,"177":0.4262475073337555,"178":0.7944163084030151,"179":0.4119914472103119,"180":0.3101568818092346,"181":0.08535591512918472,"182":0.4244142472743988,"183":0.23220893740653992,"184":-0.20849469304084778,"185":0.7551687359809875,"186":-0.13867413997650146,"187":-0.08259548246860504,"188":0.1168900802731514,"189":15.24137020111084,"190":2.6405773162841797,"191":0.4120875597000122,"192":-0.8656074404716492,"193":-0.7149565815925598,"194":-3.492889404296875,"195":-0.147511288523674,"196":-2.0418972969055176,"197":-0.4393382966518402,"198":0.3599432408809662,"199":-0.3538653254508972,"200":0.3028131425380707,"201":0.23351554572582245,"202":-0.12496408820152283,"203":-0.005680605303496122,"204":0.2993926703929901,"205":0.10794960707426071,"206":-0.3473856449127197,"207":-0.02560708485543728,"208":0.08837176859378815,"209":-0.1506628394126892,"210":0.1663355529308319,"211":-0.004459204617887735,"212":-0.24697306752204895,"213":0.3626168966293335,"214":0.38410329818725586,"215":-0.00995606929063797,"216":-0.34409236907958984,"217":-0.3294561505317688,"218":0.027303781360387802,"219":-0.10753016173839569,"220":0.019856467843055725,"221":-0.039915479719638824,"222":0.2597529888153076,"223":0.13058188557624817,"224":-0.3717813193798065,"225":0.1328173577785492,"226":0.10088661313056946,"227":-0.31882697343826294,"228":-0.16030541062355042,"229":0.24913886189460754,"230":-0.3455584645271301,"231":-0.16124789416790009,"232":-0.28614893555641174,"233":0.13486802577972412,"234":0.36825141310691833,"235":-0.3464851379394531,"236":-0.02175414189696312,"237":-0.12701241672039032,"238":-0.24290503561496735,"239":0.21020352840423584,"240":0.2603943943977356,"241":-0.012734165415167809,"242":-0.2818261682987213,"243":0.18057410418987274,"244":0.33422210812568665,"245":0.3740469515323639,"246":-0.22430266439914703,"247":0.14443469047546387,"248":0.33341678977012634,"249":-0.10540062189102173,"250":0.3223000168800354,"251":-0.7623211741447449,"252":-1.381532907485962,"253":5.886715412139893,"254":0.00036115950206294656,"255":4.271999835968018,"256":-3.47702693939209,"257":1.39500892162323,"258":-0.33676809072494507,"259":-0.9225400686264038,"260":-3.700037717819214,"261":10.954158782958984,"262":0.6379727125167847,"263":-0.6218389272689819,"264":0.8126572966575623,"265":-0.191592276096344,"266":-0.25858789682388306,"267":-1.69412100315094,"268":-1.1439694166183472,"269":0.5268977880477905,"270":0.4256105124950409,"271":-4.024997711181641,"272":3.1450178623199463,"273":-7.389443397521973,"274":-1.9678336381912231,"275":-0.2044127881526947,"276":-1.0656906366348267,"277":-0.8589481115341187,"278":-1.6883195638656616,"279":0.28551754355430603,"280":3.294196844100952,"281":0.14032261073589325,"282":3.2875256538391113,"283":-0.7262998819351196,"284":0.15587984025478363,"285":-0.8002854585647583,"286":1.4228479862213135,"287":-1.4669129848480225,"288":0.19918851554393768,"289":-0.13194222748279572,"290":0.4803537130355835,"291":-0.9001416563987732,"292":1.3016055822372437,"293":6.586848258972168,"294":-5.0446929931640625,"295":-0.31063684821128845,"296":-7.33950662612915,"297":0.42426085472106934,"298":-0.7970129251480103,"299":0.4668896198272705,"300":-0.08490962535142899,"301":0.025080950930714607,"302":0.5056501626968384,"303":1.415332317352295,"304":0.04783981665968895,"305":-0.06199955195188522,"306":0.1870698183774948,"307":-2.9800360202789307,"308":-0.07817158848047256,"309":0.5453743934631348,"310":-0.008953231386840343,"311":-0.435244619846344,"312":0.07978793978691101,"313":0.016958625987172127,"314":-0.3714841306209564,"315":3.397275686264038,"316":0.5907816290855408,"317":0.018314342945814133,"318":0.494753360748291,"319":-0.26146116852760315,"320":-0.1286654770374298,"321":0.6188409924507141,"322":0.2055666744709015,"323":-0.7685366272926331,"324":0.11328929662704468,"325":0.08634622395038605,"326":0.049825385212898254,"327":0.5374425649642944,"328":-0.04708358272910118,"329":-0.2870762348175049,"330":0.22982148826122284,"331":0.03003549389541149,"332":0.7463645935058594,"333":1.0853328704833984,"334":0.00951121561229229,"335":0.5480048656463623,"336":-0.616904079914093,"337":0.22643132507801056,"338":0.7126867771148682,"339":-3.0105745792388916,"340":0.0024553914554417133,"341":1.2037895917892456,"342":0.024960819631814957,"343":-0.007441926747560501,"344":0.04910963401198387,"345":0.001541599747724831,"346":0.0533021055161953,"347":-1.7400926351547241,"348":-0.09265956282615662,"349":0.2343297302722931,"350":-0.05980285257101059,"351":0.5141406655311584,"352":0.7274481654167175,"353":0.8831533193588257,"354":0.9354814887046814,"355":-0.009286508895456791,"356":0.6366897225379944,"357":-0.6962683796882629,"358":0.18119153380393982,"359":0.7116027474403381,"360":0.9959034323692322,"361":-6.363602638244629,"362":0.1732524186372757,"363":0.024440951645374298,"364":-0.6130170822143555,"365":1.0919660329818726,"366":0.28624454140663147,"367":-0.9636470079421997,"368":-0.9398013949394226,"369":-1.1483123302459717,"370":-0.4847522974014282,"371":0.4592765271663666,"372":0.30116426944732666,"373":-1.0615483522415161,"374":0.3724794089794159,"375":0.41593268513679504,"376":-0.39725372195243835,"377":0.7211579084396362,"378":-0.5168420076370239,"379":-0.6398062705993652,"380":0.5694231986999512,"381":-0.3375924825668335,"382":0.7757616639137268,"383":0.7443239688873291,"384":0.060616783797740936,"385":0.7922883629798889,"386":-0.32638880610466003,"387":-0.5689391493797302,"388":0.8251290917396545,"389":-1.0904977321624756,"390":0.08091679960489273,"391":0.938679575920105,"392":-0.40105870366096497,"393":1.1275694370269775,"394":0.03893342614173889,"395":-0.07443393766880035,"396":0.11410718411207199,"397":-0.814842939376831,"398":0.008312569931149483,"399":0.3036978244781494,"400":0.3884146809577942,"401":0.8422073721885681,"402":0.28290772438049316,"403":0.6595653891563416,"404":1.4047667980194092,"405":-2.0097944736480713,"406":0.21304938197135925,"407":-1.0938364267349243,"408":0.7406935691833496,"409":0.14962993562221527,"410":1.048749327659607,"411":-4.233310222625732,"412":-0.9039000868797302,"413":0.5596972107887268,"414":-0.15182992815971375,"415":0.6746388673782349,"416":0.14845602214336395,"417":-1.5668381452560425,"418":-2.554609775543213,"419":-3.4199273586273193,"420":-2.4117743968963623,"421":0.16130654513835907,"422":1.1226750612258911,"423":-2.1127636432647705,"424":0.1130993515253067,"425":1.1657357215881348,"426":-7.578407287597656,"427":0.17793628573417664,"428":-3.547354221343994,"429":0.56465744972229,"430":2.1564650535583496,"431":-0.9050982594490051,"432":1.355456829071045,"433":0.13201865553855896,"434":0.6277457475662231,"435":0.13151727616786957,"436":-0.22296836972236633,"437":-2.0374608039855957,"438":0.22029125690460205,"439":2.2791707515716553,"440":1.0753443241119385,"441":0.28054502606391907,"442":3.7255632877349854,"443":4.947912216186523,"444":0.8195343613624573,"445":0.6551055312156677,"446":1.5557212829589844,"447":-0.37987813353538513,"448":1.5051605701446533,"449":-0.7776031494140625,"450":-0.1693667769432068,"451":-0.01714121177792549,"452":0.5944377779960632,"453":1.1426708698272705,"454":0.8387483358383179,"455":0.11541587114334106,"456":1.010205864906311,"457":-1.5218722820281982,"458":-0.008880611509084702,